{"learner":{"attributes":{"scikit_learn":"{\"_estimator_type\": \"regressor\"}"},"feature_names":["slope_60","slope_120","vix_level","vol_10","target_tlt_ratio_20","bb_width","macd_signal","target_tlt_rel_ret","tlt_ret_20","drawdown","tlt_to_ma_60","vol_20","macd_hist","price_to_ma_120","macd","target_spy_ratio_20","vix_ret_5","hyg_ret","vol_ratio","spy_to_ma_60","price_to_ma_60","tlt_ret_5","spy_ret_5","spy_ret_20","tlt_ret_1"],"feature_types":["float","float","float","float","float","float","float","float","float","float","float","float","float","float","float","float","float","float","float","float","float","float","float","float","float"],"gradient_booster":{"model":{"cats":{"enc":[],"feature_segments":[],"sorted_idx":[]},"gbtree_model_param":{"num_parallel_tree":"1","num_trees":"116"},"iteration_indptr":[0,1,2,3,4,5,6,7,8,9,10,11,12,13,14,15,16,17,18,19,20,21,22,23,24,25,26,27,28,29,30,31,32,33,34,35,36,37,38,39,40,41,42,43,44,45,46,47,48,49,50,51,52,53,54,55,56,57,58,59,60,61,62,63,64,65,66,67,68,69,70,71,72,73,74,75,76,77,78,79,80,81,82,83,84,85,86,87,88,89,90,91,92,93,94,95,96,97,98,99,100,101,102,103,104,105,106,107,108,109,110,111,112,113,114,115,116],"tree_info":[0,0,0,0,0,0,0,0,0,0,0,0,0,0,0,0,0,0,0,0,0,0,0,0,0,0,0,0,0,0,0,0,0,0,0,0,0,0,0,0,0,0,0,0,0,0,0,0,0,0,0,0,0,0,0,0,0,0,0,0,0,0,0,0,0,0,0,0,0,0,0,0,0,0,0,0,0,0,0,0,0,0,0,0,0,0,0,0,0,0,0,0,0,0,0,0,0,0,0,0,0,0,0,0,0,0,0,0,0,0,0,0,0,0,0,0],"trees":[{"base_weights":[-5.593755E-4,7.505752E-2,-2.975179E-3,2.5742576E-2,8.4705636E-2,-5.719722E-2,-1.668904E-3,2.7333675E-8,1.897123E-4,3.2942166E-4,5.960373E-4,-4.6432484E-4,-5.1175033E-5,-1.5180791E-5,2.3170463E-4],"categories":[],"categories_nodes":[],"categories_segments":[],"categories_sizes":[],"default_left":[0,0,0,0,0,0,0,0,0,0,0,0,0,0,0],"id":0,"left_children":[1,3,5,7,9,11,13,-1,-1,-1,-1,-1,-1,-1,-1],"loss_changes":[2.0061843E-1,1.3996527E-2,7.5266495E-2,1.8543815E-3,1.058425E-2,3.5940163E-2,5.7838216E-2,0E0,0E0,0E0,0E0,0E0,0E0,0E0,0E0],"parents":[2147483647,0,0,1,1,2,2,3,3,4,4,5,5,6,6],"right_children":[2,4,6,8,10,12,14,-1,-1,-1,-1,-1,-1,-1,-1],"split_conditions":[-2.7305193E-3,-5.872766E-2,-2.6826742E0,-9.511345E-2,3.116E1,-1.5001389E-2,3.294E1,2.7333675E-8,1.897123E-4,3.2942166E-4,5.960373E-4,-4.6432484E-4,-5.1175033E-5,-1.5180791E-5,2.3170463E-4],"split_indices":[0,8,12,16,2,17,2,0,0,0,0,0,0,0,0],"split_type":[0,0,0,0,0,0,0,0,0,0,0,0,0,0,0],"sum_hessian":[1.096E3,3.3E1,1.063E3,6E0,2.7E1,2.4E1,1.039E3,2E0,4E0,1.7E1,1E1,1.4E1,1E1,1.013E3,2.6E1],"tree_param":{"num_deleted":"0","num_feature":"25","num_nodes":"15","size_leaf_vector":"1"}},{"base_weights":[1.3603388E-3,5.8156636E-2,-4.0160175E-4,3.0678168E-2,7.968176E-2,4.890788E-3,-1.9125272E-2,3.7596048E-5,2.4447942E-4,2.8525724E-4,5.369226E-4,1.8733368E-5,2.651554E-4,-2.2486509E-4,-2.261869E-5],"categories":[],"categories_nodes":[],"categories_segments":[],"categories_sizes":[],"default_left":[0,0,0,0,0,0,0,0,0,0,0,0,0,0,0],"id":1,"left_children":[1,3,5,7,9,11,13,-1,-1,-1,-1,-1,-1,-1,-1],"loss_changes":[1.1640673E-1,1.8257238E-2,1.11969486E-1,5.9749037E-3,5.28045E-3,5.3199828E-2,8.6914234E-2,0E0,0E0,0E0,0E0,0E0,0E0,0E0,0E0],"parents":[2147483647,0,0,1,1,2,2,3,3,4,4,5,5,6,6],"right_children":[2,4,6,8,10,12,14,-1,-1,-1,-1,-1,-1,-1,-1],"split_conditions":[-2.7305193E-3,-4.7406092E-2,1.1081936E-1,-6.7756577E0,2.859E1,2.99E1,-2.2249317E-2,3.7596048E-5,2.4447942E-4,2.8525724E-4,5.369226E-4,1.8733368E-5,2.651554E-4,-2.2486509E-4,-2.261869E-5],"split_indices":[0,10,5,6,2,2,10,0,0,0,0,0,0,0,0],"split_type":[0,0,0,0,0,0,0,0,0,0,0,0,0,0,0],"sum_hessian":[1.162E3,3.4E1,1.128E3,1.6E1,1.8E1,8.8E2,2.48E2,7E0,9E0,1E1,8E0,8.56E2,2.4E1,9.5E1,1.53E2],"tree_param":{"num_deleted":"0","num_feature":"25","num_nodes":"15","size_leaf_vector":"1"}},{"base_weights":[1.6262383E-3,-5.2442186E-4,5.912985E-2,3.848478E-3,-1.7777286E-2,9.230139E-2,3.6442365E-2,1.0727235E-4,-5.383638E-7,-8.175048E-5,-5.0610065E-4,7.078539E-5,5.0887244E-4,2.8023083E-4,-3.6430857E-4],"categories":[],"categories_nodes":[],"categories_segments":[],"categories_sizes":[],"default_left":[0,0,0,0,0,0,0,0,0,0,0,0,0,0,0],"id":2,"left_children":[1,3,5,7,9,11,13,-1,-1,-1,-1,-1,-1,-1,-1],"loss_changes":[1.4064462E-1,8.2831636E-2,2.7492046E-2,5.7203934E-2,3.7621148E-2,4.202053E-3,4.9797144E-2,0E0,0E0,0E0,0E0,0E0,0E0,0E0,0E0],"parents":[2147483647,0,0,1,1,2,2,3,3,4,4,5,5,6,6],"right_children":[2,4,6,8,10,12,14,-1,-1,-1,-1,-1,-1,-1,-1],"split_conditions":[3.361E1,1.1081936E-1,-5.8287554E0,-1.0025717E-1,7.1142495E-2,-2.5228832E-2,3.412607E-2,1.0727235E-4,-5.383638E-7,-8.175048E-5,-5.0610065E-4,7.078539E-5,5.0887244E-4,2.8023083E-4,-3.6430857E-4],"split_indices":[2,5,6,6,19,15,3,0,0,0,0,0,0,0,0],"split_type":[0,0,0,0,0,0,0,0,0,0,0,0,0,0,0],"sum_hessian":[1.136E3,1.096E3,4E1,8.75E2,2.21E2,1.5E1,2.5E1,1.68E2,7.07E2,2.16E2,5E0,1E0,1.4E1,2.2E1,3E0],"tree_param":{"num_deleted":"0","num_feature":"25","num_nodes":"15","size_leaf_vector":"1"}},{"base_weights":[-1.2769001E-3,5.649017E-2,-2.7931756E-3,2.9189087E-2,7.6847985E-2,-1.7590858E-2,2.4020912E-3,2.1667378E-4,3.3539807E-5,4.2012936E-4,8.552908E-5,-2.3591761E-4,-1.470749E-5,3.8648137E-5,-6.632058E-5],"categories":[],"categories_nodes":[],"categories_segments":[],"categories_sizes":[],"default_left":[0,0,0,0,0,0,0,0,0,0,0,0,0,0,0],"id":3,"left_children":[1,3,5,7,9,11,13,-1,-1,-1,-1,-1,-1,-1,-1],"loss_changes":[9.931057E-2,1.3874792E-2,8.491547E-2,3.5612648E-3,1.5706196E-3,1.15482524E-1,6.0696725E-2,0E0,0E0,0E0,0E0,0E0,0E0,0E0,0E0],"parents":[2147483647,0,0,1,1,2,2,3,3,4,4,5,5,6,6],"right_children":[2,4,6,8,10,12,14,-1,-1,-1,-1,-1,-1,-1,-1],"split_conditions":[-2.7305193E-3,-2.2438776E-3,-2.368456E-2,4.51343E-3,-5.680568E-3,3.8423584E-4,1.193295E-3,2.1667378E-4,3.3539807E-5,4.2012936E-4,8.552908E-5,-2.3591761E-4,-1.470749E-5,3.8648137E-5,-6.632058E-5],"split_indices":[0,1,10,15,7,1,1,0,0,0,0,0,0,0,0],"split_type":[0,0,0,0,0,0,0,0,0,0,0,0,0,0,0],"sum_hessian":[1.131E3,2.8E1,1.103E3,1.3E1,1.5E1,2.86E2,8.17E2,8E0,5E0,1.4E1,1E0,1E2,1.86E2,6.15E2,2.02E2],"tree_param":{"num_deleted":"0","num_feature":"25","num_nodes":"15","size_leaf_vector":"1"}},{"base_weights":[-1.3266583E-3,-2.8089543E-3,9.222323E-2,2.5083686E-3,-1.8930273E-2,1.1737765E-1,8.37708E-3,-3.1062978E-6,1.6569461E-4,2.1576941E-4,-1.2617906E-4,6.4557476E-4,1.4308872E-4,-1.4337648E-4,1.2681415E-4],"categories":[],"categories_nodes":[],"categories_segments":[],"categories_sizes":[],"default_left":[0,0,0,0,0,0,0,0,0,0,0,0,0,0,0],"id":4,"left_children":[1,3,5,7,9,11,13,-1,-1,-1,-1,-1,-1,-1,-1],"loss_changes":[1.5113051E-1,9.194175E-2,3.4871444E-2,7.244557E-2,8.127461E-2,2.8245896E-3,3.4536717E-3,0E0,0E0,0E0,0E0,0E0,0E0,0E0,0E0],"parents":[2147483647,0,0,1,1,2,2,3,3,4,4,5,5,6,6],"right_children":[2,4,6,8,10,12,14,-1,-1,-1,-1,-1,-1,-1,-1],"split_conditions":[4.335E1,1.0587251E-1,-7.2550664E0,2.345E1,-2.816015E-3,4.5766648E-2,-4.823116E0,-3.1062978E-6,1.6569461E-4,2.1576941E-4,-1.2617906E-4,6.4557476E-4,1.4308872E-4,-1.4337648E-4,1.2681415E-4],"split_indices":[2,5,6,2,0,7,6,0,0,0,0,0,0,0,0],"split_type":[0,0,0,0,0,0,0,0,0,0,0,0,0,0,0],"sum_hessian":[1.087E3,1.071E3,1.6E1,8.06E2,2.65E2,1.2E1,4E0,7.29E2,7.7E1,2E1,2.45E2,1.1E1,1E0,1E0,3E0],"tree_param":{"num_deleted":"0","num_feature":"25","num_nodes":"15","size_leaf_vector":"1"}},{"base_weights":[4.8935437E-4,-2.0569141E-3,5.2990902E-2,3.0612138E-3,-1.9149797E-2,8.96574E-2,3.4711946E-2,1.3781372E-4,-5.894438E-6,-1.733215E-4,-1.2926517E-5,1.21692596E-4,5.383698E-4,-3.2029542E-4,2.3654518E-4],"categories":[],"categories_nodes":[],"categories_segments":[],"categories_sizes":[],"default_left":[0,0,0,0,0,0,0,0,0,0,0,0,0,0,0],"id":5,"left_children":[1,3,5,7,9,11,13,-1,-1,-1,-1,-1,-1,-1,-1],"loss_changes":[1.5317607E-1,9.5678166E-2,3.2409757E-2,8.1408024E-2,5.7862736E-2,1.1897996E-2,3.886835E-2,0E0,0E0,0E0,0E0,0E0,0E0,0E0,0E0],"parents":[2147483647,0,0,1,1,2,2,3,3,4,4,5,5,6,6],"right_children":[2,4,6,8,10,12,14,-1,-1,-1,-1,-1,-1,-1,-1],"split_conditions":[3.234E1,1.0523694E-1,-5.1948223E0,-3.980184E-1,3.0953006E-4,-1.9115234E-3,-1.4293723E-1,1.3781372E-4,-5.894438E-6,-1.733215E-4,-1.2926517E-5,1.21692596E-4,5.383698E-4,-3.2029542E-4,2.3654518E-4],"split_indices":[2,5,6,6,1,1,7,0,0,0,0,0,0,0,0],"split_type":[0,0,0,0,0,0,0,0,0,0,0,0,0,0,0],"sum_hessian":[1.144E3,1.092E3,5.2E1,8.41E2,2.51E2,1.6E1,3.6E1,1.28E2,7.13E2,1.37E2,1.14E2,3E0,1.3E1,3E0,3.3E1],"tree_param":{"num_deleted":"0","num_feature":"25","num_nodes":"15","size_leaf_vector":"1"}},{"base_weights":[1.2038995E-3,-1.646385E-3,3.824255E-2,2.4296492E-3,-1.767227E-2,2.974603E-2,5.8431696E-4,2.4094353E-4,3.6372269E-6,-1.5910657E-4,3.143736E-5,-3.2531234E-4,2.0460792E-4],"categories":[],"categories_nodes":[],"categories_segments":[],"categories_sizes":[],"default_left":[0,0,0,0,0,0,0,0,0,0,0,0,0],"id":6,"left_children":[1,3,5,7,9,11,-1,-1,-1,-1,-1,-1,-1],"loss_changes":[1.1819657E-1,6.7977875E-2,4.6148427E-2,6.251255E-2,6.279347E-2,6.3345045E-2,0E0,0E0,0E0,0E0,0E0,0E0,0E0],"parents":[2147483647,0,0,1,1,2,2,3,3,4,4,5,5],"right_children":[2,4,6,8,10,12,-1,-1,-1,-1,-1,-1,-1],"split_conditions":[2.952E1,1.5827743E-2,6.462316E-2,-2.7913349E-2,2.9303395E-4,-1.3042684E-1,5.8431696E-4,2.4094353E-4,3.6372269E-6,-1.5910657E-4,3.143736E-5,-3.2531234E-4,2.0460792E-4],"split_indices":[2,3,3,13,1,7,0,0,0,0,0,0,0],"split_type":[0,0,0,0,0,0,0,0,0,0,0,0,0],"sum_hessian":[1.118E3,1.039E3,7.9E1,8.29E2,2.1E2,7.2E1,7E0,3.1E1,7.98E2,1.37E2,7.3E1,6E0,6.6E1],"tree_param":{"num_deleted":"0","num_feature":"25","num_nodes":"13","size_leaf_vector":"1"}},{"base_weights":[1.588265E-4,5.7711188E-2,-1.9078281E-3,3.0501124E-2,8.33962E-2,-4.4469416E-2,-3.2236648E-4,6.4757616E-5,2.5949132E-4,5.796262E-4,3.1874565E-4,-3.025163E-4,3.052612E-4,-3.8721706E-4,1.5563166E-6],"categories":[],"categories_nodes":[],"categories_segments":[],"categories_sizes":[],"default_left":[0,0,0,0,0,0,0,0,0,0,0,0,0,0,0],"id":7,"left_children":[1,3,5,7,9,11,13,-1,-1,-1,-1,-1,-1,-1,-1],"loss_changes":[1.372489E-1,2.5411949E-2,7.515813E-2,6.575335E-3,5.5378824E-3,5.6586325E-2,4.867217E-2,0E0,0E0,0E0,0E0,0E0,0E0,0E0,0E0],"parents":[2147483647,0,0,1,1,2,2,3,3,4,4,5,5,6,6],"right_children":[2,4,6,8,10,12,14,-1,-1,-1,-1,-1,-1,-1,-1],"split_conditions":[-2.712141E-3,-1.9115234E-3,-1.0914071E-3,-6.7756577E0,-1.2511295E-1,-2.5442648E0,-1.3042684E-1,6.4757616E-5,2.5949132E-4,5.796262E-4,3.1874565E-4,-3.025163E-4,3.052612E-4,-3.8721706E-4,1.5563166E-6],"split_indices":[0,1,1,6,13,14,7,0,0,0,0,0,0,0,0],"split_type":[0,0,0,0,0,0,0,0,0,0,0,0,0,0,0],"sum_hessian":[1.152E3,3.9E1,1.113E3,2E1,1.9E1,3.9E1,1.074E3,1.1E1,9E0,7E0,1.2E1,3.5E1,4E0,8E0,1.066E3],"tree_param":{"num_deleted":"0","num_feature":"25","num_nodes":"15","size_leaf_vector":"1"}},{"base_weights":[-1.5746141E-4,6.571002E-2,-2.2899355E-3,2.7365137E-2,9.310043E-2,1.3213778E-3,-3.659271E-2,1.5253294E-5,2.4255246E-4,6.332223E-4,3.6435953E-4,2.9129807E-5,-6.791022E-5,1.19127246E-4,-2.4713646E-4],"categories":[],"categories_nodes":[],"categories_segments":[],"categories_sizes":[],"default_left":[0,0,0,0,0,0,0,0,0,0,0,0,0,0,0],"id":8,"left_children":[1,3,5,7,9,11,13,-1,-1,-1,-1,-1,-1,-1,-1],"loss_changes":[1.5676416E-1,3.4212157E-2,1.3396055E-1,7.1905814E-3,4.6622753E-3,5.8711965E-2,6.420548E-2,0E0,0E0,0E0,0E0,0E0,0E0,0E0,0E0],"parents":[2147483647,0,0,1,1,2,2,3,3,4,4,5,5,6,6],"right_children":[2,4,6,8,10,12,14,-1,-1,-1,-1,-1,-1,-1,-1],"split_conditions":[-2.7305193E-3,-1.9115234E-3,1.3883774E-1,-6.7756577E0,-2.714312E-2,1.2944307E-3,1.0879196E0,1.5253294E-5,2.4255246E-4,6.332223E-4,3.6435953E-4,2.9129807E-5,-6.791022E-5,1.19127246E-4,-2.4713646E-4],"split_indices":[0,1,5,6,17,1,18,0,0,0,0,0,0,0,0],"split_type":[0,0,0,0,0,0,0,0,0,0,0,0,0,0,0],"sum_hessian":[1.114E3,3.4E1,1.08E3,1.5E1,1.9E1,9.78E2,1.02E2,7E0,8E0,7E0,1.2E1,7.55E2,2.23E2,1.5E1,8.7E1],"tree_param":{"num_deleted":"0","num_feature":"25","num_nodes":"15","size_leaf_vector":"1"}},{"base_weights":[8.853224E-4,-9.702178E-5,5.2185735E-4,3.111828E-3,-2.232742E-2,6.51806E-5,-8.694078E-6,1.5111057E-4,-1.6934892E-4],"categories":[],"categories_nodes":[],"categories_segments":[],"categories_sizes":[],"default_left":[0,0,0,0,0,0,0,0,0],"id":9,"left_children":[1,3,-1,5,7,-1,-1,-1,-1],"loss_changes":[1.0723075E-1,7.860822E-2,0E0,4.2539902E-2,7.072895E-2,0E0,0E0,0E0,0E0],"parents":[2147483647,0,0,1,1,3,3,4,4],"right_children":[2,4,-1,6,8,-1,-1,-1,-1],"split_conditions":[5.363576E-2,1.3087201E-1,5.2185735E-4,-3.997707E-2,-1.17302254E-1,6.51806E-5,-8.694078E-6,1.5111057E-4,-1.6934892E-4],"split_indices":[11,5,0,9,13,0,0,0,0],"split_type":[0,0,0,0,0,0,0,0,0],"sum_hessian":[1.11E3,1.1E3,1E1,9.62E2,1.38E2,3.26E2,6.36E2,2.2E1,1.16E2],"tree_param":{"num_deleted":"0","num_feature":"25","num_nodes":"9","size_leaf_vector":"1"}},{"base_weights":[-9.2392997E-4,4.961452E-2,-3.3407428E-3,1.9599717E-2,7.097205E-2,-1.1942368E-1,-2.3693922E-3,1.71133E-4,-2.6236993E-4,4.2034464E-4,5.5980883E-5,-1.5243771E-4,-7.4299815E-4,1.27798285E-5,-9.207084E-5],"categories":[],"categories_nodes":[],"categories_segments":[],"categories_sizes":[],"default_left":[0,0,0,0,0,0,0,0,0,0,0,0,0,0,0],"id":10,"left_children":[1,3,5,7,9,11,13,-1,-1,-1,-1,-1,-1,-1,-1],"loss_changes":[1.391633E-1,3.1943157E-2,1.2228414E-1,2.2234371E-2,1.5213877E-2,1.3590828E-2,7.8301236E-2,0E0,0E0,0E0,0E0,0E0,0E0,0E0,0E0],"parents":[2147483647,0,0,1,1,2,2,3,3,4,4,5,5,6,6],"right_children":[2,4,6,8,10,12,14,-1,-1,-1,-1,-1,-1,-1,-1],"split_conditions":[-2.262389E-3,-4.0109683E-2,-1.3042684E-1,-4.5957934E-2,-1.5543906E-1,-8.823733E-4,1.0479774E-1,1.71133E-4,-2.6236993E-4,4.2034464E-4,5.5980883E-5,-1.5243771E-4,-7.4299815E-4,1.27798285E-5,-9.207084E-5],"split_indices":[0,10,7,10,9,0,5,0,0,0,0,0,0,0,0],"split_type":[0,0,0,0,0,0,0,0,0,0,0,0,0,0,0],"sum_hessian":[1.137E3,5.1E1,1.086E3,2.2E1,2.9E1,8E0,1.078E3,1.9E1,3E0,2.5E1,4E0,2E0,6E0,8.19E2,2.59E2],"tree_param":{"num_deleted":"0","num_feature":"25","num_nodes":"15","size_leaf_vector":"1"}},{"base_weights":[1.2322937E-3,6.738508E-2,-4.108893E-4,4.901624E-2,6.079876E-4,3.7875436E-3,-1.5479204E-2,3.0104446E-4,-1.1464363E-4,4.621443E-6,1.3718102E-4,-1.2556998E-4,1.1289453E-4],"categories":[],"categories_nodes":[],"categories_segments":[],"categories_sizes":[],"default_left":[0,0,0,0,0,0,0,0,0,0,0,0,0],"id":11,"left_children":[1,3,5,7,-1,9,11,-1,-1,-1,-1,-1,-1],"loss_changes":[1.2557748E-1,1.908046E-2,7.141964E-2,1.3966806E-2,0E0,5.7195522E-2,7.656793E-2,0E0,0E0,0E0,0E0,0E0,0E0],"parents":[2147483647,0,0,1,1,2,2,3,3,5,5,6,6],"right_children":[2,4,6,8,-1,10,12,-1,-1,-1,-1,-1,-1],"split_conditions":[-1.0263357E-1,5.363576E-2,1.0587251E-1,2.7776431E-2,6.079876E-4,2.296E1,2.287591E-2,3.0104446E-4,-1.1464363E-4,4.621443E-6,1.3718102E-4,-1.2556998E-4,1.1289453E-4],"split_indices":[20,11,5,11,0,2,11,0,0,0,0,0,0],"split_type":[0,0,0,0,0,0,0,0,0,0,0,0,0],"sum_hessian":[1.154E3,2.7E1,1.127E3,2.1E1,6E0,8.82E2,2.45E2,1.9E1,2E0,7.81E2,1.01E2,2E2,4.5E1],"tree_param":{"num_deleted":"0","num_feature":"25","num_nodes":"13","size_leaf_vector":"1"}},{"base_weights":[-8.3889405E-4,-1.9974264E-3,1.0456295E-1,1.1693656E-3,-2.656632E-2,6.190048E-4,3.1700428E-4,8.744681E-5,-1.5300353E-5,-2.3344308E-4,-4.962086E-5],"categories":[],"categories_nodes":[],"categories_segments":[],"categories_sizes":[],"default_left":[0,0,0,0,0,0,0,0,0,0,0],"id":12,"left_children":[1,3,5,7,9,-1,-1,-1,-1,-1,-1],"loss_changes":[1.4600992E-1,9.1996066E-2,4.2530894E-4,6.600416E-2,4.0717803E-2,0E0,0E0,0E0,0E0,0E0,0E0],"parents":[2147483647,0,0,1,1,2,2,3,3,4,4],"right_children":[2,4,6,8,10,-1,-1,-1,-1,-1,-1],"split_conditions":[5.363576E-2,1.3087201E-1,-7.2550664E0,-2.2465038E-1,1.9722352E-2,6.190048E-4,3.1700428E-4,8.744681E-5,-1.5300353E-5,-2.3344308E-4,-4.962086E-5],"split_indices":[11,5,6,6,11,0,0,0,0,0,0],"split_type":[0,0,0,0,0,0,0,0,0,0,0],"sum_hessian":[1.193E3,1.181E3,1.2E1,1.047E3,1.34E2,8E0,4E0,2.18E2,8.29E2,6.5E1,6.9E1],"tree_param":{"num_deleted":"0","num_feature":"25","num_nodes":"11","size_leaf_vector":"1"}},{"base_weights":[-5.1177427E-4,4.9093865E-2,-2.7221355E-3,3.770045E-2,1.0134841E-1,-1.8038714E-2,1.8816645E-3,6.8340436E-5,2.634167E-4,6.180885E-4,1.8660602E-4,-2.4172213E-4,-3.1524884E-5,1.5459736E-5,-5.61986E-4],"categories":[],"categories_nodes":[],"categories_segments":[],"categories_sizes":[],"default_left":[0,0,0,0,0,0,0,0,0,0,0,0,0,0,0],"id":13,"left_children":[1,3,5,7,9,11,13,-1,-1,-1,-1,-1,-1,-1,-1],"loss_changes":[1.23376176E-1,2.4756305E-2,7.597802E-2,1.1853144E-2,4.3051764E-3,8.337242E-2,9.531996E-2,0E0,0E0,0E0,0E0,0E0,0E0,0E0,0E0],"parents":[2147483647,0,0,1,1,2,2,3,3,4,4,5,5,6,6],"right_children":[2,4,6,8,10,12,14,-1,-1,-1,-1,-1,-1,-1,-1],"split_conditions":[-2.262389E-3,3.473E1,-2.4374949E-2,-6.2265706E0,2.0905699E-1,3.8423584E-4,6.468601E-1,6.8340436E-5,2.634167E-4,6.180885E-4,1.8660602E-4,-2.4172213E-4,-3.1524884E-5,1.5459736E-5,-5.61986E-4],"split_indices":[0,2,10,14,16,1,16,0,0,0,0,0,0,0,0],"split_type":[0,0,0,0,0,0,0,0,0,0,0,0,0,0,0],"sum_hessian":[1.123E3,4.7E1,1.076E3,4E1,7E0,2.48E2,8.28E2,1.4E1,2.6E1,5E0,2E0,7.4E1,1.74E2,8.21E2,7E0],"tree_param":{"num_deleted":"0","num_feature":"25","num_nodes":"15","size_leaf_vector":"1"}},{"base_weights":[-1.0961405E-3,6.871138E-2,-3.4453506E-3,5.712604E-2,6.2672194E-4,-3.214791E-2,-7.5997686E-4,4.0608548E-4,1.9623933E-4,2.3484567E-6,-2.8066497E-4,-8.582313E-6,4.5317004E-4],"categories":[],"categories_nodes":[],"categories_segments":[],"categories_sizes":[],"default_left":[0,0,0,0,0,0,0,0,0,0,0,0,0],"id":14,"left_children":[1,3,5,7,-1,9,11,-1,-1,-1,-1,-1,-1],"loss_changes":[1.8636826E-1,1.4776409E-2,8.468331E-2,9.835586E-3,0E0,6.487093E-2,7.616835E-2,0E0,0E0,0E0,0E0,0E0,0E0],"parents":[2147483647,0,0,1,1,2,2,3,3,5,5,6,6],"right_children":[2,4,6,8,-1,10,12,-1,-1,-1,-1,-1,-1],"split_conditions":[-2.7305193E-3,3.412607E-2,-5.028095E-2,2.1925425E-2,6.2672194E-4,1.39301E-2,5.363576E-2,4.0608548E-4,1.9623933E-4,2.3484567E-6,-2.8066497E-4,-8.582313E-6,4.5317004E-4],"split_indices":[0,3,8,11,0,11,11,0,0,0,0,0,0],"split_type":[0,0,0,0,0,0,0,0,0,0,0,0,0],"sum_hessian":[1.134E3,3.6E1,1.098E3,3.1E1,5E0,9.3E1,1.005E3,1.4E1,1.7E1,3.7E1,5.6E1,9.96E2,9E0],"tree_param":{"num_deleted":"0","num_feature":"25","num_nodes":"13","size_leaf_vector":"1"}},{"base_weights":[-4.4920834E-4,6.574652E-2,-2.7650357E-3,4.3522023E-2,9.692263E-2,-4.257293E-2,-1.3988614E-3,2.782911E-4,6.9947E-5,2.0643223E-4,6.019549E-4,-2.5503838E-4,2.009579E-4,-4.5449662E-4,-4.362044E-6],"categories":[],"categories_nodes":[],"categories_segments":[],"categories_sizes":[],"default_left":[0,0,0,0,0,0,0,0,0,0,0,0,0,0,0],"id":15,"left_children":[1,3,5,7,9,11,13,-1,-1,-1,-1,-1,-1,-1,-1],"loss_changes":[1.7233533E-1,2.2110924E-2,5.900205E-2,6.075412E-3,1.0596618E-2,1.8919602E-2,5.0834738E-2,0E0,0E0,0E0,0E0,0E0,0E0,0E0,0E0],"parents":[2147483647,0,0,1,1,2,2,3,3,4,4,5,5,6,6],"right_children":[2,4,6,8,10,12,14,-1,-1,-1,-1,-1,-1,-1,-1],"split_conditions":[-2.7305193E-3,3.041E1,-1.3301293E-3,-1.13561E-2,-2.2438776E-3,-2.4986662E-2,-1.3042684E-1,2.782911E-4,6.9947E-5,2.0643223E-4,6.019549E-4,-2.5503838E-4,2.009579E-4,-4.5449662E-4,-4.362044E-6],"split_indices":[0,2,1,7,1,20,7,0,0,0,0,0,0,0,0],"split_type":[0,0,0,0,0,0,0,0,0,0,0,0,0,0,0],"sum_hessian":[1.122E3,3.7E1,1.085E3,2.3E1,1.4E1,3.5E1,1.05E3,1.7E1,6E0,4E0,1E1,3.3E1,2E0,6E0,1.044E3],"tree_param":{"num_deleted":"0","num_feature":"25","num_nodes":"15","size_leaf_vector":"1"}},{"base_weights":[-1.233488E-3,6.97755E-2,-3.038775E-3,4.7923524E-2,9.673883E-2,-1.0061863E-1,-2.0861933E-3,2.1062335E-5,2.971326E-4,1.016225E-4,5.370978E-4,-1.0047292E-4,-7.6062215E-4,-1.0095192E-4,9.423584E-6],"categories":[],"categories_nodes":[],"categories_segments":[],"categories_sizes":[],"default_left":[0,0,0,0,0,0,0,0,0,0,0,0,0,0,0],"id":16,"left_children":[1,3,5,7,9,11,13,-1,-1,-1,-1,-1,-1,-1,-1],"loss_changes":[1.4993984E-1,1.2450784E-2,1.0575625E-1,6.508436E-3,2.9412583E-3,3.6582813E-2,7.4890845E-2,0E0,0E0,0E0,0E0,0E0,0E0,0E0,0E0],"parents":[2147483647,0,0,1,1,2,2,3,3,4,4,5,5,6,6],"right_children":[2,4,6,8,10,12,14,-1,-1,-1,-1,-1,-1,-1,-1],"split_conditions":[-2.7305193E-3,3.074E1,-1.3042684E-1,-5.2328076E0,-1.1699601E1,-8.2353724E-4,-3.19794E-2,2.1062335E-5,2.971326E-4,1.016225E-4,5.370978E-4,-1.0047292E-4,-7.6062215E-4,-1.0095192E-4,9.423584E-6],"split_indices":[0,2,7,14,14,0,8,0,0,0,0,0,0,0,0],"split_type":[0,0,0,0,0,0,0,0,0,0,0,0,0,0,0],"sum_hessian":[1.167E3,2.8E1,1.139E3,1.7E1,1.1E1,1E1,1.129E3,3E0,1.4E1,1E0,1E1,4E0,6E0,2.08E2,9.21E2],"tree_param":{"num_deleted":"0","num_feature":"25","num_nodes":"15","size_leaf_vector":"1"}},{"base_weights":[1.5214838E-4,4.3283712E-2,-1.7026875E-3,3.1920404E-3,4.907293E-2,6.7170104E-4,-2.4288667E-2,-1.9950322E-4,2.2891082E-4,1.1413791E-4,3.0741224E-4,-3.9091497E-6,2.0679778E-4,-1.7600565E-4,1.4789923E-4],"categories":[],"categories_nodes":[],"categories_segments":[],"categories_sizes":[],"default_left":[0,0,0,0,0,0,0,0,0,0,0,0,0,0,0],"id":17,"left_children":[1,3,5,7,9,11,13,-1,-1,-1,-1,-1,-1,-1,-1],"loss_changes":[9.119593E-2,1.0752037E-2,5.8631603E-2,1.3236065E-2,9.202205E-3,5.408792E-2,5.0754935E-2,0E0,0E0,0E0,0E0,0E0,0E0,0E0,0E0],"parents":[2147483647,0,0,1,1,2,2,3,3,4,4,5,5,6,6],"right_children":[2,4,6,8,10,12,14,-1,-1,-1,-1,-1,-1,-1,-1],"split_conditions":[-2.469133E-3,-1.1107188E1,1.3617907E-1,2.952E1,-6.542595E-1,2.926E1,1.9856186E-1,-1.9950322E-4,2.2891082E-4,1.1413791E-4,3.0741224E-4,-3.9091497E-6,2.0679778E-4,-1.7600565E-4,1.4789923E-4],"split_indices":[0,14,5,2,12,2,5,0,0,0,0,0,0,0,0],"split_type":[0,0,0,0,0,0,0,0,0,0,0,0,0,0,0],"sum_hessian":[1.138E3,4.6E1,1.092E3,6E0,4E1,9.89E2,1.03E2,3E0,3E0,1.1E1,2.9E1,9.55E2,3.4E1,8.8E1,1.5E1],"tree_param":{"num_deleted":"0","num_feature":"25","num_nodes":"15","size_leaf_vector":"1"}},{"base_weights":[1.3957052E-4,5.8098517E-2,-1.898787E-3,3.7452605E-2,8.0104716E-2,-1.1789766E-1,-9.488428E-4,2.4839226E-4,5.191519E-5,3.118051E-4,5.4986717E-4,-2.2358552E-4,-7.0217723E-4,-1.1324485E-4,1.3262235E-5],"categories":[],"categories_nodes":[],"categories_segments":[],"categories_sizes":[],"default_left":[0,0,0,0,0,0,0,0,0,0,0,0,0,0,0],"id":18,"left_children":[1,3,5,7,9,11,13,-1,-1,-1,-1,-1,-1,-1,-1],"loss_changes":[1.3561812E-1,1.4719069E-2,1.2209158E-1,5.4410715E-3,2.9616058E-3,4.8458874E-3,7.856805E-2,0E0,0E0,0E0,0E0,0E0,0E0,0E0,0E0],"parents":[2147483647,0,0,1,1,2,2,3,3,4,4,5,5,6,6],"right_children":[2,4,6,8,10,12,14,-1,-1,-1,-1,-1,-1,-1,-1],"split_conditions":[-2.712141E-3,-9.608725E-3,-1.1376489E-1,-6.029729E-2,6.2011704E-3,-3.104886E-5,-3.624823E-2,2.4839226E-4,5.191519E-5,3.118051E-4,5.4986717E-4,-2.2358552E-4,-7.0217723E-4,-1.1324485E-4,1.3262235E-5],"split_indices":[0,8,7,10,15,0,10,0,0,0,0,0,0,0,0],"split_type":[0,0,0,0,0,0,0,0,0,0,0,0,0,0,0],"sum_hessian":[1.146E3,3.8E1,1.108E3,2.1E1,1.7E1,8E0,1.1E3,1.5E1,6E0,1.1E1,6E0,2E0,6E0,1.58E2,9.42E2],"tree_param":{"num_deleted":"0","num_feature":"25","num_nodes":"15","size_leaf_vector":"1"}},{"base_weights":[1.0184968E-3,-7.265424E-5,7.808559E-2,3.318501E-3,-2.8406417E-2,1.0488063E-1,3.8180456E-2,4.0771585E-5,-4.0045506E-5,-2.5084743E-4,-4.5789344E-5,6.301592E-4,1.8604516E-4,-1.438131E-4,2.7080273E-4],"categories":[],"categories_nodes":[],"categories_segments":[],"categories_sizes":[],"default_left":[0,0,0,0,0,0,0,0,0,0,0,0,0,0,0],"id":19,"left_children":[1,3,5,7,9,11,13,-1,-1,-1,-1,-1,-1,-1,-1],"loss_changes":[9.637492E-2,1.08765475E-1,1.3103768E-2,4.89483E-2,4.5474827E-2,5.0452575E-3,8.35298E-3,0E0,0E0,0E0,0E0,0E0,0E0,0E0,0E0],"parents":[2147483647,0,0,1,1,2,2,3,3,4,4,5,5,6,6],"right_children":[2,4,6,8,10,12,14,-1,-1,-1,-1,-1,-1,-1,-1],"split_conditions":[3.3672918E-2,1.3617907E-1,-1.2058721E-4,1.193295E-3,2.0378659E-2,5.6227434E-1,1.0946091E-4,4.0771585E-5,-4.0045506E-5,-2.5084743E-4,-4.5789344E-5,6.301592E-4,1.8604516E-4,-1.438131E-4,2.7080273E-4],"split_indices":[11,5,1,1,3,16,1,0,0,0,0,0,0,0,0],"split_type":[0,0,0,0,0,0,0,0,0,0,0,0,0,0,0],"sum_hessian":[1.145E3,1.13E3,1.5E1,1.01E3,1.2E2,8E0,7E0,7.19E2,2.91E2,6E1,6E1,6E0,2E0,1E0,6E0],"tree_param":{"num_deleted":"0","num_feature":"25","num_nodes":"15","size_leaf_vector":"1"}},{"base_weights":[1.0442025E-3,6.0676023E-2,-1.302744E-3,9.267168E-2,3.6191493E-2,-1.0076802E-1,-5.688352E-4,1.16451585E-4,5.856657E-4,2.198577E-5,2.944933E-4,-1.2748854E-4,-7.467903E-4,6.2750846E-6,-1.418596E-4],"categories":[],"categories_nodes":[],"categories_segments":[],"categories_sizes":[],"default_left":[0,0,0,0,0,0,0,0,0,0,0,0,0,0,0],"id":20,"left_children":[1,3,5,7,9,11,13,-1,-1,-1,-1,-1,-1,-1,-1],"loss_changes":[1.5892534E-1,3.0332208E-2,7.9729974E-2,2.1131113E-2,1.6204946E-2,2.1726958E-2,5.047289E-2,0E0,0E0,0E0,0E0,0E0,0E0,0E0,0E0],"parents":[2147483647,0,0,1,1,2,2,3,3,4,4,5,5,6,6],"right_children":[2,4,6,8,10,12,14,-1,-1,-1,-1,-1,-1,-1,-1],"split_conditions":[-2.262389E-3,-1.14729635E-1,-1.3042684E-1,-1.9115234E-3,-6.542595E-1,-8.2353724E-4,5.373601E-2,1.16451585E-4,5.856657E-4,2.198577E-5,2.944933E-4,-1.2748854E-4,-7.467903E-4,6.2750846E-6,-1.418596E-4],"split_indices":[0,20,7,1,12,0,4,0,0,0,0,0,0,0,0],"split_type":[0,0,0,0,0,0,0,0,0,0,0,0,0,0,0],"sum_hessian":[1.134E3,4.2E1,1.092E3,1.7E1,2.5E1,7E0,1.085E3,4E0,1.3E1,1E1,1.5E1,3E0,4E0,1.018E3,6.7E1],"tree_param":{"num_deleted":"0","num_feature":"25","num_nodes":"15","size_leaf_vector":"1"}},{"base_weights":[1.0224379E-3,-1.2888231E-3,3.170762E-2,-1.6099172E-2,1.7401085E-3,-3.9599247E-2,3.9295606E-2,2.5456585E-4,-1.0456429E-4,-2.8877653E-4,1.3356111E-5,-1.1965334E-4,-3.166087E-4,2.3654907E-4,-2.3220663E-4],"categories":[],"categories_nodes":[],"categories_segments":[],"categories_sizes":[],"default_left":[0,0,0,0,0,0,0,0,0,0,0,0,0,0,0],"id":21,"left_children":[1,3,5,7,9,11,13,-1,-1,-1,-1,-1,-1,-1,-1],"loss_changes":[7.8976445E-2,4.650249E-2,4.3759994E-2,4.3649998E-2,3.897162E-2,1.4054971E-3,3.5366505E-2,0E0,0E0,0E0,0E0,0E0,0E0,0E0,0E0],"parents":[2147483647,0,0,1,1,2,2,3,3,4,4,5,5,6,6],"right_children":[2,4,6,8,10,12,14,-1,-1,-1,-1,-1,-1,-1,-1],"split_conditions":[3.041E1,-3.5514925E-2,-7.105288E-2,-3.137764E-1,-7.845904E0,-5.8287554E0,9.165507E-1,2.5456585E-4,-1.0456429E-4,-2.8877653E-4,1.3356111E-5,-1.1965334E-4,-3.166087E-4,2.3654907E-4,-2.3220663E-4],"split_indices":[2,8,8,9,6,6,16,0,0,0,0,0,0,0,0],"split_type":[0,0,0,0,0,0,0,0,0,0,0,0,0,0,0],"sum_hessian":[1.112E3,1.035E3,7.7E1,1.75E2,8.6E2,7E0,7E1,9E0,1.66E2,1.1E1,8.49E2,5E0,2E0,6.6E1,4E0],"tree_param":{"num_deleted":"0","num_feature":"25","num_nodes":"15","size_leaf_vector":"1"}},{"base_weights":[-4.7674347E-4,1.4322316E-2,-4.039253E-3,7.992912E-3,4.6645164E-2,-3.1046893E-3,-1.0703727E-1,1.7630686E-4,2.2396935E-5,-1.5083356E-4,3.0157447E-4,1.9217985E-6,-1.0183363E-4,-3.6668767E-5,-8.7225286E-4],"categories":[],"categories_nodes":[],"categories_segments":[],"categories_sizes":[],"default_left":[0,0,0,0,0,0,0,0,0,0,0,0,0,0,0],"id":22,"left_children":[1,3,5,7,9,11,13,-1,-1,-1,-1,-1,-1,-1,-1],"loss_changes":[5.8420874E-2,4.3612815E-2,8.562625E-2,1.7110832E-2,2.9681481E-2,4.9928695E-2,4.5799725E-2,0E0,0E0,0E0,0E0,0E0,0E0,0E0,0E0],"parents":[2147483647,0,0,1,1,2,2,3,3,4,4,5,5,6,6],"right_children":[2,4,6,8,10,12,14,-1,-1,-1,-1,-1,-1,-1,-1],"split_conditions":[1.1206985E0,3.074E1,6.468601E-1,-2.5709309E-2,-2.1221552E-2,3.475197E0,2.472E1,1.7630686E-4,2.2396935E-5,-1.5083356E-4,3.0157447E-4,1.9217985E-6,-1.0183363E-4,-3.6668767E-5,-8.7225286E-4],"split_indices":[18,2,16,7,24,14,2,0,0,0,0,0,0,0,0],"split_type":[0,0,0,0,0,0,0,0,0,0,0,0,0,0,0],"sum_hessian":[1.106E3,2.14E2,8.92E2,1.8E2,3.4E1,8.85E2,7E0,2.2E1,1.58E2,4E0,3E1,7.3E2,1.55E2,3E0,4E0],"tree_param":{"num_deleted":"0","num_feature":"25","num_nodes":"15","size_leaf_vector":"1"}},{"base_weights":[8.40296E-4,7.594939E-2,-1.3868614E-3,8.7108284E-2,2.0463912E-2,-7.8236796E-2,-7.103358E-4,2.3075743E-4,5.235287E-4,1.9313581E-4,-7.052013E-5,-3.3535092E-5,-6.5851025E-4,-1.4987384E-4,4.9640407E-6],"categories":[],"categories_nodes":[],"categories_segments":[],"categories_sizes":[],"default_left":[0,0,0,0,0,0,0,0,0,0,0,0,0,0,0],"id":23,"left_children":[1,3,5,7,9,11,13,-1,-1,-1,-1,-1,-1,-1,-1],"loss_changes":[1.9749545E-1,1.9268766E-2,5.9578046E-2,1.0590658E-2,4.3365248E-3,3.287233E-2,5.225272E-2,0E0,0E0,0E0,0E0,0E0,0E0,0E0,0E0],"parents":[2147483647,0,0,1,1,2,2,3,3,4,4,5,5,6,6],"right_children":[2,4,6,8,10,12,14,-1,-1,-1,-1,-1,-1,-1,-1],"split_conditions":[-2.7305193E-3,-1.218709E-2,-1.3042684E-1,-2.2438776E-3,2.5260797E-2,1.253981E-4,-6.308472E-2,2.3075743E-4,5.235287E-4,1.9313581E-4,-7.052013E-5,-3.3535092E-5,-6.5851025E-4,-1.4987384E-4,4.9640407E-6],"split_indices":[0,4,7,1,3,1,8,0,0,0,0,0,0,0,0],"split_type":[0,0,0,0,0,0,0,0,0,0,0,0,0,0,0],"sum_hessian":[1.179E3,3.3E1,1.146E3,2.7E1,6E0,9E0,1.137E3,7E0,2E1,4E0,2E0,4E0,5E0,6.3E1,1.074E3],"tree_param":{"num_deleted":"0","num_feature":"25","num_nodes":"15","size_leaf_vector":"1"}},{"base_weights":[7.471779E-4,-7.891175E-4,9.36133E-2,-4.8869137E-2,5.8776065E-4,1.12316646E-1,2.835254E-4,-4.5090335E-4,-1.1854347E-4,-5.880365E-6,1.7339615E-4,6.255492E-4,1.07192194E-4],"categories":[],"categories_nodes":[],"categories_segments":[],"categories_sizes":[],"default_left":[0,0,0,0,0,0,0,0,0,0,0,0,0],"id":24,"left_children":[1,3,5,7,9,11,-1,-1,-1,-1,-1,-1,-1],"loss_changes":[1.6656952E-1,7.609291E-2,8.079082E-3,2.9087119E-2,6.1692093E-2,4.762441E-3,0E0,0E0,0E0,0E0,0E0,0E0,0E0],"parents":[2147483647,0,0,1,1,2,2,3,3,4,4,5,5],"right_children":[2,4,6,8,10,12,-1,-1,-1,-1,-1,-1,-1],"split_conditions":[3.3672918E-2,-2.4722433E0,-9.435067E-2,1.330306E0,2.952E1,5.6227434E-1,2.835254E-4,-4.5090335E-4,-1.1854347E-4,-5.880365E-6,1.7339615E-4,6.255492E-4,1.07192194E-4],"split_indices":[11,12,20,18,2,16,0,0,0,0,0,0,0],"split_type":[0,0,0,0,0,0,0,0,0,0,0,0,0],"sum_hessian":[1.166E3,1.148E3,1.8E1,3.1E1,1.117E3,1.1E1,7E0,1.2E1,1.9E1,1.062E3,5.5E1,1E1,1E0],"tree_param":{"num_deleted":"0","num_feature":"25","num_nodes":"13","size_leaf_vector":"1"}},{"base_weights":[1.3778574E-4,5.418208E-2,-1.4771117E-3,6.3169755E-2,1.3058983E-2,-7.036331E-4,-6.437225E-2,2.0478366E-4,3.881511E-4,-7.056659E-5,1.3858767E-4,-8.72543E-5,9.858382E-6,1.9402061E-4,-6.9620274E-4],"categories":[],"categories_nodes":[],"categories_segments":[],"categories_sizes":[],"default_left":[0,0,0,0,0,0,0,0,0,0,0,0,0,0,0],"id":25,"left_children":[1,3,5,7,9,11,13,-1,-1,-1,-1,-1,-1,-1,-1],"loss_changes":[9.625818E-2,1.1002302E-2,5.2056763E-2,3.7961453E-3,2.81035E-3,4.3330282E-2,9.419261E-2,0E0,0E0,0E0,0E0,0E0,0E0,0E0,0E0],"parents":[2147483647,0,0,1,1,2,2,3,3,4,4,5,5,6,6],"right_children":[2,4,6,8,10,12,14,-1,-1,-1,-1,-1,-1,-1,-1],"split_conditions":[-2.7305193E-3,-1.4980359E-2,6.468601E-1,-2.9728767E-1,2.8372419E-3,-3.8511686E-2,8.65552E-3,2.0478366E-4,3.881511E-4,-7.056659E-5,1.3858767E-4,-8.72543E-5,9.858382E-6,1.9402061E-4,-6.9620274E-4],"split_indices":[0,7,16,9,7,8,21,0,0,0,0,0,0,0,0],"split_type":[0,0,0,0,0,0,0,0,0,0,0,0,0,0,0],"sum_hessian":[1.101E3,3.1E1,1.07E3,2.5E1,6E0,1.058E3,1.2E1,9E0,1.6E1,2E0,4E0,1.47E2,9.11E2,5E0,7E0],"tree_param":{"num_deleted":"0","num_feature":"25","num_nodes":"15","size_leaf_vector":"1"}},{"base_weights":[9.0792324E-5,-1.3158408E-3,8.557778E-2,-5.43171E-2,-3.2854674E-4,6.0787E-4,6.55497E-3,-5.313585E-4,-3.6855294E-5,-1.4067768E-5,1.5400285E-4,-2.3308225E-4,2.2657415E-4],"categories":[],"categories_nodes":[],"categories_segments":[],"categories_sizes":[],"default_left":[0,0,0,0,0,0,0,0,0,0,0,0,0],"id":26,"left_children":[1,3,5,7,9,-1,11,-1,-1,-1,-1,-1,-1],"loss_changes":[1.3370904E-1,5.72288E-2,4.1757792E-2,4.340756E-2,7.460826E-2,0E0,1.3032214E-2,0E0,0E0,0E0,0E0,0E0,0E0],"parents":[2147483647,0,0,1,1,2,2,3,3,4,4,6,6],"right_children":[2,4,6,8,10,-1,12,-1,-1,-1,-1,-1,-1],"split_conditions":[4.335E1,-2.6826742E0,-1.8837036E-1,-1.806733E-2,2.814E1,6.0787E-4,-9.4011664E-2,-5.313585E-4,-3.6855294E-5,-1.4067768E-5,1.5400285E-4,-2.3308225E-4,2.2657415E-4],"split_indices":[2,12,9,17,2,0,4,0,0,0,0,0,0],"split_type":[0,0,0,0,0,0,0,0,0,0,0,0,0],"sum_hessian":[1.11E3,1.093E3,1.7E1,1.9E1,1.074E3,1.2E1,5E0,9E0,1E1,9.96E2,7.8E1,2E0,3E0],"tree_param":{"num_deleted":"0","num_feature":"25","num_nodes":"13","size_leaf_vector":"1"}},{"base_weights":[2.0034809E-4,6.317247E-2,-1.6201651E-3,6.988276E-2,-1.2703E-3,1.3144927E-3,-2.877792E-2,1.9161358E-5,3.930167E-4,3.8149654E-5,-7.0599344E-5,-9.1123675E-6,8.810922E-5,-2.0964048E-4,3.8025217E-4],"categories":[],"categories_nodes":[],"categories_segments":[],"categories_sizes":[],"default_left":[0,0,0,0,0,0,0,0,0,0,0,0,0,0,0],"id":27,"left_children":[1,3,5,7,9,11,13,-1,-1,-1,-1,-1,-1,-1,-1],"loss_changes":[1.3056445E-1,1.3926536E-2,8.826431E-2,8.895665E-3,5.107748E-4,4.699585E-2,1.2335385E-1,0E0,0E0,0E0,0E0,0E0,0E0,0E0,0E0],"parents":[2147483647,0,0,1,1,2,2,3,3,4,4,5,5,6,6],"right_children":[2,4,6,8,10,12,14,-1,-1,-1,-1,-1,-1,-1,-1],"split_conditions":[-2.7305193E-3,3.2829084E-2,1.3617907E-1,-1.0946398E-1,-3.1883786E-3,2.8983785E-2,3.3672918E-2,1.9161358E-5,3.930167E-4,3.8149654E-5,-7.0599344E-5,-9.1123675E-6,8.810922E-5,-2.0964048E-4,3.8025217E-4],"split_indices":[0,21,5,10,0,10,11,0,0,0,0,0,0,0,0],"split_type":[0,0,0,0,0,0,0,0,0,0,0,0,0,0,0],"sum_hessian":[1.137E3,3.1E1,1.106E3,2.8E1,3E0,9.99E2,1.07E2,2E0,2.6E1,2E0,1E0,8.35E2,1.64E2,9.7E1,1E1],"tree_param":{"num_deleted":"0","num_feature":"25","num_nodes":"15","size_leaf_vector":"1"}},{"base_weights":[5.314781E-4,-1.0654524E-3,8.7424815E-2,3.7399493E-3,-1.6246647E-2,1.0221411E-1,3.341587E-2,-7.1599356E-6,1.0241138E-4,1.2565739E-4,-1.0530332E-4,5.7964487E-4,2.6855877E-4,3.926676E-5,1.953927E-4],"categories":[],"categories_nodes":[],"categories_segments":[],"categories_sizes":[],"default_left":[0,0,0,0,0,0,0,0,0,0,0,0,0,0,0],"id":28,"left_children":[1,3,5,7,9,11,13,-1,-1,-1,-1,-1,-1,-1,-1],"loss_changes":[1.6147406E-1,8.3444595E-2,1.335828E-2,6.9666885E-2,4.1913718E-2,8.4778666E-4,2.9934896E-4,0E0,0E0,0E0,0E0,0E0,0E0,0E0,0E0],"parents":[2147483647,0,0,1,1,2,2,3,3,4,4,5,5,6,6],"right_children":[2,4,6,8,10,12,14,-1,-1,-1,-1,-1,-1,-1,-1],"split_conditions":[3.3672918E-2,1.10237695E-1,-5.8287554E0,1.2361668E-2,-1.0263357E-1,-7.383014E-2,4.028E1,-7.1599356E-6,1.0241138E-4,1.2565739E-4,-1.0530332E-4,5.7964487E-4,2.6855877E-4,3.926676E-5,1.953927E-4],"split_indices":[11,5,6,11,20,13,2,0,0,0,0,0,0,0,0],"split_type":[0,0,0,0,0,0,0,0,0,0,0,0,0,0,0],"sum_hessian":[1.162E3,1.142E3,2E1,8.68E2,2.74E2,1.5E1,5E0,6.56E2,2.12E2,2.3E1,2.51E2,1.2E1,3E0,1E0,4E0],"tree_param":{"num_deleted":"0","num_feature":"25","num_nodes":"15","size_leaf_vector":"1"}},{"base_weights":[4.2378812E-4,-4.3911267E-2,1.409511E-3,-8.68587E-2,-9.489064E-3,8.367458E-4,4.879458E-4,-3.0839874E-5,-4.9682165E-4,8.1315324E-5,-2.604123E-4,4.777558E-5,-1.702559E-5],"categories":[],"categories_nodes":[],"categories_segments":[],"categories_sizes":[],"default_left":[0,0,0,0,0,0,0,0,0,0,0,0,0],"id":29,"left_children":[1,3,5,7,9,11,-1,-1,-1,-1,-1,-1,-1],"loss_changes":[5.0231878E-2,3.613442E-2,5.868578E-2,6.1423853E-3,1.5716614E-2,3.7523642E-2,0E0,0E0,0E0,0E0,0E0,0E0,0E0],"parents":[2147483647,0,0,1,1,2,2,3,3,4,4,5,5],"right_children":[2,4,6,8,10,12,-1,-1,-1,-1,-1,-1,-1],"split_conditions":[-2.4722433E0,-4.93744E-3,3.412607E-2,1.3876821E-2,-3.083224E-2,4.594083E-4,4.879458E-4,-3.0839874E-5,-4.9682165E-4,8.1315324E-5,-2.604123E-4,4.777558E-5,-1.702559E-5],"split_indices":[12,24,3,3,4,4,0,0,0,0,0,0,0],"split_type":[0,0,0,0,0,0,0,0,0,0,0,0,0],"sum_hessian":[1.147E3,2.4E1,1.123E3,1E1,1.4E1,1.117E3,6E0,1E0,9E0,9E0,5E0,3.69E2,7.48E2],"tree_param":{"num_deleted":"0","num_feature":"25","num_nodes":"13","size_leaf_vector":"1"}},{"base_weights":[-2.7982792E-4,-8.389808E-2,5.535785E-4,6.745716E-3,-1.3665822E-1,-1.3442147E-3,3.480247E-2,2.770007E-4,-9.410974E-5,-7.76863E-4,-1.8741743E-4,1.988273E-5,-1.04004335E-4,-6.835191E-5,2.2483377E-4],"categories":[],"categories_nodes":[],"categories_segments":[],"categories_sizes":[],"default_left":[0,0,0,0,0,0,0,0,0,0,0,0,0,0,0],"id":30,"left_children":[1,3,5,7,9,11,13,-1,-1,-1,-1,-1,-1,-1,-1],"loss_changes":[7.767887E-2,5.3528026E-2,7.180381E-2,6.5878904E-3,2.4639517E-3,9.879281E-2,2.2465244E-2,0E0,0E0,0E0,0E0,0E0,0E0,0E0,0E0],"parents":[2147483647,0,0,1,1,2,2,3,3,4,4,5,5,6,6],"right_children":[2,4,6,8,10,12,14,-1,-1,-1,-1,-1,-1,-1,-1],"split_conditions":[-1.3042684E-1,-6.269027E-2,3.041E1,-2.8215528E0,4.028E1,1.5464172E-2,-1.29281785E-2,2.770007E-4,-9.410974E-5,-7.76863E-4,-1.8741743E-4,1.988273E-5,-1.04004335E-4,-6.835191E-5,2.2483377E-4],"split_indices":[7,13,2,6,2,3,24,0,0,0,0,0,0,0,0],"split_type":[0,0,0,0,0,0,0,0,0,0,0,0,0,0,0],"sum_hessian":[1.113E3,1E1,1.103E3,4E0,6E0,1.046E3,5.7E1,1E0,3E0,5E0,1E0,8.19E2,2.27E2,8E0,4.9E1],"tree_param":{"num_deleted":"0","num_feature":"25","num_nodes":"15","size_leaf_vector":"1"}},{"base_weights":[-5.856436E-4,-1.755813E-3,6.444655E-2,-6.331138E-2,-5.693576E-4,8.826591E-2,2.5526673E-2,-5.604344E-4,-7.586491E-5,2.386445E-7,-4.411006E-4,4.9245187E-5,4.979607E-4,-1.4477634E-4,1.8737598E-4],"categories":[],"categories_nodes":[],"categories_segments":[],"categories_sizes":[],"default_left":[0,0,0,0,0,0,0,0,0,0,0,0,0,0,0],"id":31,"left_children":[1,3,5,7,9,11,13,-1,-1,-1,-1,-1,-1,-1,-1],"loss_changes":[8.6104676E-2,8.110355E-2,1.6287796E-2,4.2772025E-2,5.5812713E-2,5.1030517E-3,5.7828026E-3,0E0,0E0,0E0,0E0,0E0,0E0,0E0,0E0],"parents":[2147483647,0,0,1,1,2,2,3,3,4,4,5,5,6,6],"right_children":[2,4,6,8,10,12,14,-1,-1,-1,-1,-1,-1,-1,-1],"split_conditions":[2.9129991E-2,-2.4722433E0,-5.8287554E0,-1.5548969E-2,2.2220579E-1,-2.4856294E-3,-4.823116E0,-5.604344E-4,-7.586491E-5,2.386445E-7,-4.411006E-4,4.9245187E-5,4.979607E-4,-1.4477634E-4,1.8737598E-4],"split_indices":[11,12,6,17,13,1,6,0,0,0,0,0,0,0,0],"split_type":[0,0,0,0,0,0,0,0,0,0,0,0,0,0,0],"sum_hessian":[1.129E3,1.11E3,1.9E1,2E1,1.09E3,1.1E1,8E0,1E1,1E1,1.083E3,7E0,1E0,1E1,1E0,7E0],"tree_param":{"num_deleted":"0","num_feature":"25","num_nodes":"15","size_leaf_vector":"1"}},{"base_weights":[1.0751555E-3,4.655507E-2,-1.2487067E-3,-5.384942E-2,5.724491E-2,3.0135133E-3,-1.6178628E-2,-7.059689E-5,-3.1194638E-4,3.7176374E-4,1.4773027E-4,1.4622403E-4,-1.8551657E-6,-1.795127E-4,4.082477E-5],"categories":[],"categories_nodes":[],"categories_segments":[],"categories_sizes":[],"default_left":[0,0,0,0,0,0,0,0,0,0,0,0,0,0,0],"id":32,"left_children":[1,3,5,7,9,11,13,-1,-1,-1,-1,-1,-1,-1,-1],"loss_changes":[1.239257E-1,6.42612E-2,7.106498E-2,5.170293E-4,1.8311903E-2,7.243867E-2,1.06630854E-1,0E0,0E0,0E0,0E0,0E0,0E0,0E0,0E0],"parents":[2147483647,0,0,1,1,2,2,3,3,4,4,5,5,6,6],"right_children":[2,4,6,8,10,12,14,-1,-1,-1,-1,-1,-1,-1,-1],"split_conditions":[-2.262389E-3,-1.055225E1,1.5464172E-2,-2.919021E-3,-1.9345346E-1,-3.980184E-1,1.1865032E-2,-7.059689E-5,-3.1194638E-4,3.7176374E-4,1.4773027E-4,1.4622403E-4,-1.8551657E-6,-1.795127E-4,4.082477E-5],"split_indices":[0,6,3,0,9,6,13,0,0,0,0,0,0,0,0],"split_type":[0,0,0,0,0,0,0,0,0,0,0,0,0,0,0],"sum_hessian":[1.171E3,5.6E1,1.115E3,5E0,5.1E1,8.68E2,2.47E2,1E0,4E0,3.4E1,1.7E1,1.03E2,7.65E2,1.41E2,1.06E2],"tree_param":{"num_deleted":"0","num_feature":"25","num_nodes":"15","size_leaf_vector":"1"}},{"base_weights":[1.5539913E-4,7.0836425E-2,-1.0633802E-3,3.8767356E-2,5.7953945E-4,-1.5161659E-2,3.6430145E-3,3.3820662E-4,1.434446E-4,-3.6443176E-5,-2.7046187E-4,3.1307506E-4,1.1132683E-5],"categories":[],"categories_nodes":[],"categories_segments":[],"categories_sizes":[],"default_left":[0,0,0,0,0,0,0,0,0,0,0,0,0],"id":33,"left_children":[1,3,5,7,-1,9,11,-1,-1,-1,-1,-1,-1],"loss_changes":[9.6557245E-2,1.9647203E-2,7.317521E-2,1.7711949E-3,0E0,8.199407E-2,7.0434876E-2,0E0,0E0,0E0,0E0,0E0,0E0],"parents":[2147483647,0,0,1,1,2,2,3,3,5,5,6,6],"right_children":[2,4,6,8,-1,10,12,-1,-1,-1,-1,-1,-1],"split_conditions":[-1.1862609E-1,-2.9555317E-2,-2.368456E-2,-2.5934413E-2,5.7953945E-4,1.3087201E-1,-2.8215528E0,3.3820662E-4,1.434446E-4,-3.6443176E-5,-2.7046187E-4,3.1307506E-4,1.1132683E-5],"split_indices":[20,8,10,15,0,5,6,0,0,0,0,0,0],"split_type":[0,0,0,0,0,0,0,0,0,0,0,0,0],"sum_hessian":[1.119E3,1.8E1,1.101E3,1.1E1,7E0,2.75E2,8.26E2,2E0,9E0,2.25E2,5E1,2.1E1,8.05E2],"tree_param":{"num_deleted":"0","num_feature":"25","num_nodes":"13","size_leaf_vector":"1"}},{"base_weights":[-2.2173387E-3,5.610844E-2,-3.8937845E-3,2.4519578E-2,7.643137E-2,-1.1076747E-1,-3.0190046E-3,2.2126979E-4,-3.0713127E-5,5.380421E-4,2.5478503E-4,-1.7126852E-4,-7.605157E-4,-1.6345232E-4,-1.1951059E-6],"categories":[],"categories_nodes":[],"categories_segments":[],"categories_sizes":[],"default_left":[0,0,0,0,0,0,0,0,0,0,0,0,0,0,0],"id":34,"left_children":[1,3,5,7,9,11,13,-1,-1,-1,-1,-1,-1,-1,-1],"loss_changes":[1.1198103E-1,1.8669233E-2,1.0362752E-1,7.686681E-3,8.780815E-3,1.9025214E-2,8.63893E-2,0E0,0E0,0E0,0E0,0E0,0E0,0E0,0E0],"parents":[2147483647,0,0,1,1,2,2,3,3,4,4,5,5,6,6],"right_children":[2,4,6,8,10,12,14,-1,-1,-1,-1,-1,-1,-1,-1],"split_conditions":[-2.7305193E-3,-1.9115234E-3,-1.3042684E-1,2.4078723E-2,-1.2511295E-1,-8.823733E-4,-4.7887478E-2,2.2126979E-4,-3.0713127E-5,5.380421E-4,2.5478503E-4,-1.7126852E-4,-7.605157E-4,-1.6345232E-4,-1.1951059E-6],"split_indices":[0,1,7,3,13,0,8,0,0,0,0,0,0,0,0],"split_type":[0,0,0,0,0,0,0,0,0,0,0,0,0,0,0],"sum_hessian":[1.142E3,3.1E1,1.111E3,1.3E1,1.8E1,8E0,1.103E3,8E0,5E0,8E0,1E1,3E0,5E0,9.9E1,1.004E3],"tree_param":{"num_deleted":"0","num_feature":"25","num_nodes":"15","size_leaf_vector":"1"}},{"base_weights":[5.87737E-4,5.4872457E-2,-2.0419955E-3,2.3959253E-2,7.571306E-2,-1.346031E-2,1.7186882E-3,5.2755233E-5,2.4794776E-4,5.328229E-4,2.7949616E-4,-2.0431844E-4,-7.483195E-6,2.353375E-4,2.5875622E-6],"categories":[],"categories_nodes":[],"categories_segments":[],"categories_sizes":[],"default_left":[0,0,0,0,0,0,0,0,0,0,0,0,0,0,0],"id":35,"left_children":[1,3,5,7,9,11,13,-1,-1,-1,-1,-1,-1,-1,-1],"loss_changes":[1.5757005E-1,3.1042695E-2,4.523966E-2,6.6234656E-3,1.1931181E-2,7.9600155E-2,4.1808248E-2,0E0,0E0,0E0,0E0,0E0,0E0,0E0,0E0],"parents":[2147483647,0,0,1,1,2,2,3,3,4,4,5,5,6,6],"right_children":[2,4,6,8,10,12,14,-1,-1,-1,-1,-1,-1,-1,-1],"split_conditions":[-2.469133E-3,-2.5681235E-2,-2.284863E-2,-9.259905E-2,-1.1098453E-1,4.431522E-4,-8.141162E-4,5.2755233E-5,2.4794776E-4,5.328229E-4,2.7949616E-4,-2.0431844E-4,-7.483195E-6,2.353375E-4,2.5875622E-6],"split_indices":[0,8,10,20,20,1,1,0,0,0,0,0,0,0,0],"split_type":[0,0,0,0,0,0,0,0,0,0,0,0,0,0,0],"sum_hessian":[1.102E3,5E1,1.052E3,2.1E1,2.9E1,2.6E2,7.92E2,1.4E1,7E0,1.2E1,1.7E1,8.3E1,1.77E2,2.1E1,7.71E2],"tree_param":{"num_deleted":"0","num_feature":"25","num_nodes":"15","size_leaf_vector":"1"}},{"base_weights":[-4.6022824E-6,-1.0691494E-3,5.230416E-4,-3.9699666E-2,-7.855131E-5,-3.263141E-4,3.480539E-5,1.8730774E-5,-5.1785904E-5],"categories":[],"categories_nodes":[],"categories_segments":[],"categories_sizes":[],"default_left":[0,0,0,0,0,0,0,0,0],"id":36,"left_children":[1,3,-1,5,7,-1,-1,-1,-1],"loss_changes":[1.1973365E-1,4.2856272E-2,0E0,2.9306706E-2,3.8821746E-2,0E0,0E0,0E0,0E0],"parents":[2147483647,0,0,1,1,3,3,4,4],"right_children":[2,4,-1,6,8,-1,-1,-1,-1],"split_conditions":[5.363576E-2,-2.4722433E0,5.230416E-4,1.3873266E0,1.193295E-3,-3.263141E-4,3.480539E-5,1.8730774E-5,-5.1785904E-5],"split_indices":[11,12,0,18,1,0,0,0,0],"split_type":[0,0,0,0,0,0,0,0,0],"sum_hessian":[1.13E3,1.119E3,1.1E1,2.7E1,1.092E3,1.8E1,9E0,7.96E2,2.96E2],"tree_param":{"num_deleted":"0","num_feature":"25","num_nodes":"9","size_leaf_vector":"1"}},{"base_weights":[5.4288923E-4,4.8268743E-2,-1.6934056E-3,2.2189548E-2,7.1594305E-2,1.1897933E-3,-3.286915E-2,1.5736734E-4,-1.4555962E-4,3.0702393E-4,5.703166E-4,-2.282342E-6,1.4023426E-4,-2.2490436E-4,1.3940588E-4],"categories":[],"categories_nodes":[],"categories_segments":[],"categories_sizes":[],"default_left":[0,0,0,0,0,0,0,0,0,0,0,0,0,0,0],"id":37,"left_children":[1,3,5,7,9,11,13,-1,-1,-1,-1,-1,-1,-1,-1],"loss_changes":[1.2399419E-1,3.0043572E-2,9.981242E-2,1.0808062E-2,6.8493187E-3,4.202467E-2,5.609546E-2,0E0,0E0,0E0,0E0,0E0,0E0,0E0,0E0],"parents":[2147483647,0,0,1,1,2,2,3,3,4,4,5,5,6,6],"right_children":[2,4,6,8,10,12,14,-1,-1,-1,-1,-1,-1,-1,-1],"split_conditions":[-2.3931477E-3,-3.624823E-2,1.3883774E-1,-4.5957934E-2,6.462316E-2,2.736E1,1.9856186E-1,1.5736734E-4,-1.4555962E-4,3.0702393E-4,5.703166E-4,-2.282342E-6,1.4023426E-4,-2.2490436E-4,1.3940588E-4],"split_indices":[0,10,5,10,3,2,5,0,0,0,0,0,0,0,0],"split_type":[0,0,0,0,0,0,0,0,0,0,0,0,0,0,0],"sum_hessian":[1.16E3,5.1E1,1.109E3,2.5E1,2.6E1,1.016E3,9.3E1,2.2E1,3E0,2.1E1,5E0,9.56E2,6E1,8E1,1.3E1],"tree_param":{"num_deleted":"0","num_feature":"25","num_nodes":"15","size_leaf_vector":"1"}},{"base_weights":[-2.1111211E-4,6.363113E-2,-2.2856407E-3,1.1837223E-2,8.110452E-2,2.0607978E-3,-1.8389748E-2,-5.6998426E-5,1.9303105E-4,5.6309055E-4,3.2178426E-4,3.518637E-5,-9.3370414E-5,-1.7193744E-4,1.6928665E-5],"categories":[],"categories_nodes":[],"categories_segments":[],"categories_sizes":[],"default_left":[0,0,0,0,0,0,0,0,0,0,0,0,0,0,0],"id":38,"left_children":[1,3,5,7,9,11,13,-1,-1,-1,-1,-1,-1,-1,-1],"loss_changes":[1.4728913E-1,3.0715466E-2,7.542306E-2,6.0244575E-3,6.89435E-3,7.7819146E-2,7.070951E-2,0E0,0E0,0E0,0E0,0E0,0E0,0E0,0E0],"parents":[2147483647,0,0,1,1,2,2,3,3,4,4,5,5,6,6],"right_children":[2,4,6,8,10,12,14,-1,-1,-1,-1,-1,-1,-1,-1],"split_conditions":[-2.712141E-3,-2.1464946E-3,1.10237695E-1,-6.7756577E0,-1.14729635E-1,1.3943497E-3,6.3582876E-4,-5.6998426E-5,1.9303105E-4,5.6309055E-4,3.2178426E-4,3.518637E-5,-9.3370414E-5,-1.7193744E-4,1.6928665E-5],"split_indices":[0,1,5,6,20,1,1,0,0,0,0,0,0,0,0],"split_type":[0,0,0,0,0,0,0,0,0,0,0,0,0,0,0],"sum_hessian":[1.11E3,3.4E1,1.076E3,9E0,2.5E1,8.48E2,2.28E2,5E0,4E0,9E0,1.6E1,6.88E2,1.6E2,1.37E2,9.1E1],"tree_param":{"num_deleted":"0","num_feature":"25","num_nodes":"15","size_leaf_vector":"1"}},{"base_weights":[4.192454E-4,-9.262398E-4,8.29938E-2,-2.46109E-2,1.849868E-3,5.3694576E-4,3.8564652E-2,-2.270377E-4,-4.9589715E-5,1.8096682E-4,-7.2158E-7,2.2435132E-4,3.752195E-5],"categories":[],"categories_nodes":[],"categories_segments":[],"categories_sizes":[],"default_left":[0,0,0,0,0,0,0,0,0,0,0,0,0],"id":39,"left_children":[1,3,5,7,9,-1,11,-1,-1,-1,-1,-1,-1],"loss_changes":[1.2473426E-1,7.270057E-2,1.1262067E-2,3.2221615E-2,6.398426E-2,0E0,5.878601E-4,0E0,0E0,0E0,0E0,0E0,0E0],"parents":[2147483647,0,0,1,1,2,2,3,3,4,4,6,6],"right_children":[2,4,6,8,10,-1,12,-1,-1,-1,-1,-1,-1],"split_conditions":[3.3672918E-2,-4.7887478E-2,-9.435067E-2,-1.5750013E-2,-8.141162E-4,5.3694576E-4,7.7054586E-4,-2.270377E-4,-4.9589715E-5,1.8096682E-4,-7.2158E-7,2.2435132E-4,3.752195E-5],"split_indices":[11,8,20,13,1,0,1,0,0,0,0,0,0],"split_type":[0,0,0,0,0,0,0,0,0,0,0,0,0],"sum_hessian":[1.121E3,1.104E3,1.7E1,1.15E2,9.89E2,1.1E1,6E0,5.1E1,6.4E1,5.6E1,9.33E2,5E0,1E0],"tree_param":{"num_deleted":"0","num_feature":"25","num_nodes":"13","size_leaf_vector":"1"}},{"base_weights":[7.766405E-5,6.710355E-2,-1.5995499E-3,2.52231E-2,9.271895E-2,2.3375286E-3,-1.5802095E-2,2.020634E-4,-4.615615E-6,5.096918E-4,7.143765E-5,1.0384766E-4,-9.6919675E-6,2.1717015E-4,-1.1257997E-4],"categories":[],"categories_nodes":[],"categories_segments":[],"categories_sizes":[],"default_left":[0,0,0,0,0,0,0,0,0,0,0,0,0,0,0],"id":40,"left_children":[1,3,5,7,9,11,13,-1,-1,-1,-1,-1,-1,-1,-1],"loss_changes":[1.2893693E-1,2.7699307E-2,6.260754E-2,4.1551907E-3,4.201159E-3,6.375869E-2,7.8283876E-2,0E0,0E0,0E0,0E0,0E0,0E0,0E0,0E0],"parents":[2147483647,0,0,1,1,2,2,3,3,4,4,5,5,6,6],"right_children":[2,4,6,8,10,12,14,-1,-1,-1,-1,-1,-1,-1,-1],"split_conditions":[-2.7305193E-3,-2.1464946E-3,1.1081936E-1,-5.8574013E-2,2.8082514E-2,-7.452624E-2,1.0435745E0,2.020634E-4,-4.615615E-6,5.096918E-4,7.143765E-5,1.0384766E-4,-9.6919675E-6,2.1717015E-4,-1.1257997E-4],"split_indices":[0,1,5,23,7,6,18,0,0,0,0,0,0,0,0],"split_type":[0,0,0,0,0,0,0,0,0,0,0,0,0,0,0],"sum_hessian":[1.145E3,2.7E1,1.118E3,1.1E1,1.6E1,8.76E2,2.42E2,7E0,4E0,1.5E1,1E0,1.69E2,7.07E2,2.1E1,2.21E2],"tree_param":{"num_deleted":"0","num_feature":"25","num_nodes":"15","size_leaf_vector":"1"}},{"base_weights":[5.9390295E-4,-1.6605086E-4,5.095395E-4,3.8348003E-3,-1.2886098E-2,3.2581982E-5,-1.1728548E-4,1.5801945E-4,-9.124331E-5],"categories":[],"categories_nodes":[],"categories_segments":[],"categories_sizes":[],"default_left":[0,0,0,0,0,0,0,0,0],"id":41,"left_children":[1,3,-1,5,7,-1,-1,-1,-1],"loss_changes":[8.393904E-2,5.806517E-2,0E0,5.3500816E-2,5.2591924E-2,0E0,0E0,0E0,0E0],"parents":[2147483647,0,0,1,1,3,3,4,4],"right_children":[2,4,-1,6,8,-1,-1,-1,-1],"split_conditions":[5.363576E-2,1.10237695E-1,5.095395E-4,1.14376605E-1,-1.2511295E-1,3.2581982E-5,-1.1728548E-4,1.5801945E-4,-9.124331E-5],"split_indices":[11,5,0,13,13,0,0,0,0],"split_type":[0,0,0,0,0,0,0,0,0],"sum_hessian":[1.147E3,1.139E3,8E0,8.67E2,2.72E2,7.96E2,7.1E1,2.5E1,2.47E2],"tree_param":{"num_deleted":"0","num_feature":"25","num_nodes":"9","size_leaf_vector":"1"}},{"base_weights":[-3.7563057E-4,-1.0995341E-3,6.67374E-2,2.0292923E-3,-2.2837024E-2,3.857619E-4,1.19469914E-4,4.95284E-5,-2.2834884E-5,5.4424014E-5,-1.8120291E-4],"categories":[],"categories_nodes":[],"categories_segments":[],"categories_sizes":[],"default_left":[0,0,0,0,0,0,0,0,0,0,0],"id":42,"left_children":[1,3,5,7,9,-1,-1,-1,-1,-1,-1],"loss_changes":[5.463249E-2,7.5676605E-2,1.7932914E-3,4.5752063E-2,5.4153495E-2,0E0,0E0,0E0,0E0,0E0,0E0],"parents":[2147483647,0,0,1,1,2,2,3,3,4,4],"right_children":[2,4,6,8,10,-1,-1,-1,-1,-1,-1],"split_conditions":[3.3672918E-2,1.3019678E-1,9.228701E-2,-2.4838714E-2,-7.9985395E-2,3.857619E-4,1.19469914E-4,4.95284E-5,-2.2834884E-5,5.4424014E-5,-1.8120291E-4],"split_indices":[11,5,8,9,20,0,0,0,0,0,0],"split_type":[0,0,0,0,0,0,0,0,0,0,0],"sum_hessian":[1.122E3,1.111E3,1.1E1,9.72E2,1.39E2,9E0,2E0,4.5E2,5.22E2,3.6E1,1.03E2],"tree_param":{"num_deleted":"0","num_feature":"25","num_nodes":"11","size_leaf_vector":"1"}},{"base_weights":[-4.0452034E-4,-1.137144E-3,5.535246E-4,-1.4295095E-2,3.4295013E-3,-1.7994732E-4,-1.7065415E-5,2.3822876E-4,8.6576565E-6],"categories":[],"categories_nodes":[],"categories_segments":[],"categories_sizes":[],"default_left":[0,0,0,0,0,0,0,0,0],"id":43,"left_children":[1,3,-1,5,7,-1,-1,-1,-1],"loss_changes":[8.974183E-2,6.927005E-2,0E0,6.517417E-2,6.3827455E-2,0E0,0E0,0E0,0E0],"parents":[2147483647,0,0,1,1,3,3,4,4],"right_children":[2,4,-1,6,8,-1,-1,-1,-1],"split_conditions":[6.462316E-2,-2.284863E-2,5.535246E-4,2.744246E-3,-2.5442545E0,-1.7994732E-4,-1.7065415E-5,2.3822876E-4,8.6576565E-6],"split_indices":[3,10,0,13,6,0,0,0,0],"split_type":[0,0,0,0,0,0,0,0,0],"sum_hessian":[1.158E3,1.151E3,7E0,2.96E2,8.55E2,1.05E2,1.91E2,3.4E1,8.21E2],"tree_param":{"num_deleted":"0","num_feature":"25","num_nodes":"9","size_leaf_vector":"1"}},{"base_weights":[5.936626E-4,-6.080432E-4,8.835872E-2,1.216901E-3,-2.1787187E-2,3.544923E-5,4.933217E-4,1.4844784E-6,2.9381213E-4,-2.356947E-4,8.906315E-6],"categories":[],"categories_nodes":[],"categories_segments":[],"categories_sizes":[],"default_left":[0,0,0,0,0,0,0,0,0,0,0],"id":44,"left_children":[1,3,5,7,9,-1,-1,-1,-1,-1,-1],"loss_changes":[1.1712296E-1,4.238774E-2,5.918652E-3,5.1535375E-2,4.7024094E-2,0E0,0E0,0E0,0E0,0E0,0E0],"parents":[2147483647,0,0,1,1,2,2,3,3,4,4],"right_children":[2,4,6,8,10,-1,-1,-1,-1,-1,-1],"split_conditions":[3.3672918E-2,1.4773703E-1,4.028E1,3.234E1,2.1596413E-2,3.544923E-5,4.933217E-4,1.4844784E-6,2.9381213E-4,-2.356947E-4,8.906315E-6],"split_indices":[11,5,2,2,11,0,0,0,0,0,0],"split_type":[0,0,0,0,0,0,0,0,0,0,0],"sum_hessian":[1.109E3,1.095E3,1.4E1,1.009E3,8.6E1,1E0,1.3E1,9.93E2,1.6E1,4.3E1,4.3E1],"tree_param":{"num_deleted":"0","num_feature":"25","num_nodes":"11","size_leaf_vector":"1"}},{"base_weights":[3.6661084E-5,5.26156E-2,-1.6155761E-3,4.2843405E-2,4.7947885E-4,-8.939139E-2,-8.7852037E-4,2.6099218E-4,1.1778074E-4,-1.467838E-4,-7.0028997E-4,-1.1699355E-5,2.6007334E-4],"categories":[],"categories_nodes":[],"categories_segments":[],"categories_sizes":[],"default_left":[0,0,0,0,0,0,0,0,0,0,0,0,0],"id":45,"left_children":[1,3,5,7,-1,9,11,-1,-1,-1,-1,-1,-1],"loss_changes":[9.694827E-2,8.877397E-3,6.992219E-2,2.8878227E-3,0E0,2.044449E-2,7.267704E-2,0E0,0E0,0E0,0E0,0E0,0E0],"parents":[2147483647,0,0,1,1,2,2,3,3,5,5,6,6],"right_children":[2,4,6,8,-1,10,12,-1,-1,-1,-1,-1,-1],"split_conditions":[-2.7305193E-3,3.607E1,-1.3042684E-1,2.4439495E-2,4.7947885E-4,-8.2353724E-4,3.361E1,2.6099218E-4,1.1778074E-4,-1.467838E-4,-7.0028997E-4,-1.1699355E-5,2.6007334E-4],"split_indices":[0,2,7,3,0,0,2,0,0,0,0,0,0],"split_type":[0,0,0,0,0,0,0,0,0,0,0,0,0],"sum_hessian":[1.114E3,3.3E1,1.081E3,2.8E1,5E0,8E0,1.073E3,2E1,8E0,4E0,4E0,1.046E3,2.7E1],"tree_param":{"num_deleted":"0","num_feature":"25","num_nodes":"13","size_leaf_vector":"1"}},{"base_weights":[-6.9193647E-4,-1.3163185E-3,5.260892E-4,1.189245E-3,-2.196616E-2,2.6653592E-5,-5.2353647E-5,-1.5293174E-4,1.4097782E-4],"categories":[],"categories_nodes":[],"categories_segments":[],"categories_sizes":[],"default_left":[0,0,0,0,0,0,0,0,0],"id":46,"left_children":[1,3,-1,5,7,-1,-1,-1,-1],"loss_changes":[7.1315706E-2,5.833653E-2,0E0,4.3438826E-2,4.290445E-2,0E0,0E0,0E0,0E0],"parents":[2147483647,0,0,1,1,3,3,4,4],"right_children":[2,4,-1,6,8,-1,-1,-1,-1],"split_conditions":[6.462316E-2,1.3617907E-1,5.260892E-4,1.2736435E-3,1.9856186E-1,2.6653592E-5,-5.2353647E-5,-1.5293174E-4,1.4097782E-4],"split_indices":[3,5,0,1,5,0,0,0,0],"split_type":[0,0,0,0,0,0,0,0,0],"sum_hessian":[1.132E3,1.126E3,6E0,1.005E3,1.21E2,7.46E2,2.59E2,1.06E2,1.5E1],"tree_param":{"num_deleted":"0","num_feature":"25","num_nodes":"9","size_leaf_vector":"1"}},{"base_weights":[1.2486002E-3,6.593495E-4,4.5361448E-4,1.7690628E-3,-3.490202E-2,-1.0646343E-4,1.8432725E-5,-7.1888106E-5,-4.5618074E-4],"categories":[],"categories_nodes":[],"categories_segments":[],"categories_sizes":[],"default_left":[0,0,0,0,0,0,0,0,0],"id":47,"left_children":[1,3,-1,5,7,-1,-1,-1,-1],"loss_changes":[5.8086637E-2,4.564142E-2,0E0,4.2777427E-2,3.730046E-2,0E0,0E0,0E0,0E0],"parents":[2147483647,0,0,1,1,3,3,4,4],"right_children":[2,4,-1,6,8,-1,-1,-1,-1],"split_conditions":[5.363576E-2,7.026022E0,4.5361448E-4,-5.944869E-2,6.375733E-2,-1.0646343E-4,1.8432725E-5,-7.1888106E-5,-4.5618074E-4],"split_indices":[11,14,0,8,19,0,0,0,0],"split_type":[0,0,0,0,0,0,0,0,0],"sum_hessian":[1.161E3,1.154E3,7E0,1.12E3,3.4E1,8.1E1,1.039E3,2.5E1,9E0],"tree_param":{"num_deleted":"0","num_feature":"25","num_nodes":"9","size_leaf_vector":"1"}},{"base_weights":[1.5887868E-3,-1.0986452E-2,6.343341E-3,-4.6179243E-3,-5.203626E-2,5.8974184E-2,4.3809367E-3,7.611438E-5,-6.2689876E-5,7.660882E-5,-3.6124585E-4,3.722877E-4,-6.0731814E-5,-5.4906716E-4,2.6715205E-5],"categories":[],"categories_nodes":[],"categories_segments":[],"categories_sizes":[],"default_left":[0,0,0,0,0,0,0,0,0,0,0,0,0,0,0],"id":48,"left_children":[1,3,5,7,9,11,13,-1,-1,-1,-1,-1,-1,-1,-1],"loss_changes":[6.667537E-2,7.975631E-2,8.329758E-2,3.7164565E-2,4.6273857E-2,2.482815E-2,5.940935E-2,0E0,0E0,0E0,0E0,0E0,0E0,0E0,0E0],"parents":[2147483647,0,0,1,1,2,2,3,3,4,4,5,5,6,6],"right_children":[2,4,6,8,10,12,14,-1,-1,-1,-1,-1,-1,-1,-1],"split_conditions":[-1.8771054E-2,1.4915107E-1,-3.3581994E0,-6.2515046E-3,-3.4170322E-2,1.8979472E-1,-1.3042684E-1,7.611438E-5,-6.2689876E-5,7.660882E-5,-3.6124585E-4,3.722877E-4,-6.0731814E-5,-5.4906716E-4,2.6715205E-5],"split_indices":[10,5,14,7,22,16,7,0,0,0,0,0,0,0,0],"split_type":[0,0,0,0,0,0,0,0,0,0,0,0,0,0,0],"sum_hessian":[1.113E3,3.05E2,8.08E2,2.65E2,4E1,2.8E1,7.8E2,7.3E1,1.92E2,8E0,3.2E1,2.4E1,4E0,4E0,7.76E2],"tree_param":{"num_deleted":"0","num_feature":"25","num_nodes":"15","size_leaf_vector":"1"}},{"base_weights":[-1.1063626E-3,-1.8900397E-3,8.035415E-2,2.1111385E-3,-1.3076425E-2,4.5949238E-4,1.7259765E-4,7.5990465E-5,-1.0426577E-5,-5.519822E-5,-5.6157756E-4],"categories":[],"categories_nodes":[],"categories_segments":[],"categories_sizes":[],"default_left":[0,0,0,0,0,0,0,0,0,0,0],"id":49,"left_children":[1,3,5,7,9,-1,-1,-1,-1,-1,-1],"loss_changes":[7.36941E-2,5.1142067E-2,7.6351315E-4,4.248569E-2,7.1886584E-2,0E0,0E0,0E0,0E0,0E0,0E0],"parents":[2147483647,0,0,1,1,2,2,3,3,4,4],"right_children":[2,4,6,8,10,-1,-1,-1,-1,-1,-1],"split_conditions":[5.363576E-2,1.0479774E-1,-1.8837036E-1,-4.823044E-2,6.468601E-1,4.5949238E-4,1.7259765E-4,7.5990465E-5,-1.0426577E-5,-5.519822E-5,-5.6157756E-4],"split_indices":[11,5,9,9,16,0,0,0,0,0,0],"split_type":[0,0,0,0,0,0,0,0,0,0,0],"sum_hessian":[1.151E3,1.141E3,1E1,8.41E2,3E2,8E0,2E0,2.09E2,6.32E2,2.93E2,7E0],"tree_param":{"num_deleted":"0","num_feature":"25","num_nodes":"11","size_leaf_vector":"1"}},{"base_weights":[-5.1658787E-4,-1.6087211E-3,7.0630945E-2,2.9017234E-3,-1.5134247E-2,7.865983E-2,2.4872115E-2,1.0589045E-4,-1.36127455E-5,-6.219016E-5,-4.2993564E-4,4.401196E-4,1.719919E-4,1.5169954E-4,3.4326717E-5],"categories":[],"categories_nodes":[],"categories_segments":[],"categories_sizes":[],"default_left":[0,0,0,0,0,0,0,0,0,0,0,0,0,0,0],"id":50,"left_children":[1,3,5,7,9,11,13,-1,-1,-1,-1,-1,-1,-1,-1],"loss_changes":[8.737363E-2,6.7577705E-2,4.2892396E-3,7.854319E-2,6.0240813E-2,4.5082718E-4,1.0160217E-4,0E0,0E0,0E0,0E0,0E0,0E0,0E0,0E0],"parents":[2147483647,0,0,1,1,2,2,3,3,4,4,5,5,6,6],"right_children":[2,4,6,8,10,12,14,-1,-1,-1,-1,-1,-1,-1,-1],"split_conditions":[3.3672918E-2,1.074658E-1,3.2636685E0,-4.862542E-2,6.514531E-2,8.223011E-2,5.285824E-4,1.0589045E-4,-1.36127455E-5,-6.219016E-5,-4.2993564E-4,4.401196E-4,1.719919E-4,1.5169954E-4,3.4326717E-5],"split_indices":[11,5,12,9,19,7,1,0,0,0,0,0,0,0,0],"split_type":[0,0,0,0,0,0,0,0,0,0,0,0,0,0,0],"sum_hessian":[1.122E3,1.106E3,1.6E1,8.3E2,2.76E2,1.3E1,3E0,2E2,6.3E2,2.64E2,1.2E1,1.1E1,2E0,2E0,1E0],"tree_param":{"num_deleted":"0","num_feature":"25","num_nodes":"15","size_leaf_vector":"1"}},{"base_weights":[8.972846E-4,4.6498485E-2,-1.2730574E-3,3.002527E-2,1.0027987E-1,-5.1551266E-4,-7.4900436E-4,-2.1025818E-4,1.8173923E-4,5.494345E-4,1.4562064E-4,-1.0077871E-5,2.2487188E-4],"categories":[],"categories_nodes":[],"categories_segments":[],"categories_sizes":[],"default_left":[0,0,0,0,0,0,0,0,0,0,0,0,0],"id":51,"left_children":[1,3,5,7,9,-1,11,-1,-1,-1,-1,-1,-1],"loss_changes":[1.15458444E-1,4.3944545E-2,5.635062E-2,1.4592398E-2,6.74665E-4,0E0,5.6252304E-2,0E0,0E0,0E0,0E0,0E0,0E0],"parents":[2147483647,0,0,1,1,2,2,3,3,4,4,6,6],"right_children":[2,4,6,8,10,-1,12,-1,-1,-1,-1,-1,-1],"split_conditions":[-2.262389E-3,3.473E1,-1.0504109E-1,-1.055225E1,-2.3931477E-3,-5.1551266E-4,3.194E1,-2.1025818E-4,1.8173923E-4,5.494345E-4,1.4562064E-4,-1.0077871E-5,2.2487188E-4],"split_indices":[0,2,4,6,0,0,2,0,0,0,0,0,0],"split_type":[0,0,0,0,0,0,0,0,0,0,0,0,0],"sum_hessian":[1.165E3,5.2E1,1.113E3,4.1E1,1.1E1,5E0,1.108E3,2E0,3.9E1,1E1,1E0,1.08E3,2.8E1],"tree_param":{"num_deleted":"0","num_feature":"25","num_nodes":"13","size_leaf_vector":"1"}},{"base_weights":[-1.0082742E-3,1.118447E-2,-5.660513E-3,6.326924E-2,8.489041E-3,-5.052028E-3,-1.2655081E-1,6.349001E-5,4.615227E-4,-2.2031261E-5,8.187415E-5,-1.4503954E-5,-1.6618556E-4,-5.5836674E-5,-8.5106946E-4],"categories":[],"categories_nodes":[],"categories_segments":[],"categories_sizes":[],"default_left":[0,0,0,0,0,0,0,0,0,0,0,0,0,0,0],"id":52,"left_children":[1,3,5,7,9,11,13,-1,-1,-1,-1,-1,-1,-1,-1],"loss_changes":[6.325336E-2,4.270328E-2,5.8723494E-2,1.768412E-2,2.6383676E-2,4.888051E-2,1.4569834E-2,0E0,0E0,0E0,0E0,0E0,0E0,0E0,0E0],"parents":[2147483647,0,0,1,1,2,2,3,3,4,4,5,5,6,6],"right_children":[2,4,6,8,10,12,14,-1,-1,-1,-1,-1,-1,-1,-1],"split_conditions":[1.1629974E0,-5.1948223E0,6.468601E-1,-1.3301293E-3,5.163978E-2,1.4915107E-1,5.093872E-4,6.349001E-5,4.615227E-4,-2.2031261E-5,8.187415E-5,-1.4503954E-5,-1.6618556E-4,-5.5836674E-5,-8.5106946E-4],"split_indices":[18,6,16,1,5,5,1,0,0,0,0,0,0,0,0],"split_type":[0,0,0,0,0,0,0,0,0,0,0,0,0,0,0],"sum_hessian":[1.113E3,3.07E2,8.06E2,1.4E1,2.93E2,8.03E2,3E0,5E0,9E0,1.05E2,1.88E2,7.4E2,6.3E1,1E0,2E0],"tree_param":{"num_deleted":"0","num_feature":"25","num_nodes":"15","size_leaf_vector":"1"}},{"base_weights":[-4.6813473E-4,-1.4438737E-3,9.007067E-2,4.4222525E-4,-2.238028E-2,4.965058E-4,1.1425339E-4,-3.9576547E-4,5.4634625E-6,-7.418728E-5,-3.2043798E-4],"categories":[],"categories_nodes":[],"categories_segments":[],"categories_sizes":[],"default_left":[0,0,0,0,0,0,0,0,0,0,0],"id":53,"left_children":[1,3,5,7,9,-1,-1,-1,-1,-1,-1],"loss_changes":[9.942674E-2,4.3960195E-2,1.4335588E-3,4.610595E-2,2.8489731E-2,0E0,0E0,0E0,0E0,0E0,0E0],"parents":[2147483647,0,0,1,1,2,2,3,3,4,4],"right_children":[2,4,6,8,10,-1,-1,-1,-1,-1,-1],"split_conditions":[5.363576E-2,5.1420376E-2,8.223011E-2,-1.3042684E-1,6.069746E0,4.965058E-4,1.1425339E-4,-3.9576547E-4,5.4634625E-6,-7.418728E-5,-3.2043798E-4],"split_indices":[11,4,7,7,6,0,0,0,0,0,0],"split_type":[0,0,0,0,0,0,0,0,0,0,0],"sum_hessian":[1.123E3,1.112E3,1.1E1,1.021E3,9.1E1,1E1,1E0,7E0,1.014E3,7.6E1,1.5E1],"tree_param":{"num_deleted":"0","num_feature":"25","num_nodes":"11","size_leaf_vector":"1"}},{"base_weights":[-1.1755839E-4,5.051049E-2,-1.8994865E-3,2.4436284E-2,7.66709E-2,-1.2920146E-2,1.443909E-3,1.7366277E-4,-5.0150273E-5,4.7193887E-4,-1.17995856E-4,-2.737939E-6,-2.008483E-4,4.605731E-5,-4.2515796E-5],"categories":[],"categories_nodes":[],"categories_segments":[],"categories_sizes":[],"default_left":[0,0,0,0,0,0,0,0,0,0,0,0,0,0,0],"id":54,"left_children":[1,3,5,7,9,11,13,-1,-1,-1,-1,-1,-1,-1,-1],"loss_changes":[1.03482954E-1,2.472882E-2,4.0844493E-2,6.4133136E-3,2.6437014E-2,8.070171E-2,5.925044E-2,0E0,0E0,0E0,0E0,0E0,0E0,0E0,0E0],"parents":[2147483647,0,0,1,1,2,2,3,3,4,4,5,5,6,6],"right_children":[2,4,6,8,10,12,14,-1,-1,-1,-1,-1,-1,-1,-1],"split_conditions":[-9.82387E-2,-2.420359E-2,-2.368456E-2,-3.7133306E-2,-7.383014E-2,1.0523694E-1,-1.4807447E-2,1.7366277E-4,-5.0150273E-5,4.7193887E-4,-1.17995856E-4,-2.737939E-6,-2.008483E-4,4.605731E-5,-4.2515796E-5],"split_indices":[20,8,10,8,13,5,9,0,0,0,0,0,0,0,0],"split_type":[0,0,0,0,0,0,0,0,0,0,0,0,0,0,0],"sum_hessian":[1.145E3,3.8E1,1.107E3,2E1,1.8E1,2.57E2,8.5E2,1.6E1,4E0,1.6E1,2E0,1.73E2,8.4E1,4.81E2,3.69E2],"tree_param":{"num_deleted":"0","num_feature":"25","num_nodes":"15","size_leaf_vector":"1"}},{"base_weights":[6.369372E-4,-6.2149623E-4,8.461841E-2,3.8481953E-3,-1.4480137E-2,9.861204E-2,3.131129E-2,-1.17594445E-5,7.586886E-5,2.1648633E-5,-1.0880338E-4,5.4342777E-4,1.1383142E-4,1.8929444E-4,3.350298E-5],"categories":[],"categories_nodes":[],"categories_segments":[],"categories_sizes":[],"default_left":[0,0,0,0,0,0,0,0,0,0,0,0,0,0,0],"id":55,"left_children":[1,3,5,7,9,11,13,-1,-1,-1,-1,-1,-1,-1,-1],"loss_changes":[1.2169614E-1,7.0361994E-2,9.593658E-3,5.5219233E-2,3.195079E-2,2.3858398E-3,3.506723E-4,0E0,0E0,0E0,0E0,0E0,0E0,0E0,0E0],"parents":[2147483647,0,0,1,1,2,2,3,3,4,4,5,5,6,6],"right_children":[2,4,6,8,10,12,14,-1,-1,-1,-1,-1,-1,-1,-1],"split_conditions":[3.3672918E-2,1.074658E-1,-5.1948223E0,7.232367E-2,1.537539E-2,8.223011E-2,8.35868E-2,-1.17594445E-5,7.586886E-5,2.1648633E-5,-1.0880338E-4,5.4342777E-4,1.1383142E-4,1.8929444E-4,3.350298E-5],"split_indices":[11,5,6,5,11,7,4,0,0,0,0,0,0,0,0],"split_type":[0,0,0,0,0,0,0,0,0,0,0,0,0,0,0],"sum_hessian":[1.15E3,1.134E3,1.6E1,8.58E2,2.76E2,1.2E1,4E0,5.45E2,3.13E2,6.9E1,2.07E2,1.1E1,1E0,3E0,1E0],"tree_param":{"num_deleted":"0","num_feature":"25","num_nodes":"15","size_leaf_vector":"1"}},{"base_weights":[-9.275238E-5,3.9347354E-2,-1.9162815E-3,-1.8340252E-4,4.30863E-2,-3.9765604E-2,-6.752689E-4,1.14893905E-4,2.82699E-4,-3.8677346E-4,-3.9573297E-5,-1.0113539E-5,1.904944E-4],"categories":[],"categories_nodes":[],"categories_segments":[],"categories_sizes":[],"default_left":[0,0,0,0,0,0,0,0,0,0,0,0,0],"id":56,"left_children":[1,3,5,-1,7,9,11,-1,-1,-1,-1,-1,-1],"loss_changes":[8.299937E-2,1.5647165E-2,5.1782697E-2,0E0,9.885311E-3,3.7488595E-2,4.9159877E-2,0E0,0E0,0E0,0E0,0E0,0E0],"parents":[2147483647,0,0,1,1,2,2,4,4,5,5,6,6],"right_children":[2,4,6,-1,8,10,12,-1,-1,-1,-1,-1,-1],"split_conditions":[-2.3931477E-3,-1.055225E1,-2.2551744E0,-1.8340252E-4,-6.542595E-1,-4.93744E-3,3.294E1,1.14893905E-4,2.82699E-4,-3.8677346E-4,-3.9573297E-5,-1.0113539E-5,1.904944E-4],"split_indices":[0,6,12,0,12,24,2,0,0,0,0,0,0],"split_type":[0,0,0,0,0,0,0,0,0,0,0,0,0],"sum_hessian":[1.152E3,5E1,1.102E3,2E0,4.8E1,3.4E1,1.068E3,1.7E1,3.1E1,1.6E1,1.8E1,1.034E3,3.4E1],"tree_param":{"num_deleted":"0","num_feature":"25","num_nodes":"13","size_leaf_vector":"1"}},{"base_weights":[1.4114429E-3,5.1277492E-2,-2.6410632E-4,3.9297123E-2,5.106941E-4,-5.584844E-4,2.1801892E-4,2.3324603E-4,-1.16974814E-4,4.282814E-6,-4.2654012E-4],"categories":[],"categories_nodes":[],"categories_segments":[],"categories_sizes":[],"default_left":[0,0,0,0,0,0,0,0,0,0,0],"id":57,"left_children":[1,3,5,7,-1,-1,9,-1,-1,-1,-1],"loss_changes":[9.509688E-2,1.6459025E-2,5.6246508E-2,1.0536253E-2,0E0,0E0,5.318733E-2,0E0,0E0,0E0,0E0],"parents":[2147483647,0,0,1,1,2,2,3,3,6,6],"right_children":[2,4,6,8,-1,-1,10,-1,-1,-1,-1],"split_conditions":[-1.0263357E-1,5.363576E-2,-1.0504109E-1,-8.951313E-2,5.106941E-4,-5.584844E-4,2.2220579E-1,2.3324603E-4,-1.16974814E-4,4.282814E-6,-4.2654012E-4],"split_indices":[20,11,4,13,0,0,13,0,0,0,0],"split_type":[0,0,0,0,0,0,0,0,0,0,0],"sum_hessian":[1.137E3,3.6E1,1.101E3,3E1,6E0,4E0,1.097E3,2.8E1,2E0,1.09E3,7E0],"tree_param":{"num_deleted":"0","num_feature":"25","num_nodes":"11","size_leaf_vector":"1"}},{"base_weights":[-8.8547706E-4,6.519134E-2,-3.073442E-3,3.5176136E-2,7.9983905E-2,-1.8169487E-2,4.0277537E-5,-6.959206E-5,2.3344488E-4,4.7549504E-4,2.2097157E-4,-1.9692954E-4,-1.5995554E-5,4.7194626E-6,-4.1359063E-4],"categories":[],"categories_nodes":[],"categories_segments":[],"categories_sizes":[],"default_left":[0,0,0,0,0,0,0,0,0,0,0,0,0,0,0],"id":58,"left_children":[1,3,5,7,9,11,13,-1,-1,-1,-1,-1,-1,-1,-1],"loss_changes":[1.6689391E-1,1.3614535E-2,5.2505154E-2,6.797496E-3,5.639419E-3,5.5484675E-2,6.245761E-2,0E0,0E0,0E0,0E0,0E0,0E0,0E0,0E0],"parents":[2147483647,0,0,1,1,2,2,3,3,4,4,5,5,6,6],"right_children":[2,4,6,8,10,12,14,-1,-1,-1,-1,-1,-1,-1,-1],"split_conditions":[-2.7305193E-3,-1.9115234E-3,-3.3987414E-2,-9.511345E-2,-1.9345346E-1,5.093872E-4,6.468601E-1,-6.959206E-5,2.3344488E-4,4.7549504E-4,2.2097157E-4,-1.9692954E-4,-1.5995554E-5,4.7194626E-6,-4.1359063E-4],"split_indices":[0,1,8,16,9,1,16,0,0,0,0,0,0,0,0],"split_type":[0,0,0,0,0,0,0,0,0,0,0,0,0,0,0],"sum_hessian":[1.152E3,3.6E1,1.116E3,1.3E1,2.3E1,1.9E2,9.26E2,2E0,1.1E1,1.7E1,6E0,8.3E1,1.07E2,9.17E2,9E0],"tree_param":{"num_deleted":"0","num_feature":"25","num_nodes":"15","size_leaf_vector":"1"}},{"base_weights":[-1.0751425E-3,-2.082233E-3,4.7805288E-4,7.1125577E-4,-2.0788716E-2,2.8144545E-5,-5.6166908E-5,-2.2273966E-4,-7.243218E-6],"categories":[],"categories_nodes":[],"categories_segments":[],"categories_sizes":[],"default_left":[0,0,0,0,0,0,0,0,0],"id":59,"left_children":[1,3,-1,5,7,-1,-1,-1,-1],"loss_changes":[1.10952765E-1,6.1938558E-2,0E0,5.4491647E-2,6.428177E-2,0E0,0E0,0E0,0E0],"parents":[2147483647,0,0,1,1,3,3,4,4],"right_children":[2,4,-1,6,8,-1,-1,-1,-1],"split_conditions":[5.363576E-2,1.3087201E-1,4.7805288E-4,1.193295E-3,1.9722352E-2,2.8144545E-5,-5.6166908E-5,-2.2273966E-4,-7.243218E-6],"split_indices":[11,5,0,1,11,0,0,0,0],"split_type":[0,0,0,0,0,0,0,0,0],"sum_hessian":[1.196E3,1.184E3,1.2E1,1.031E3,1.53E2,7.33E2,2.98E2,7.2E1,8.1E1],"tree_param":{"num_deleted":"0","num_feature":"25","num_nodes":"9","size_leaf_vector":"1"}},{"base_weights":[-6.441574E-4,5.18187E-2,-2.152232E-3,3.5957213E-2,6.8510704E-2,-5.6640174E-2,-5.384166E-4,6.702003E-5,2.311684E-4,4.5852223E-4,1.9731696E-4,-4.6834166E-4,-1.3049625E-4,-9.089662E-6,2.4339238E-4],"categories":[],"categories_nodes":[],"categories_segments":[],"categories_sizes":[],"default_left":[0,0,0,0,0,0,0,0,0,0,0,0,0,0,0],"id":60,"left_children":[1,3,5,7,9,11,13,-1,-1,-1,-1,-1,-1,-1,-1],"loss_changes":[8.7774165E-2,5.7440996E-3,9.476179E-2,2.766369E-3,4.810035E-3,2.9710755E-2,5.8321174E-2,0E0,0E0,0E0,0E0,0E0,0E0,0E0,0E0],"parents":[2147483647,0,0,1,1,2,2,3,3,4,4,5,5,6,6],"right_children":[2,4,6,8,10,12,14,-1,-1,-1,-1,-1,-1,-1,-1],"split_conditions":[-2.7305193E-3,-2.6398894E-1,-2.4722433E0,-6.9562145E-2,-1.9345346E-1,-1.806733E-2,3.361E1,6.702003E-5,2.311684E-4,4.5852223E-4,1.9731696E-4,-4.6834166E-4,-1.3049625E-4,-9.089662E-6,2.4339238E-4],"split_indices":[0,9,12,7,9,17,2,0,0,0,0,0,0,0,0],"split_type":[0,0,0,0,0,0,0,0,0,0,0,0,0,0,0],"sum_hessian":[1.107E3,3E1,1.077E3,1.7E1,1.3E1,3E1,1.047E3,5E0,1.2E1,7E0,6E0,1.4E1,1.6E1,1.022E3,2.5E1],"tree_param":{"num_deleted":"0","num_feature":"25","num_nodes":"15","size_leaf_vector":"1"}},{"base_weights":[1.6501242E-3,5.0463085E-4,8.791031E-2,2.9736222E-3,-2.3905251E-2,9.4769406E-5,5.121295E-4,8.4145664E-5,-3.641478E-6,-7.827212E-5,-3.647204E-4],"categories":[],"categories_nodes":[],"categories_segments":[],"categories_sizes":[],"default_left":[0,0,0,0,0,0,0,0,0,0,0],"id":61,"left_children":[1,3,5,7,9,-1,-1,-1,-1,-1,-1],"loss_changes":[1.1309361E-1,6.823396E-2,8.074857E-3,4.9032737E-2,4.1616123E-2,0E0,0E0,0E0,0E0,0E0,0E0],"parents":[2147483647,0,0,1,1,2,2,3,3,4,4],"right_children":[2,4,6,8,10,-1,-1,-1,-1,-1,-1],"split_conditions":[3.3672918E-2,1.3617907E-1,8.537416E-2,-3.064471E-1,3.9633512E-2,9.4769406E-5,5.121295E-4,8.4145664E-5,-3.641478E-6,-7.827212E-5,-3.647204E-4],"split_indices":[11,5,10,14,19,0,0,0,0,0,0],"split_type":[0,0,0,0,0,0,0,0,0,0,0],"sum_hessian":[1.144E3,1.13E3,1.4E1,1.027E3,1.03E2,2E0,1.2E1,2.25E2,8.02E2,8.7E1,1.6E1],"tree_param":{"num_deleted":"0","num_feature":"25","num_nodes":"11","size_leaf_vector":"1"}},{"base_weights":[5.3520675E-4,5.6825455E-2,-1.1254597E-3,4.0323712E-2,8.466299E-2,-1.6478427E-2,3.8562655E-3,-1.5027206E-5,2.3576448E-4,4.776615E-4,6.306509E-5,-1.8664809E-4,-4.0420895E-5,-4.9927767E-4,2.6034995E-5],"categories":[],"categories_nodes":[],"categories_segments":[],"categories_sizes":[],"default_left":[0,0,0,0,0,0,0,0,0,0,0,0,0,0,0],"id":62,"left_children":[1,3,5,7,9,11,13,-1,-1,-1,-1,-1,-1,-1,-1],"loss_changes":[1.0438688E-1,1.1285841E-2,8.304897E-2,4.3649934E-3,3.7664846E-3,4.4148535E-2,8.861602E-2,0E0,0E0,0E0,0E0,0E0,0E0,0E0,0E0],"parents":[2147483647,0,0,1,1,2,2,3,3,4,4,5,5,6,6],"right_children":[2,4,6,8,10,12,14,-1,-1,-1,-1,-1,-1,-1,-1],"split_conditions":[-2.712141E-3,9.778357E-3,-2.2249317E-2,-7.65758E-2,-2.5442545E0,-4.3975236E-4,-1.3042684E-1,-1.5027206E-5,2.3576448E-4,4.776615E-4,6.306509E-5,-1.8664809E-4,-4.0420895E-5,-4.9927767E-4,2.6034995E-5],"split_indices":[0,8,10,8,6,0,7,0,0,0,0,0,0,0,0],"split_type":[0,0,0,0,0,0,0,0,0,0,0,0,0,0,0],"sum_hessian":[1.115E3,3.1E1,1.084E3,2.1E1,1E1,2.65E2,8.19E2,2E0,1.9E1,9E0,1E0,8.3E1,1.82E2,8E0,8.11E2],"tree_param":{"num_deleted":"0","num_feature":"25","num_nodes":"15","size_leaf_vector":"1"}},{"base_weights":[-1.0386509E-3,-2.3773732E-2,1.4076986E-3,-3.501921E-2,9.231387E-3,3.6241587E-2,-9.7125117E-4,-3.8801786E-4,-9.9819896E-5,-3.1192537E-4,1.0219417E-4,-2.5243276E-5,2.9938342E-4,-5.410216E-4,4.8626754E-7],"categories":[],"categories_nodes":[],"categories_segments":[],"categories_sizes":[],"default_left":[0,0,0,0,0,0,0,0,0,0,0,0,0,0,0],"id":63,"left_children":[1,3,5,7,9,11,13,-1,-1,-1,-1,-1,-1,-1,-1],"loss_changes":[6.354917E-2,4.1521847E-2,8.5555054E-2,5.0164096E-2,2.1369115E-2,5.6140013E-2,1.0471036E-1,0E0,0E0,0E0,0E0,0E0,0E0,0E0,0E0],"parents":[2147483647,0,0,1,1,2,2,3,3,4,4,5,5,6,6],"right_children":[2,4,6,8,10,12,14,-1,-1,-1,-1,-1,-1,-1,-1],"split_conditions":[-4.7887478E-2,1.9722352E-2,-8.141162E-4,-3.106587E-4,1.5946053E-2,-1.8245262E-3,-1.3042684E-1,-3.8801786E-4,-9.9819896E-5,-3.1192537E-4,1.0219417E-4,-2.5243276E-5,2.9938342E-4,-5.410216E-4,4.8626754E-7],"split_indices":[8,11,1,1,3,1,7,0,0,0,0,0,0,0,0],"split_type":[0,0,0,0,0,0,0,0,0,0,0,0,0,0,0],"sum_hessian":[1.141E3,1.1E2,1.031E3,8.2E1,2.8E1,6.5E1,9.66E2,2.3E1,5.9E1,3E0,2.5E1,2.2E1,4.3E1,9E0,9.57E2],"tree_param":{"num_deleted":"0","num_feature":"25","num_nodes":"15","size_leaf_vector":"1"}},{"base_weights":[-5.3105225E-5,6.3383445E-2,-1.1467907E-3,7.523996E-2,-2.4931254E-2,-6.854891E-4,-6.7599595E-4,2.5722705E-4,5.201723E-4,-2.052987E-5,-1.7634414E-4,9.492731E-6,-1.0815536E-4],"categories":[],"categories_nodes":[],"categories_segments":[],"categories_sizes":[],"default_left":[0,0,0,0,0,0,0,0,0,0,0,0,0],"id":64,"left_children":[1,3,5,7,9,-1,11,-1,-1,-1,-1,-1,-1],"loss_changes":[7.777788E-2,2.1770805E-2,6.6872515E-2,5.741164E-3,4.0983327E-4,0E0,5.41709E-2,0E0,0E0,0E0,0E0,0E0,0E0],"parents":[2147483647,0,0,1,1,2,2,3,3,4,4,6,6],"right_children":[2,4,6,8,10,-1,12,-1,-1,-1,-1,-1,-1],"split_conditions":[-1.117352E-1,-1.8434383E-1,-7.786555E-2,2.0172761E-3,1.253981E-4,-6.854891E-4,1.3617907E-1,2.5722705E-4,5.201723E-4,-2.052987E-5,-1.7634414E-4,9.492731E-6,-1.0815536E-4],"split_indices":[19,9,22,21,1,0,5,0,0,0,0,0,0],"split_type":[0,0,0,0,0,0,0,0,0,0,0,0,0],"sum_hessian":[1.119E3,1.8E1,1.101E3,1.6E1,2E0,3E0,1.098E3,9E0,7E0,1E0,1E0,9.77E2,1.21E2],"tree_param":{"num_deleted":"0","num_feature":"25","num_nodes":"13","size_leaf_vector":"1"}},{"base_weights":[3.735879E-4,-7.87609E-4,9.465268E-2,2.5616076E-3,-1.232363E-2,9.799033E-2,1.3493664E-4,4.241048E-5,-7.3219766E-5,-1.1888634E-4,2.637659E-5,5.357402E-4,1.3868239E-4],"categories":[],"categories_nodes":[],"categories_segments":[],"categories_sizes":[],"default_left":[0,0,0,0,0,0,0,0,0,0,0,0,0],"id":65,"left_children":[1,3,5,7,9,11,-1,-1,-1,-1,-1,-1,-1],"loss_changes":[1.2597264E-1,4.3961417E-2,7.134825E-4,7.992649E-2,4.563839E-2,8.3556026E-4,0E0,0E0,0E0,0E0,0E0,0E0,0E0],"parents":[2147483647,0,0,1,1,2,2,3,3,4,4,5,5],"right_children":[2,4,6,8,10,12,-1,-1,-1,-1,-1,-1,-1],"split_conditions":[5.363576E-2,1.1128271E-1,4.5766648E-2,1.2077732E-3,5.403415E-4,4.3792173E-1,1.3493664E-4,4.241048E-5,-7.3219766E-5,-1.1888634E-4,2.637659E-5,5.357402E-4,1.3868239E-4],"split_indices":[11,5,7,1,1,16,0,0,0,0,0,0,0],"split_type":[0,0,0,0,0,0,0,0,0,0,0,0,0],"sum_hessian":[1.149E3,1.136E3,1.3E1,8.81E2,2.55E2,1.2E1,1E0,6.61E2,2.2E2,1.6E2,9.5E1,1.1E1,1E0],"tree_param":{"num_deleted":"0","num_feature":"25","num_nodes":"13","size_leaf_vector":"1"}},{"base_weights":[-3.1221232E-5,5.1443353E-2,-9.536767E-4,9.338347E-2,1.5701322E-2,-4.4824326E-4,-8.096474E-2,1.3428254E-4,5.194936E-4,1.8960236E-4,-5.5885088E-5,-3.8888262E-4,4.4581458E-7,-8.4547115E-5,-4.690916E-4],"categories":[],"categories_nodes":[],"categories_segments":[],"categories_sizes":[],"default_left":[0,0,0,0,0,0,0,0,0,0,0,0,0,0,0],"id":66,"left_children":[1,3,5,7,9,11,13,-1,-1,-1,-1,-1,-1,-1,-1],"loss_changes":[5.394227E-2,2.8514255E-2,4.5095045E-2,7.1823597E-4,6.7976285E-3,4.3438576E-2,2.2675954E-3,0E0,0E0,0E0,0E0,0E0,0E0,0E0,0E0],"parents":[2147483647,0,0,1,1,2,2,3,3,4,4,5,5,6,6],"right_children":[2,4,6,8,10,12,14,-1,-1,-1,-1,-1,-1,-1,-1],"split_conditions":[-1.1862609E-1,1.2783439E0,2.2220579E-1,-2.6904861E-3,-3.8318362E-2,-1.3042684E-1,2.6020175E-3,1.3428254E-4,5.194936E-4,1.8960236E-4,-5.5885088E-5,-3.8888262E-4,4.4581458E-7,-8.4547115E-5,-4.690916E-4],"split_indices":[20,18,13,1,22,7,1,0,0,0,0,0,0,0,0],"split_type":[0,0,0,0,0,0,0,0,0,0,0,0,0,0,0],"sum_hessian":[1.134E3,1.9E1,1.115E3,8E0,1.1E1,1.109E3,6E0,1E0,7E0,6E0,5E0,7E0,1.102E3,1E0,5E0],"tree_param":{"num_deleted":"0","num_feature":"25","num_nodes":"15","size_leaf_vector":"1"}},{"base_weights":[4.5019106E-4,5.2536044E-2,-4.598102E-4,1.27036255E-2,9.538277E-2,1.394599E-3,-2.208205E-2,-1.114089E-4,1.1887559E-4,5.306676E-4,1.3694992E-4,4.3448752E-5,-2.4324567E-5,-1.7853655E-4,1.67413E-4],"categories":[],"categories_nodes":[],"categories_segments":[],"categories_sizes":[],"default_left":[0,0,0,0,0,0,0,0,0,0,0,0,0,0,0],"id":67,"left_children":[1,3,5,7,9,11,13,-1,-1,-1,-1,-1,-1,-1,-1],"loss_changes":[5.2446555E-2,3.1215377E-2,4.3655764E-2,4.1573904E-3,7.611066E-4,4.1417513E-2,5.5904936E-2,0E0,0E0,0E0,0E0,0E0,0E0,0E0,0E0],"parents":[2147483647,0,0,1,1,2,2,3,3,4,4,5,5,6,6],"right_children":[2,4,6,8,10,12,14,-1,-1,-1,-1,-1,-1,-1,-1],"split_conditions":[-1.1862609E-1,-1.0634992E-2,5.1420376E-2,2.952E1,5.6227434E-1,-3.1231733E-2,2.669E1,-1.114089E-4,1.1887559E-4,5.306676E-4,1.3694992E-4,4.3448752E-5,-2.4324567E-5,-1.7853655E-4,1.67413E-4],"split_indices":[20,8,4,2,16,9,2,0,0,0,0,0,0,0,0],"split_type":[0,0,0,0,0,0,0,0,0,0,0,0,0,0,0],"sum_hessian":[1.105E3,1.8E1,1.087E3,1E1,8E0,1.002E3,8.5E1,2E0,8E0,7E0,1E0,4.68E2,5.34E2,7E1,1.5E1],"tree_param":{"num_deleted":"0","num_feature":"25","num_nodes":"15","size_leaf_vector":"1"}},{"base_weights":[1.3289289E-3,5.2332915E-2,-1.3343143E-4,5.642395E-2,-6.0217516E-3,-1.2935962E-2,4.2263432E-3,3.4523784E-4,1.2134526E-4,2.399632E-5,-7.154814E-5,-1.983504E-4,-5.6599442E-6,7.6272336E-5,-3.3245328E-6],"categories":[],"categories_nodes":[],"categories_segments":[],"categories_sizes":[],"default_left":[0,0,0,0,0,0,0,0,0,0,0,0,0,0,0],"id":68,"left_children":[1,3,5,7,9,11,13,-1,-1,-1,-1,-1,-1,-1,-1],"loss_changes":[8.563194E-2,7.9791695E-3,6.2401306E-2,7.6547116E-3,3.0218976E-4,8.33002E-2,4.158446E-2,0E0,0E0,0E0,0E0,0E0,0E0,0E0,0E0],"parents":[2147483647,0,0,1,1,2,2,3,3,4,4,5,5,6,6],"right_children":[2,4,6,8,10,12,14,-1,-1,-1,-1,-1,-1,-1,-1],"split_conditions":[-2.7305193E-3,3.5738684E-2,-2.2249317E-2,-2.026113E-3,-4.0643504E-3,2.744246E-3,5.7638675E-4,3.4523784E-4,1.2134526E-4,2.399632E-5,-7.154814E-5,-1.983504E-4,-5.6599442E-6,7.6272336E-5,-3.3245328E-6],"split_indices":[0,21,10,22,0,13,0,0,0,0,0,0,0,0,0],"split_type":[0,0,0,0,0,0,0,0,0,0,0,0,0,0,0],"sum_hessian":[1.147E3,3.1E1,1.116E3,2.9E1,2E0,2.83E2,8.33E2,2.2E1,7E0,1E0,1E0,9.1E1,1.92E2,2.67E2,5.66E2],"tree_param":{"num_deleted":"0","num_feature":"25","num_nodes":"15","size_leaf_vector":"1"}},{"base_weights":[-8.165332E-4,-2.4574127E-3,5.3307507E-2,-1.4189776E-4,-2.584739E-2,8.338437E-2,3.2150045E-2,1.7568444E-5,-5.9415393E-5,1.371579E-5,-2.1950563E-4,8.65557E-5,4.9518E-4,-2.1650108E-4,2.2125272E-4],"categories":[],"categories_nodes":[],"categories_segments":[],"categories_sizes":[],"default_left":[0,0,0,0,0,0,0,0,0,0,0,0,0,0,0],"id":69,"left_children":[1,3,5,7,9,11,13,-1,-1,-1,-1,-1,-1,-1,-1],"loss_changes":[9.959934E-2,5.8922235E-2,1.8318743E-2,3.8460504E-2,4.4299938E-2,7.7449977E-3,1.6927913E-2,0E0,0E0,0E0,0E0,0E0,0E0,0E0,0E0],"parents":[2147483647,0,0,1,1,2,2,3,3,4,4,5,5,6,6],"right_children":[2,4,6,8,10,12,14,-1,-1,-1,-1,-1,-1,-1,-1],"split_conditions":[3.361E1,1.3617907E-1,-1.8837036E-1,1.2736435E-3,-5.501375E-2,-2.2438776E-3,1.6713858E-4,1.7568444E-5,-5.9415393E-5,1.371579E-5,-2.1950563E-4,8.65557E-5,4.9518E-4,-2.1650108E-4,2.2125272E-4],"split_indices":[2,5,9,1,23,1,1,0,0,0,0,0,0,0,0],"split_type":[0,0,0,0,0,0,0,0,0,0,0,0,0,0,0],"sum_hessian":[1.119E3,1.087E3,3.2E1,9.9E2,9.7E1,1.2E1,2E1,7.55E2,2.35E2,3.5E1,6.2E1,2E0,1E1,2E0,1.8E1],"tree_param":{"num_deleted":"0","num_feature":"25","num_nodes":"15","size_leaf_vector":"1"}},{"base_weights":[5.257037E-4,5.4506455E-2,-1.1726046E-3,3.062944E-2,6.9688894E-2,-2.6410364E-2,1.6558521E-3,2.0480125E-4,-9.726861E-6,4.1134574E-4,1.9454809E-4,-2.8591324E-4,-6.268684E-5,-4.2594352E-4,1.3217037E-5],"categories":[],"categories_nodes":[],"categories_segments":[],"categories_sizes":[],"default_left":[0,0,0,0,0,0,0,0,0,0,0,0,0,0,0],"id":70,"left_children":[1,3,5,7,9,11,13,-1,-1,-1,-1,-1,-1,-1,-1],"loss_changes":[1.0219093E-1,1.0190859E-2,7.720974E-2,4.1022412E-3,2.6429072E-3,4.3457426E-2,6.88718E-2,0E0,0E0,0E0,0E0,0E0,0E0,0E0,0E0],"parents":[2147483647,0,0,1,1,2,2,3,3,4,4,5,5,6,6],"right_children":[2,4,6,8,10,12,14,-1,-1,-1,-1,-1,-1,-1,-1],"split_conditions":[-2.7305193E-3,-2.6889868E-2,-4.4001527E-2,-5.035824E-2,-3.1363286E-2,-1.5750013E-2,-1.3042684E-1,2.0480125E-4,-9.726861E-6,4.1134574E-4,1.9454809E-4,-2.8591324E-4,-6.268684E-5,-4.2594352E-4,1.3217037E-5],"split_indices":[0,8,8,10,7,13,7,0,0,0,0,0,0,0,0],"split_type":[0,0,0,0,0,0,0,0,0,0,0,0,0,0,0],"sum_hessian":[1.113E3,3.3E1,1.08E3,1.4E1,1.9E1,1.08E2,9.72E2,1.1E1,3E0,1.4E1,5E0,3.6E1,7.2E1,9E0,9.63E2],"tree_param":{"num_deleted":"0","num_feature":"25","num_nodes":"15","size_leaf_vector":"1"}},{"base_weights":[-8.9796545E-4,-2.8157071E-3,2.6113635E-2,1.54828E-3,-1.8585403E-2,-3.759872E-2,3.8647182E-2,8.1447535E-5,-8.974451E-6,-2.9655333E-4,-5.8616934E-5,2.9642845E-4,-5.439683E-4,-1.1715632E-5,2.388791E-4],"categories":[],"categories_nodes":[],"categories_segments":[],"categories_sizes":[],"default_left":[0,0,0,0,0,0,0,0,0,0,0,0,0,0,0],"id":71,"left_children":[1,3,5,7,9,11,13,-1,-1,-1,-1,-1,-1,-1,-1],"loss_changes":[5.9385985E-2,7.366484E-2,6.214226E-2,3.802591E-2,6.462084E-2,8.606003E-2,1.7702244E-2,0E0,0E0,0E0,0E0,0E0,0E0,0E0,0E0],"parents":[2147483647,0,0,1,1,2,2,3,3,4,4,5,5,6,6],"right_children":[2,4,6,8,10,12,14,-1,-1,-1,-1,-1,-1,-1,-1],"split_conditions":[2.952E1,1.0587251E-1,-1.1376489E-1,-7.452624E-2,-4.7887478E-2,-6.365562E-2,-5.487928E-2,8.1447535E-5,-8.974451E-6,-2.9655333E-4,-5.8616934E-5,2.9642845E-4,-5.439683E-4,-1.1715632E-5,2.388791E-4],"split_indices":[2,5,7,6,8,13,8,0,0,0,0,0,0,0,0],"split_type":[0,0,0,0,0,0,0,0,0,0,0,0,0,0,0],"sum_hessian":[1.144E3,1.069E3,7.5E1,8.38E2,2.31E2,1.2E1,6.3E1,1.58E2,6.8E2,3.7E1,1.94E2,5E0,7E0,9E0,5.4E1],"tree_param":{"num_deleted":"0","num_feature":"25","num_nodes":"15","size_leaf_vector":"1"}},{"base_weights":[7.7120145E-4,-1.017585E-3,4.3883692E-2,-1.01538884E-4,-6.221457E-2,7.091129E-2,2.3238951E-2,-5.3721327E-5,1.686551E-5,-3.7029025E-4,-1.8781593E-5,1.5146079E-4,4.9009867E-4,-2.7745785E-4,2.0393381E-4],"categories":[],"categories_nodes":[],"categories_segments":[],"categories_sizes":[],"default_left":[0,0,0,0,0,0,0,0,0,0,0,0,0,0,0],"id":72,"left_children":[1,3,5,7,9,11,13,-1,-1,-1,-1,-1,-1,-1,-1],"loss_changes":[8.711205E-2,6.081798E-2,2.3461089E-2,3.576261E-2,7.371571E-3,1.5084244E-2,3.3821654E-2,0E0,0E0,0E0,0E0,0E0,0E0,0E0,0E0],"parents":[2147483647,0,0,1,1,2,2,3,3,4,4,5,5,6,6],"right_children":[2,4,6,8,10,12,14,-1,-1,-1,-1,-1,-1,-1,-1],"split_conditions":[3.234E1,2.66417E0,-7.383014E-2,-2.284863E-2,1.0934655E-2,-1.9115234E-3,-2.3124669E0,-5.3721327E-5,1.686551E-5,-3.7029025E-4,-1.8781593E-5,1.5146079E-4,4.9009867E-4,-2.7745785E-4,2.0393381E-4],"split_indices":[2,12,13,10,24,1,12,0,0,0,0,0,0,0,0],"split_type":[0,0,0,0,0,0,0,0,0,0,0,0,0,0,0],"sum_hessian":[1.128E3,1.084E3,4.4E1,1.069E3,1.5E1,1.8E1,2.6E1,2.63E2,8.06E2,1.3E1,2E0,7E0,1.1E1,4E0,2.2E1],"tree_param":{"num_deleted":"0","num_feature":"25","num_nodes":"15","size_leaf_vector":"1"}},{"base_weights":[8.859801E-5,5.168494E-2,-1.2939216E-3,2.814225E-2,6.941761E-2,-6.5464043E-4,-5.444042E-4,1.9862544E-4,-4.030081E-5,3.8079452E-4,5.993104E-5,1.4509685E-5,-5.2877218E-5],"categories":[],"categories_nodes":[],"categories_segments":[],"categories_sizes":[],"default_left":[0,0,0,0,0,0,0,0,0,0,0,0,0],"id":73,"left_children":[1,3,5,7,9,-1,11,-1,-1,-1,-1,-1,-1],"loss_changes":[8.473908E-2,1.09881535E-2,1.066465E-1,5.4368638E-3,2.0529777E-3,0E0,3.611698E-2,0E0,0E0,0E0,0E0,0E0,0E0],"parents":[2147483647,0,0,1,1,2,2,3,3,4,4,6,6],"right_children":[2,4,6,8,10,-1,12,-1,-1,-1,-1,-1,-1],"split_conditions":[-2.7305193E-3,-1.9115234E-3,-1.3042684E-1,-2.7433172E-1,1.5357666E0,-6.5464043E-4,1.02486804E-1,1.9862544E-4,-4.030081E-5,3.8079452E-4,5.993104E-5,1.4509685E-5,-5.2877218E-5],"split_indices":[0,1,7,9,18,0,5,0,0,0,0,0,0],"split_type":[0,0,0,0,0,0,0,0,0,0,0,0,0],"sum_hessian":[1.186E3,3E1,1.156E3,1.4E1,1.6E1,6E0,1.15E3,1.1E1,3E0,1.5E1,1E0,8.54E2,2.96E2],"tree_param":{"num_deleted":"0","num_feature":"25","num_nodes":"13","size_leaf_vector":"1"}},{"base_weights":[-9.737914E-4,4.7961734E-2,-3.2500122E-3,-2.7663589E-2,5.4986518E-2,-8.843176E-2,-2.6212665E-3,-2.0869334E-4,5.3302687E-5,3.1344302E-4,7.3443625E-5,-1.0042045E-4,-6.6453504E-4,-3.246788E-6,-1.5441372E-4],"categories":[],"categories_nodes":[],"categories_segments":[],"categories_sizes":[],"default_left":[0,0,0,0,0,0,0,0,0,0,0,0,0,0,0],"id":74,"left_children":[1,3,5,7,9,11,13,-1,-1,-1,-1,-1,-1,-1,-1],"loss_changes":[1.278066E-1,2.8614953E-2,5.846738E-2,2.664613E-3,7.950693E-3,1.856494E-2,5.828831E-2,0E0,0E0,0E0,0E0,0E0,0E0,0E0,0E0],"parents":[2147483647,0,0,1,1,2,2,3,3,4,4,5,5,6,6],"right_children":[2,4,6,8,10,12,14,-1,-1,-1,-1,-1,-1,-1,-1],"split_conditions":[-2.469133E-3,-1.055225E1,-1.3042684E-1,-2.6282566E-3,1.0221922E-2,-8.2353724E-4,5.2225243E-2,-2.0869334E-4,5.3302687E-5,3.1344302E-4,7.3443625E-5,-1.0042045E-4,-6.6453504E-4,-3.246788E-6,-1.5441372E-4],"split_indices":[0,6,7,0,4,0,4,0,0,0,0,0,0,0,0],"split_type":[0,0,0,0,0,0,0,0,0,0,0,0,0,0,0],"sum_hessian":[1.145E3,5E1,1.095E3,4E0,4.6E1,7E0,1.088E3,3E0,1E0,4.1E1,5E0,3E0,4E0,1.013E3,7.5E1],"tree_param":{"num_deleted":"0","num_feature":"25","num_nodes":"15","size_leaf_vector":"1"}},{"base_weights":[-1.6039939E-3,-2.6054122E-3,9.015944E-2,-1.3409307E-2,8.820118E-4,9.377511E-2,1.3263011E-4,-1.634111E-4,5.76971E-6,8.748105E-6,-6.752188E-4,5.1638595E-4,1.3327936E-4],"categories":[],"categories_nodes":[],"categories_segments":[],"categories_sizes":[],"default_left":[0,0,0,0,0,0,0,0,0,0,0,0,0],"id":75,"left_children":[1,3,5,7,9,11,-1,-1,-1,-1,-1,-1,-1],"loss_changes":[1.0214488E-1,4.1382015E-2,4.562214E-4,6.857374E-2,8.389041E-2,7.654056E-4,0E0,0E0,0E0,0E0,0E0,0E0,0E0],"parents":[2147483647,0,0,1,1,2,2,3,3,4,4,5,5],"right_children":[2,4,6,8,10,12,-1,-1,-1,-1,-1,-1,-1],"split_conditions":[5.363576E-2,-2.4374949E-2,2.6563427E-4,5.093872E-4,6.468601E-1,4.3792173E-1,1.3263011E-4,-1.634111E-4,5.76971E-6,8.748105E-6,-6.752188E-4,5.1638595E-4,1.3327936E-4],"split_indices":[11,10,1,1,16,16,0,0,0,0,0,0,0],"split_type":[0,0,0,0,0,0,0,0,0,0,0,0,0],"sum_hessian":[1.108E3,1.097E3,1.1E1,2.67E2,8.3E2,1E1,1E0,1.2E2,1.47E2,8.26E2,4E0,9E0,1E0],"tree_param":{"num_deleted":"0","num_feature":"25","num_nodes":"13","size_leaf_vector":"1"}},{"base_weights":[-9.175797E-4,4.4488866E-2,-3.3109037E-3,2.1592917E-2,6.824906E-2,-2.7625503E-2,-7.442932E-4,2.3093804E-4,1.6154863E-5,2.0965595E-4,3.9918948E-4,3.7868132E-5,-2.192585E-4,4.5874152E-5,-2.2124686E-5],"categories":[],"categories_nodes":[],"categories_segments":[],"categories_sizes":[],"default_left":[0,0,0,0,0,0,0,0,0,0,0,0,0,0,0],"id":76,"left_children":[1,3,5,7,9,11,13,-1,-1,-1,-1,-1,-1,-1,-1],"loss_changes":[1.258812E-1,3.0079E-2,6.862615E-2,1.2656575E-2,3.011614E-3,5.156853E-2,3.2615837E-2,0E0,0E0,0E0,0E0,0E0,0E0,0E0,0E0],"parents":[2147483647,0,0,1,1,2,2,3,3,4,4,5,5,6,6],"right_children":[2,4,6,8,10,12,14,-1,-1,-1,-1,-1,-1,-1,-1],"split_conditions":[-2.3931477E-3,-8.9473E-3,-4.7887478E-2,-5.571172E-3,2.559E1,1.0645821E-2,1.1655988E0,2.3093804E-4,1.6154863E-5,2.0965595E-4,3.9918948E-4,3.7868132E-5,-2.192585E-4,4.5874152E-5,-2.2124686E-5],"split_indices":[0,8,8,21,2,11,18,0,0,0,0,0,0,0,0],"split_type":[0,0,0,0,0,0,0,0,0,0,0,0,0,0,0],"sum_hessian":[1.156E3,5.7E1,1.099E3,3E1,2.7E1,1.04E2,9.95E2,1.3E1,1.7E1,7E0,2E1,3E1,7.4E1,2.66E2,7.29E2],"tree_param":{"num_deleted":"0","num_feature":"25","num_nodes":"15","size_leaf_vector":"1"}},{"base_weights":[9.931392E-4,3.697342E-4,9.0795174E-2,1.0472427E-3,-5.917522E-2,5.083254E-4,1.3280778E-4,-4.079637E-5,2.2136182E-5,-1.326534E-4,-4.4589303E-4],"categories":[],"categories_nodes":[],"categories_segments":[],"categories_sizes":[],"default_left":[0,0,0,0,0,0,0,0,0,0,0],"id":77,"left_children":[1,3,5,7,9,-1,-1,-1,-1,-1,-1],"loss_changes":[6.4962745E-2,4.6616882E-2,5.8701634E-4,3.175312E-2,9.139672E-3,0E0,0E0,0E0,0E0,0E0,0E0],"parents":[2147483647,0,0,1,1,2,2,3,3,4,4],"right_children":[2,4,6,8,10,-1,-1,-1,-1,-1,-1],"split_conditions":[3.3479688E-1,2.0300482E-1,5.6227434E-1,-2.368456E-2,1.0523694E-1,5.083254E-4,1.3280778E-4,-4.079637E-5,2.2136182E-5,-1.326534E-4,-4.4589303E-4],"split_indices":[5,13,16,10,5,0,0,0,0,0,0],"split_type":[0,0,0,0,0,0,0,0,0,0,0],"sum_hessian":[1.16E3,1.153E3,7E0,1.141E3,1.2E1,6E0,1E0,3.01E2,8.4E2,6E0,6E0],"tree_param":{"num_deleted":"0","num_feature":"25","num_nodes":"11","size_leaf_vector":"1"}},{"base_weights":[-1.4818142E-3,4.704198E-2,-2.9658617E-3,1.517928E-2,6.6993766E-2,1.6817534E-3,-1.8774617E-2,1.8049398E-4,-1.8088744E-5,3.952391E-4,1.4597632E-4,3.8809634E-5,-7.339763E-5,-2.1794574E-4,-1.9301604E-5],"categories":[],"categories_nodes":[],"categories_segments":[],"categories_sizes":[],"default_left":[0,0,0,0,0,0,0,0,0,0,0,0,0,0,0],"id":78,"left_children":[1,3,5,7,9,11,13,-1,-1,-1,-1,-1,-1,-1,-1],"loss_changes":[8.007241E-2,1.9961774E-2,7.923548E-2,5.0971406E-3,4.265979E-3,7.4248746E-2,8.35946E-2,0E0,0E0,0E0,0E0,0E0,0E0,0E0,0E0],"parents":[2147483647,0,0,1,1,2,2,3,3,4,4,5,5,6,6],"right_children":[2,4,6,8,10,12,14,-1,-1,-1,-1,-1,-1,-1,-1],"split_conditions":[-2.712141E-3,-1.9115234E-3,1.10237695E-1,-1.3443112E-1,1.4463732E0,1.2077732E-3,-1.922359E-2,1.8049398E-4,-1.8088744E-5,3.952391E-4,1.4597632E-4,3.8809634E-5,-7.339763E-5,-2.1794574E-4,-1.9301604E-5],"split_indices":[0,1,5,20,18,1,10,0,0,0,0,0,0,0,0],"split_type":[0,0,0,0,0,0,0,0,0,0,0,0,0,0,0],"sum_hessian":[1.109E3,3.2E1,1.077E3,1.3E1,1.9E1,8.33E2,2.44E2,6E0,7E0,1.5E1,4E0,6.11E2,2.22E2,9.7E1,1.47E2],"tree_param":{"num_deleted":"0","num_feature":"25","num_nodes":"15","size_leaf_vector":"1"}},{"base_weights":[-1.37676E-3,5.7068583E-2,-2.8935436E-3,2.6461635E-2,6.7988284E-2,-1.3675579E-2,1.4174295E-3,1.868801E-4,6.387063E-5,2.5598542E-4,4.5406594E-4,1.669446E-5,-1.5099182E-4,-3.6846928E-4,1.5408335E-5],"categories":[],"categories_nodes":[],"categories_segments":[],"categories_sizes":[],"default_left":[0,0,0,0,0,0,0,0,0,0,0,0,0,0,0],"id":79,"left_children":[1,3,5,7,9,11,13,-1,-1,-1,-1,-1,-1,-1,-1],"loss_changes":[9.812222E-2,7.5590387E-3,5.0125968E-2,7.3473575E-4,2.8785467E-3,7.795316E-2,8.3309315E-2,0E0,0E0,0E0,0E0,0E0,0E0,0E0,0E0],"parents":[2147483647,0,0,1,1,2,2,3,3,4,4,5,5,6,6],"right_children":[2,4,6,8,10,12,14,-1,-1,-1,-1,-1,-1,-1,-1],"split_conditions":[-2.7305193E-3,-2.1464946E-3,4.431522E-4,4.51343E-3,3.015E1,1.3063143E0,-6.352165E-2,1.868801E-4,6.387063E-5,2.5598542E-4,4.5406594E-4,1.669446E-5,-1.5099182E-4,-3.6846928E-4,1.5408335E-5],"split_indices":[0,1,1,15,2,18,4,0,0,0,0,0,0,0,0],"split_type":[0,0,0,0,0,0,0,0,0,0,0,0,0,0,0],"sum_hessian":[1.104E3,2.7E1,1.077E3,8E0,1.9E1,3.07E2,7.7E2,4E0,4E0,1.1E1,8E0,1.45E2,1.62E2,1.5E1,7.55E2],"tree_param":{"num_deleted":"0","num_feature":"25","num_nodes":"15","size_leaf_vector":"1"}},{"base_weights":[9.8811404E-5,-5.6084897E-2,1.1054318E-3,-3.5875343E-2,-7.0020696E-4,2.0073188E-2,-1.4454614E-3,-1.4701986E-5,-2.747198E-4,3.0628733E-5,2.1973246E-4,8.468009E-6,-1.0241648E-4],"categories":[],"categories_nodes":[],"categories_segments":[],"categories_sizes":[],"default_left":[0,0,0,0,0,0,0,0,0,0,0,0,0],"id":80,"left_children":[1,3,5,7,-1,9,11,-1,-1,-1,-1,-1,-1],"loss_changes":[6.7476355E-2,2.7873985E-2,5.6735903E-2,9.565838E-3,0E0,4.2687096E-2,5.6900207E-2,0E0,0E0,0E0,0E0,0E0,0E0],"parents":[2147483647,0,0,1,1,2,2,3,3,5,5,6,6],"right_children":[2,4,6,8,-1,10,12,-1,-1,-1,-1,-1,-1],"split_conditions":[-2.7860858E0,1.0946091E-4,1.0395658E0,-6.744115E-2,-7.0020696E-4,7.7270724E-2,4.271264E0,-1.4701986E-5,-2.747198E-4,3.0628733E-5,2.1973246E-4,8.468009E-6,-1.0241648E-4],"split_indices":[12,1,18,4,0,5,14,0,0,0,0,0,0],"split_type":[0,0,0,0,0,0,0,0,0,0,0,0,0],"sum_hessian":[1.191E3,2E1,1.171E3,1.7E1,3E0,1.38E2,1.033E3,6E0,1.1E1,8.4E1,5.4E1,8.84E2,1.49E2],"tree_param":{"num_deleted":"0","num_feature":"25","num_nodes":"13","size_leaf_vector":"1"}},{"base_weights":[3.3619755E-4,4.8460953E-2,-1.2653781E-3,1.5801257E-2,6.549323E-2,3.4213758E-3,-1.8039906E-2,-3.6946454E-5,1.7790178E-4,-3.398028E-5,3.627314E-4,4.634107E-5,-5.87352E-5,-5.7157755E-5,-2.9129276E-4],"categories":[],"categories_nodes":[],"categories_segments":[],"categories_sizes":[],"default_left":[0,0,0,0,0,0,0,0,0,0,0,0,0,0,0],"id":81,"left_children":[1,3,5,7,9,11,13,-1,-1,-1,-1,-1,-1,-1,-1],"loss_changes":[8.854392E-2,1.9547082E-2,8.748503E-2,5.985017E-3,6.3309073E-3,6.834956E-2,6.448786E-2,0E0,0E0,0E0,0E0,0E0,0E0,0E0,0E0],"parents":[2147483647,0,0,1,1,2,2,3,3,4,4,5,5,6,6],"right_children":[2,4,6,8,10,12,14,-1,-1,-1,-1,-1,-1,-1,-1],"split_conditions":[-2.712141E-3,-2.1464946E-3,1.1081936E-1,-6.7756577E0,-9.8215975E-2,1.2077732E-3,1.1269847E-1,-3.6946454E-5,1.7790178E-4,-3.398028E-5,3.627314E-4,4.634107E-5,-5.87352E-5,-5.7157755E-5,-2.9129276E-4],"split_indices":[0,1,5,6,8,1,16,0,0,0,0,0,0,0,0],"split_type":[0,0,0,0,0,0,0,0,0,0,0,0,0,0,0],"sum_hessian":[1.147E3,3.6E1,1.111E3,1.3E1,2.3E1,8.69E2,2.42E2,6E0,7E0,1E0,2.2E1,6.35E2,2.34E2,2.04E2,3.8E1],"tree_param":{"num_deleted":"0","num_feature":"25","num_nodes":"15","size_leaf_vector":"1"}},{"base_weights":[1.4305554E-3,5.3513963E-2,-4.9107266E-4,1.9830788E-2,5.986548E-2,-8.24856E-2,1.7780582E-4,-4.251607E-5,1.6045563E-4,3.3434705E-4,5.431519E-6,5.1436797E-5,-5.8035465E-4,-1.15555864E-4,1.2526354E-5],"categories":[],"categories_nodes":[],"categories_segments":[],"categories_sizes":[],"default_left":[0,0,0,0,0,0,0,0,0,0,0,0,0,0,0],"id":82,"left_children":[1,3,5,7,9,11,13,-1,-1,-1,-1,-1,-1,-1,-1],"loss_changes":[1.15324125E-1,7.584326E-3,6.1001614E-2,2.623435E-3,7.225476E-3,2.4122003E-2,5.38363E-2,0E0,0E0,0E0,0E0,0E0,0E0,0E0,0E0],"parents":[2147483647,0,0,1,1,2,2,3,3,4,4,5,5,6,6],"right_children":[2,4,6,8,10,12,14,-1,-1,-1,-1,-1,-1,-1,-1],"split_conditions":[-2.712141E-3,-5.487928E-2,-1.3042684E-1,-1.1126183E-1,-1.667418E-1,-1.8214668E-1,-4.8902594E-2,-4.251607E-5,1.6045563E-4,3.3434705E-4,5.431519E-6,5.1436797E-5,-5.8035465E-4,-1.15555864E-4,1.2526354E-5],"split_indices":[0,8,7,16,9,9,8,0,0,0,0,0,0,0,0],"split_type":[0,0,0,0,0,0,0,0,0,0,0,0,0,0,0],"sum_hessian":[1.151E3,4E1,1.111E3,7E0,3.3E1,8E0,1.103E3,2E0,5E0,3.1E1,2E0,2E0,6E0,9.9E1,1.004E3],"tree_param":{"num_deleted":"0","num_feature":"25","num_nodes":"15","size_leaf_vector":"1"}},{"base_weights":[9.909641E-4,3.881891E-2,-1.0962833E-3,2.86869E-2,4.957637E-4,-4.3057013E-2,5.595354E-4,2.4968054E-5,2.0985208E-4,-3.7625528E-4,-9.880638E-5,-6.9792077E-6,1.379105E-4],"categories":[],"categories_nodes":[],"categories_segments":[],"categories_sizes":[],"default_left":[0,0,0,0,0,0,0,0,0,0,0,0,0],"id":83,"left_children":[1,3,5,7,-1,9,11,-1,-1,-1,-1,-1,-1],"loss_changes":[9.21056E-2,3.1509615E-2,7.6868266E-2,1.3992719E-2,0E0,2.7644023E-2,5.1508788E-2,0E0,0E0,0E0,0E0,0E0,0E0],"parents":[2147483647,0,0,1,1,2,2,3,3,5,5,6,6],"right_children":[2,4,6,8,-1,10,12,-1,-1,-1,-1,-1,-1],"split_conditions":[-2.262389E-3,3.361E1,-9.5931947E-4,-6.2265706E0,4.957637E-4,-6.542595E-1,2.762E1,2.4968054E-5,2.0985208E-4,-3.7625528E-4,-9.880638E-5,-6.9792077E-6,1.379105E-4],"split_indices":[0,2,1,14,0,12,2,0,0,0,0,0,0],"split_type":[0,0,0,0,0,0,0,0,0,0,0,0,0],"sum_hessian":[1.165E3,6E1,1.105E3,5.2E1,8E0,4.1E1,1.064E3,1.7E1,3.5E1,1.8E1,2.3E1,9.92E2,7.2E1],"tree_param":{"num_deleted":"0","num_feature":"25","num_nodes":"13","size_leaf_vector":"1"}},{"base_weights":[1.6117434E-3,5.5894174E-2,-3.5358733E-4,2.3823697E-2,7.290069E-2,-4.0697344E-2,8.005273E-4,1.7299024E-4,-4.3225155E-6,4.3738462E-4,1.8346347E-4,-1.357096E-6,-3.206273E-4,-1.163897E-4,1.3221378E-5],"categories":[],"categories_nodes":[],"categories_segments":[],"categories_sizes":[],"default_left":[0,0,0,0,0,0,0,0,0,0,0,0,0,0,0],"id":84,"left_children":[1,3,5,7,9,11,13,-1,-1,-1,-1,-1,-1,-1,-1],"loss_changes":[1.1907791E-1,1.9534096E-2,5.0225675E-2,3.3674743E-3,6.7905188E-3,2.4499033E-2,4.1171778E-2,0E0,0E0,0E0,0E0,0E0,0E0,0E0,0E0],"parents":[2147483647,0,0,1,1,2,2,3,3,4,4,5,5,6,6],"right_children":[2,4,6,8,10,12,14,-1,-1,-1,-1,-1,-1,-1,-1],"split_conditions":[-2.7305193E-3,-2.1464946E-3,-1.8245262E-3,-5.8574013E-2,-1.9345346E-1,-8.053565E-2,-5.25324E-2,1.7299024E-4,-4.3225155E-6,4.3738462E-4,1.8346347E-4,-1.357096E-6,-3.206273E-4,-1.163897E-4,1.3221378E-5],"split_indices":[0,1,1,23,9,19,8,0,0,0,0,0,0,0,0],"split_type":[0,0,0,0,0,0,0,0,0,0,0,0,0,0,0],"sum_hessian":[1.115E3,3.8E1,1.077E3,1.4E1,2.4E1,2.9E1,1.048E3,1E1,4E0,1.8E1,6E0,1E1,1.9E1,7.2E1,9.76E2],"tree_param":{"num_deleted":"0","num_feature":"25","num_nodes":"15","size_leaf_vector":"1"}},{"base_weights":[-1.068492E-3,6.375271E-2,-1.7740196E-3,7.528482E-2,-1.6609447E-4,-4.6585985E-2,-6.4685947E-4,1.5699965E-4,4.6645827E-4,-2.5997013E-5,-3.5343162E-4,-4.9575675E-7,-3.9141168E-4],"categories":[],"categories_nodes":[],"categories_segments":[],"categories_sizes":[],"default_left":[0,0,0,0,0,0,0,0,0,0,0,0,0],"id":85,"left_children":[1,3,5,7,-1,9,11,-1,-1,-1,-1,-1,-1],"loss_changes":[5.0968368E-2,1.5563764E-2,5.558166E-2,4.0189363E-3,0E0,2.2776216E-2,4.3782994E-2,0E0,0E0,0E0,0E0,0E0,0E0],"parents":[2147483647,0,0,1,1,2,2,3,3,5,5,6,6],"right_children":[2,4,6,8,-1,10,12,-1,-1,-1,-1,-1,-1],"split_conditions":[-1.117352E-1,-6.648088E-2,-2.4722433E0,-4.246107E-2,-1.6609447E-4,-2.4123954E-2,2.2220579E-1,1.5699965E-4,4.6645827E-4,-2.5997013E-5,-3.5343162E-4,-4.9575675E-7,-3.9141168E-4],"split_indices":[19,13,12,8,0,15,13,0,0,0,0,0,0],"split_type":[0,0,0,0,0,0,0,0,0,0,0,0,0],"sum_hessian":[1.111E3,1.1E1,1.1E3,1E1,1E0,2.6E1,1.074E3,3E0,7E0,9E0,1.7E1,1.067E3,7E0],"tree_param":{"num_deleted":"0","num_feature":"25","num_nodes":"13","size_leaf_vector":"1"}},{"base_weights":[-1.1334681E-3,5.3497374E-2,-2.7362695E-3,5.801816E-2,7.347336E-3,-3.3736744E-4,-3.716083E-2,1.1464932E-4,3.4040338E-4,-7.261602E-5,9.99836E-5,2.114737E-5,-4.3323816E-5,-6.358399E-4,-1.5264828E-4],"categories":[],"categories_nodes":[],"categories_segments":[],"categories_sizes":[],"default_left":[0,0,0,0,0,0,0,0,0,0,0,0,0,0,0],"id":86,"left_children":[1,3,5,7,9,11,13,-1,-1,-1,-1,-1,-1,-1,-1],"loss_changes":[9.830382E-2,6.2500164E-3,9.000092E-2,5.572967E-3,1.2467098E-3,3.5085738E-2,4.497178E-2,0E0,0E0,0E0,0E0,0E0,0E0,0E0,0E0],"parents":[2147483647,0,0,1,1,2,2,3,3,4,4,5,5,6,6],"right_children":[2,4,6,8,10,12,14,-1,-1,-1,-1,-1,-1,-1,-1],"split_conditions":[-2.7305193E-3,1.1994482E-2,1.4773703E-1,-1.8244886E-1,-3.7016554E-3,1.2824611E-3,-1.3042684E-1,1.1464932E-4,3.4040338E-4,-7.261602E-5,9.99836E-5,2.114737E-5,-4.3323816E-5,-6.358399E-4,-1.5264828E-4],"split_indices":[0,4,5,13,0,0,7,0,0,0,0,0,0,0,0],"split_type":[0,0,0,0,0,0,0,0,0,0,0,0,0,0,0],"sum_hessian":[1.12E3,3.1E1,1.089E3,2.8E1,3E0,1.019E3,7E1,5E0,2.3E1,1E0,2E0,6.57E2,3.62E2,5E0,6.5E1],"tree_param":{"num_deleted":"0","num_feature":"25","num_nodes":"15","size_leaf_vector":"1"}},{"base_weights":[5.4594607E-4,-5.3715165E-4,6.407795E-2,-5.6731254E-2,3.8455238E-4,4.6692142E-4,2.687276E-2,-5.6009414E-4,-3.350126E-5,-1.2305821E-5,9.1978625E-5,2.090635E-4,-1.9963764E-4],"categories":[],"categories_nodes":[],"categories_segments":[],"categories_sizes":[],"default_left":[0,0,0,0,0,0,0,0,0,0,0,0,0],"id":87,"left_children":[1,3,5,7,9,-1,11,-1,-1,-1,-1,-1,-1],"loss_changes":[7.79977E-2,5.7772495E-2,1.5017115E-2,4.434599E-2,5.1111583E-2,0E0,8.993368E-3,0E0,0E0,0E0,0E0,0E0,0E0],"parents":[2147483647,0,0,1,1,2,2,3,3,4,4,6,6],"right_children":[2,4,6,8,10,-1,12,-1,-1,-1,-1,-1,-1],"split_conditions":[4.028E1,-2.6826742E0,-5.1948223E0,-1.806733E-2,2.507E1,4.6692142E-4,1.0485022E-1,-5.6009414E-4,-3.350126E-5,-1.2305821E-5,9.1978625E-5,2.090635E-4,-1.9963764E-4],"split_indices":[2,12,6,17,2,0,10,0,0,0,0,0,0],"split_type":[0,0,0,0,0,0,0,0,0,0,0,0,0],"sum_hessian":[1.132E3,1.114E3,1.8E1,1.7E1,1.097E3,1E1,8E0,8E0,9E0,9.47E2,1.5E2,7E0,1E0],"tree_param":{"num_deleted":"0","num_feature":"25","num_nodes":"13","size_leaf_vector":"1"}},{"base_weights":[-1.0093108E-4,-1.1238436E-3,8.9765765E-2,-1.0082056E-1,-2.4291604E-4,1.2984271E-4,9.3135566E-2,-1.4365297E-4,-6.76148E-4,3.3142667E-5,-4.354238E-5,5.1116745E-4,1.304242E-4],"categories":[],"categories_nodes":[],"categories_segments":[],"categories_sizes":[],"default_left":[0,0,0,0,0,0,0,0,0,0,0,0,0],"id":88,"left_children":[1,3,5,7,9,-1,11,-1,-1,-1,-1,-1,-1],"loss_changes":[1.0618322E-1,1.0027232E-1,5.548373E-4,1.6802244E-2,5.9525024E-2,0E0,8.4494054E-4,0E0,0E0,0E0,0E0,0E0,0E0],"parents":[2147483647,0,0,1,1,2,2,3,3,4,4,6,6],"right_children":[2,4,6,8,10,-1,12,-1,-1,-1,-1,-1,-1],"split_conditions":[5.363576E-2,-1.3042684E-1,-5.027391E-2,-8.555227E-2,1.3654752E0,1.2984271E-4,4.6598732E-2,-1.4365297E-4,-6.76148E-4,3.3142667E-5,-4.354238E-5,5.1116745E-4,1.304242E-4],"split_indices":[11,7,21,20,18,0,7,0,0,0,0,0,0],"split_type":[0,0,0,0,0,0,0,0,0,0,0,0,0],"sum_hessian":[1.153E3,1.141E3,1.2E1,9E0,1.132E3,1E0,1.1E1,3E0,6E0,6.24E2,5.08E2,1E1,1E0],"tree_param":{"num_deleted":"0","num_feature":"25","num_nodes":"13","size_leaf_vector":"1"}},{"base_weights":[-1.9208835E-4,4.151501E-2,-1.8245798E-3,1.7154885E-2,6.110033E-2,-1.0317612E-3,-7.520646E-2,1.8100561E-4,-5.0726776E-5,4.4291545E-4,2.3334955E-4,-1.1362512E-4,6.0699667E-6,9.9557E-5,-6.561042E-4],"categories":[],"categories_nodes":[],"categories_segments":[],"categories_sizes":[],"default_left":[0,0,0,0,0,0,0,0,0,0,0,0,0,0,0],"id":89,"left_children":[1,3,5,7,9,11,13,-1,-1,-1,-1,-1,-1,-1,-1],"loss_changes":[7.9532675E-2,1.9944265E-2,6.531507E-2,1.0023673E-2,5.543709E-3,4.999947E-2,5.8175497E-2,0E0,0E0,0E0,0E0,0E0,0E0,0E0,0E0],"parents":[2147483647,0,0,1,1,2,2,3,3,4,4,5,5,6,6],"right_children":[2,4,6,8,10,12,14,-1,-1,-1,-1,-1,-1,-1,-1],"split_conditions":[-2.3931477E-3,-9.608725E-3,6.468601E-1,9.652547E-3,