{"learner":{"attributes":{"scikit_learn":"{\"_estimator_type\": \"regressor\"}"},"feature_names":["slope_60","bb_width","slope_120","vol_10","vix_level","tlt_to_ma_60","macd_signal","target_tlt_ratio_20","drawdown","tlt_ret_20","vol_20","price_to_ma_120","target_spy_ratio_20","target_tlt_rel_ret","macd_hist","vix_ret_5","vol_ratio","hyg_ret","spy_to_ma_60","tlt_ret_5","macd","spy_ret_20","spy_ret_5","price_to_ma_60","tlt_ret_1"],"feature_types":["float","float","float","float","float","float","float","float","float","float","float","float","float","float","float","float","float","float","float","float","float","float","float","float","float"],"gradient_booster":{"model":{"cats":{"enc":[],"feature_segments":[],"sorted_idx":[]},"gbtree_model_param":{"num_parallel_tree":"1","num_trees":"100"},"iteration_indptr":[0,1,2,3,4,5,6,7,8,9,10,11,12,13,14,15,16,17,18,19,20,21,22,23,24,25,26,27,28,29,30,31,32,33,34,35,36,37,38,39,40,41,42,43,44,45,46,47,48,49,50,51,52,53,54,55,56,57,58,59,60,61,62,63,64,65,66,67,68,69,70,71,72,73,74,75,76,77,78,79,80,81,82,83,84,85,86,87,88,89,90,91,92,93,94,95,96,97,98,99,100],"tree_info":[0,0,0,0,0,0,0,0,0,0,0,0,0,0,0,0,0,0,0,0,0,0,0,0,0,0,0,0,0,0,0,0,0,0,0,0,0,0,0,0,0,0,0,0,0,0,0,0,0,0,0,0,0,0,0,0,0,0,0,0,0,0,0,0,0,0,0,0,0,0,0,0,0,0,0,0,0,0,0,0,0,0,0,0,0,0,0,0,0,0,0,0,0,0,0,0,0,0,0,0],"trees":[{"base_weights":[2.5424358E-4,7.535219E-2,-2.1665236E-3,5.8435105E-2,6.3571724E-4,-1.0759626E-1,-1.3090043E-3,3.4709746E-4,4.6588517E-5,-3.4429344E-5,-7.4895594E-4,-1.3185299E-5,2.7942593E-4],"categories":[],"categories_nodes":[],"categories_segments":[],"categories_sizes":[],"default_left":[0,0,0,0,0,0,0,0,0,0,0,0,0],"id":0,"left_children":[1,3,5,7,-1,9,11,-1,-1,-1,-1,-1,-1],"loss_changes":[2.328604E-1,2.7607918E-2,1.1205554E-1,1.6606376E-2,0E0,4.1447073E-2,9.3695715E-2,0E0,0E0,0E0,0E0,0E0,0E0],"parents":[2147483647,0,0,1,1,2,2,3,3,5,5,6,6],"right_children":[2,4,6,8,-1,10,12,-1,-1,-1,-1,-1,-1],"split_conditions":[-2.7305202E-3,3.607E1,-1.3042714E-1,2.4364376E-2,6.3571724E-4,-8.2353473E-4,3.361E1,3.4709746E-4,4.6588517E-5,-3.4429344E-5,-7.4895594E-4,-1.3185299E-5,2.7942593E-4],"split_indices":[0,4,13,10,0,0,4,0,0,0,0,0,0],"split_type":[0,0,0,0,0,0,0,0,0,0,0,0,0],"sum_hessian":[1.279E3,3.9E1,1.24E3,3.1E1,8E0,9E0,1.231E3,2.5E1,6E0,3E0,6E0,1.204E3,2.7E1],"tree_param":{"num_deleted":"0","num_feature":"25","num_nodes":"13","size_leaf_vector":"1"}},{"base_weights":[1.1354577E-3,6.2022563E-2,-6.850271E-4,3.0130548E-2,8.069963E-2,-1.0929845E-1,-1.5079158E-5,-3.628649E-5,2.1601195E-4,7.5021904E-5,4.4690195E-4,-1.12999594E-4,-6.7223725E-4,-6.8719564E-5,2.3587721E-5],"categories":[],"categories_nodes":[],"categories_segments":[],"categories_sizes":[],"default_left":[0,0,0,0,0,0,0,0,0,0,0,0,0,0,0],"id":1,"left_children":[1,3,5,7,9,11,13,-1,-1,-1,-1,-1,-1,-1,-1],"loss_changes":[1.4890604E-1,2.0798802E-2,9.495712E-2,8.130078E-3,1.23307705E-2,1.4395401E-2,8.438163E-2,0E0,0E0,0E0,0E0,0E0,0E0,0E0,0E0],"parents":[2147483647,0,0,1,1,2,2,3,3,4,4,5,5,6,6],"right_children":[2,4,6,8,10,12,14,-1,-1,-1,-1,-1,-1,-1,-1],"split_conditions":[-2.7305202E-3,-2.1464943E-3,-1.3042714E-1,-6.784199E0,-8.31036E-2,-8.2353473E-4,-2.2249162E-2,-3.628649E-5,2.1601195E-4,7.5021904E-5,4.4690195E-4,-1.12999594E-4,-6.7223725E-4,-6.8719564E-5,2.3587721E-5],"split_indices":[0,2,13,6,5,0,5,0,0,0,0,0,0,0,0],"split_type":[0,0,0,0,0,0,0,0,0,0,0,0,0,0,0],"sum_hessian":[1.342E3,3.8E1,1.304E3,1.5E1,2.3E1,7E0,1.297E3,4E0,1.1E1,3E0,2E1,2E0,5E0,3.32E2,9.65E2],"tree_param":{"num_deleted":"0","num_feature":"25","num_nodes":"15","size_leaf_vector":"1"}},{"base_weights":[1.7268093E-3,6.643592E-2,-2.1378449E-4,3.032962E-2,9.1316424E-2,-1.0526441E-3,7.499926E-2,-8.306336E-6,2.1901178E-4,3.153613E-4,5.946222E-4,1.2464346E-5,-1.5366469E-4,4.3180154E-4,1.2517822E-4],"categories":[],"categories_nodes":[],"categories_segments":[],"categories_sizes":[],"default_left":[0,0,0,0,0,0,0,0,0,0,0,0,0,0,0],"id":2,"left_children":[1,3,5,7,9,11,13,-1,-1,-1,-1,-1,-1,-1,-1],"loss_changes":[1.6388841E-1,3.136742E-2,8.0081105E-2,7.3971525E-3,9.6517205E-3,1.3211715E-1,5.77908E-3,0E0,0E0,0E0,0E0,0E0,0E0,0E0,0E0],"parents":[2147483647,0,0,1,1,2,2,3,3,4,4,5,5,6,6],"right_children":[2,4,6,8,10,12,14,-1,-1,-1,-1,-1,-1,-1,-1],"split_conditions":[-2.7305202E-3,-1.9115245E-3,3.367287E-2,-9.511345E-2,3.116E1,1.3087198E-1,3.687292E-4,-8.306336E-6,2.1901178E-4,3.153613E-4,5.946222E-4,1.2464346E-5,-1.5366469E-4,4.3180154E-4,1.2517822E-4],"split_indices":[0,2,10,15,4,1,2,0,0,0,0,0,0,0,0],"split_type":[0,0,0,0,0,0,0,0,0,0,0,0,0,0,0],"sum_hessian":[1.304E3,3.7E1,1.267E3,1.6E1,2.1E1,1.254E3,1.3E1,5E0,1.1E1,1.2E1,9E0,1.121E3,1.33E2,1E1,3E0],"tree_param":{"num_deleted":"0","num_feature":"25","num_nodes":"15","size_leaf_vector":"1"}},{"base_weights":[-6.484174E-4,5.9282124E-2,-2.2739372E-3,3.1392448E-2,8.111593E-2,7.495525E-4,-2.9258534E-2,3.2570657E-7,2.0515578E-4,4.6258591E-4,2.0511082E-4,2.5781845E-5,-5.300852E-5,-2.0631184E-4,2.6467032E-4],"categories":[],"categories_nodes":[],"categories_segments":[],"categories_sizes":[],"default_left":[0,0,0,0,0,0,0,0,0,0,0,0,0,0,0],"id":3,"left_children":[1,3,5,7,9,11,13,-1,-1,-1,-1,-1,-1,-1,-1],"loss_changes":[1.2911661E-1,1.8766396E-2,1.0527E-1,5.128138E-3,4.8840195E-3,5.811771E-2,1.3038713E-1,0E0,0E0,0E0,0E0,0E0,0E0,0E0,0E0],"parents":[2147483647,0,0,1,1,2,2,3,3,4,4,5,5,6,6],"right_children":[2,4,6,8,10,12,14,-1,-1,-1,-1,-1,-1,-1,-1],"split_conditions":[-2.7305202E-3,-2.243877E-3,1.3617943E-1,-1.1126183E-1,-1.9345362E-1,1.1932988E-3,2.9129945E-2,3.2570657E-7,2.0515578E-4,4.6258591E-4,2.0511082E-4,2.5781845E-5,-5.300852E-5,-2.0631184E-4,2.6467032E-4],"split_indices":[0,2,1,15,8,2,10,0,0,0,0,0,0,0,0],"split_type":[0,0,0,0,0,0,0,0,0,0,0,0,0,0,0],"sum_hessian":[1.323E3,3.4E1,1.289E3,1.6E1,1.8E1,1.16E3,1.29E2,4E0,1.2E1,1.3E1,5E0,8.36E2,3.24E2,1.13E2,1.6E1],"tree_param":{"num_deleted":"0","num_feature":"25","num_nodes":"15","size_leaf_vector":"1"}},{"base_weights":[-2.810926E-4,6.6797785E-2,-2.3431608E-3,2.118731E-2,9.2521094E-2,-1.8113745E-2,2.6421654E-3,1.9599088E-4,2.6621342E-6,5.32081E-4,2.1804342E-4,-1.4723933E-5,-2.2127586E-4,3.5789376E-4,4.1767753E-6],"categories":[],"categories_nodes":[],"categories_segments":[],"categories_sizes":[],"default_left":[0,0,0,0,0,0,0,0,0,0,0,0,0,0,0],"id":4,"left_children":[1,3,5,7,9,11,13,-1,-1,-1,-1,-1,-1,-1,-1],"loss_changes":[1.7623943E-1,4.262334E-2,9.7224034E-2,5.557991E-3,1.1659563E-2,1.1762201E-1,1.1701476E-1,0E0,0E0,0E0,0E0,0E0,0E0,0E0,0E0],"parents":[2147483647,0,0,1,1,2,2,3,3,4,4,5,5,6,6],"right_children":[2,4,6,8,10,12,14,-1,-1,-1,-1,-1,-1,-1,-1],"split_conditions":[-2.7305202E-3,-1.9115245E-3,-2.2249162E-2,2.4875788E-2,1.3873297E0,1.05237134E-1,-2.9171023E0,1.9599088E-4,2.6621342E-6,5.32081E-4,2.1804342E-4,-1.4723933E-5,-2.2127586E-4,3.5789376E-4,4.1767753E-6],"split_indices":[0,2,5,3,16,1,6,0,0,0,0,0,0,0,0],"split_type":[0,0,0,0,0,0,0,0,0,0,0,0,0,0,0],"sum_hessian":[1.272E3,3.7E1,1.235E3,1.4E1,2.3E1,2.96E2,9.39E2,7E0,7E0,1.7E1,6E0,1.88E2,1.08E2,2.3E1,9.16E2],"tree_param":{"num_deleted":"0","num_feature":"25","num_nodes":"15","size_leaf_vector":"1"}},{"base_weights":[3.10679E-4,-1.8677909E-3,6.236596E-2,9.3638117E-4,-2.9797679E-2,1.01205386E-1,3.7447475E-2,2.7698068E-5,-5.5990215E-5,-2.3466542E-4,2.1758235E-5,5.917993E-4,2.990883E-4,2.5498212E-4,-2.9976244E-4],"categories":[],"categories_nodes":[],"categories_segments":[],"categories_sizes":[],"default_left":[0,0,0,0,0,0,0,0,0,0,0,0,0,0,0],"id":5,"left_children":[1,3,5,7,9,11,13,-1,-1,-1,-1,-1,-1,-1,-1],"loss_changes":[1.7937253E-1,1.00434415E-1,3.9762005E-2,6.517661E-2,6.864647E-2,4.9840063E-3,4.130847E-2,0E0,0E0,0E0,0E0,0E0,0E0,0E0,0E0],"parents":[2147483647,0,0,1,1,2,2,3,3,4,4,5,5,6,6],"right_children":[2,4,6,8,10,12,14,-1,-1,-1,-1,-1,-1,-1,-1],"split_conditions":[3.361E1,1.3617943E-1,-5.2013717E0,1.2077704E-3,2.2168191E-2,-2.8921286E-2,1.048505E-1,2.7698068E-5,-5.5990215E-5,-2.3466542E-4,2.1758235E-5,5.917993E-4,2.990883E-4,2.5498212E-4,-2.9976244E-4],"split_indices":[4,1,6,2,10,7,5,0,0,0,0,0,0,0,0],"split_type":[0,0,0,0,0,0,0,0,0,0,0,0,0,0,0],"sum_hessian":[1.325E3,1.281E3,4.4E1,1.165E3,1.16E2,1.6E1,2.8E1,8.45E2,3.2E2,7.7E1,3.9E1,1E1,6E0,2.5E1,3E0],"tree_param":{"num_deleted":"0","num_feature":"25","num_nodes":"15","size_leaf_vector":"1"}},{"base_weights":[5.668592E-4,5.716311E-2,-1.9874976E-3,4.31844E-2,1.1714672E-1,1.370741E-3,-3.39593E-2,2.6047943E-4,-3.3714852E-5,6.2913E-4,9.790775E-5,-2.938974E-7,1.6710303E-4,1.3233481E-4,-2.3282897E-4],"categories":[],"categories_nodes":[],"categories_segments":[],"categories_sizes":[],"default_left":[0,0,0,0,0,0,0,0,0,0,0,0,0,0,0],"id":6,"left_children":[1,3,5,7,9,11,13,-1,-1,-1,-1,-1,-1,-1,-1],"loss_changes":[1.8747245E-1,4.1896716E-2,1.332914E-1,2.124893E-2,5.9912205E-3,5.1492892E-2,9.1079086E-2,0E0,0E0,0E0,0E0,0E0,0E0,0E0,0E0],"parents":[2147483647,0,0,1,1,2,2,3,3,4,4,5,5,6,6],"right_children":[2,4,6,8,10,12,14,-1,-1,-1,-1,-1,-1,-1,-1],"split_conditions":[-2.3931433E-3,3.607E1,1.3617943E-1,2.4818439E-2,-5.836103E0,2.814E1,1.0879384E0,2.6047943E-4,-3.3714852E-5,6.2913E-4,9.790775E-5,-2.938974E-7,1.6710303E-4,1.3233481E-4,-2.3282897E-4],"split_indices":[0,4,1,10,6,4,16,0,0,0,0,0,0,0,0],"split_type":[0,0,0,0,0,0,0,0,0,0,0,0,0,0,0],"sum_hessian":[1.295E3,5.5E1,1.24E3,4.6E1,9E0,1.123E3,1.17E2,3.9E1,7E0,8E0,1E0,1.076E3,4.7E1,2E1,9.7E1],"tree_param":{"num_deleted":"0","num_feature":"25","num_nodes":"15","size_leaf_vector":"1"}},{"base_weights":[-6.8050256E-4,5.865836E-2,-2.5071953E-3,2.488767E-2,8.2537234E-2,2.391893E-4,-2.8076628E-2,1.9188854E-4,-8.931999E-6,4.1688658E-5,4.4608422E-4,2.3584173E-5,-7.070689E-5,1.9014739E-4,-2.2003843E-4],"categories":[],"categories_nodes":[],"categories_segments":[],"categories_sizes":[],"default_left":[0,0,0,0,0,0,0,0,0,0,0,0,0,0,0],"id":7,"left_children":[1,3,5,7,9,11,13,-1,-1,-1,-1,-1,-1,-1,-1],"loss_changes":[1.4517808E-1,3.020209E-2,9.122705E-2,6.5434687E-3,1.0638893E-2,7.564476E-2,1.3431981E-1,0E0,0E0,0E0,0E0,0E0,0E0,0E0,0E0],"parents":[2147483647,0,0,1,1,2,2,3,3,4,4,5,5,6,6],"right_children":[2,4,6,8,10,12,14,-1,-1,-1,-1,-1,-1,-1,-1],"split_conditions":[-2.7305202E-3,-2.1464943E-3,1.3617943E-1,-5.5013426E-2,-9.715121E-2,1.2784654E-3,1.0879384E0,1.9188854E-4,-8.931999E-6,4.1688658E-5,4.4608422E-4,2.3584173E-5,-7.070689E-5,1.9014739E-4,-2.2003843E-4],"split_indices":[0,2,1,21,5,2,16,0,0,0,0,0,0,0,0],"split_type":[0,0,0,0,0,0,0,0,0,0,0,0,0,0,0],"sum_hessian":[1.337E3,3.9E1,1.298E3,1.7E1,2.2E1,1.173E3,1.25E2,1.1E1,6E0,2E0,2E1,8.95E2,2.78E2,2.4E1,1.01E2],"tree_param":{"num_deleted":"0","num_feature":"25","num_nodes":"15","size_leaf_vector":"1"}},{"base_weights":[-7.614636E-4,6.237825E-2,-2.710543E-3,2.9243398E-2,9.239419E-2,8.9135865E-4,-3.6404487E-2,4.8505142E-5,2.3911073E-4,3.1578593E-4,6.0566794E-4,-2.3981404E-6,2.036886E-4,-2.2147302E-4,3.376363E-4],"categories":[],"categories_nodes":[],"categories_segments":[],"categories_sizes":[],"default_left":[0,0,0,0,0,0,0,0,0,0,0,0,0,0,0],"id":8,"left_children":[1,3,5,7,9,11,13,-1,-1,-1,-1,-1,-1,-1,-1],"loss_changes":[1.6027576E-1,3.608644E-2,1.5331301E-1,6.7959633E-3,9.152472E-3,6.2396172E-2,1.0296513E-1,0E0,0E0,0E0,0E0,0E0,0E0,0E0,0E0],"parents":[2147483647,0,0,1,1,2,2,3,3,4,4,5,5,6,6],"right_children":[2,4,6,8,10,12,14,-1,-1,-1,-1,-1,-1,-1,-1],"split_conditions":[-2.7305202E-3,-1.9115245E-3,1.3883756E-1,-6.784199E0,3.116E1,3.041E1,3.367287E-2,4.8505142E-5,2.3911073E-4,3.1578593E-4,6.0566794E-4,-2.3981404E-6,2.036886E-4,-2.2147302E-4,3.376363E-4],"split_indices":[0,2,1,6,4,4,10,0,0,0,0,0,0,0,0],"split_type":[0,0,0,0,0,0,0,0,0,0,0,0,0,0,0],"sum_hessian":[1.3E3,3.8E1,1.262E3,1.9E1,1.9E1,1.141E3,1.21E2,1E1,9E0,1.1E1,8E0,1.104E3,3.7E1,1.13E2,8E0],"tree_param":{"num_deleted":"0","num_feature":"25","num_nodes":"15","size_leaf_vector":"1"}},{"base_weights":[9.3890436E-4,-1.3320582E-5,1.0116169E-1,-7.39576E-2,7.5448205E-4,5.2784925E-4,1.3201611E-4,8.110873E-5,-6.6180364E-4,1.2052219E-5,-1.1298211E-4],"categories":[],"categories_nodes":[],"categories_segments":[],"categories_sizes":[],"default_left":[0,0,0,0,0,0,0,0,0,0,0],"id":9,"left_children":[1,3,5,7,9,-1,-1,-1,-1,-1,-1],"loss_changes":[1.21680506E-1,7.181891E-2,1.15747E-3,7.059591E-2,4.8454046E-2,0E0,0E0,0E0,0E0,0E0,0E0],"parents":[2147483647,0,0,1,1,2,2,3,3,4,4],"right_children":[2,4,6,8,10,-1,-1,-1,-1,-1,-1],"split_conditions":[5.363562E-2,-1.3042714E-1,8.223007E-2,1.2539871E-4,5.1420722E-2,5.2784925E-4,1.3201611E-4,8.110873E-5,-6.6180364E-4,1.2052219E-5,-1.1298211E-4],"split_indices":[10,13,13,2,7,0,0,0,0,0,0],"split_type":[0,0,0,0,0,0,0,0,0,0,0],"sum_hessian":[1.274E3,1.263E3,1.1E1,1.2E1,1.251E3,1E1,1E0,5E0,7E0,1.169E3,8.2E1],"tree_param":{"num_deleted":"0","num_feature":"25","num_nodes":"11","size_leaf_vector":"1"}},{"base_weights":[-3.999706E-4,4.960883E-2,-2.7525378E-3,2.1316767E-2,7.624727E-2,-1.1845593E-1,-1.9145899E-3,2.1359567E-4,-3.0946943E-5,4.135388E-4,6.82025E-5,-1.465588E-4,-6.9877587E-4,-1.9428255E-5,2.0017562E-4],"categories":[],"categories_nodes":[],"categories_segments":[],"categories_sizes":[],"default_left":[0,0,0,0,0,0,0,0,0,0,0,0,0,0,0],"id":10,"left_children":[1,3,5,7,9,11,13,-1,-1,-1,-1,-1,-1,-1,-1],"loss_changes":[1.5449214E-1,4.2840376E-2,1.2135278E-1,1.7920908E-2,1.0989264E-2,1.2980968E-2,1.031482E-1,0E0,0E0,0E0,0E0,0E0,0E0,0E0,0E0],"parents":[2147483647,0,0,1,1,2,2,3,3,4,4,5,5,6,6],"right_children":[2,4,6,8,10,12,14,-1,-1,-1,-1,-1,-1,-1,-1],"split_conditions":[-2.3931433E-3,-1.0635125E-2,-1.3042714E-1,-6.0297515E-2,-1.92995E0,-8.823721E-4,3.116E1,2.1359567E-4,-3.0946943E-5,4.135388E-4,6.82025E-5,-1.465588E-4,-6.9877587E-4,-1.9428255E-5,2.0017562E-4],"split_indices":[0,9,13,5,6,0,4,0,0,0,0,0,0,0,0],"split_type":[0,0,0,0,0,0,0,0,0,0,0,0,0,0,0],"sum_hessian":[1.311E3,5.8E1,1.253E3,2.9E1,2.9E1,8E0,1.245E3,1.6E1,1.3E1,2.6E1,3E0,2E0,6E0,1.19E3,5.5E1],"tree_param":{"num_deleted":"0","num_feature":"25","num_nodes":"15","size_leaf_vector":"1"}},{"base_weights":[1.1396987E-3,5.5118363E-2,-1.3737689E-3,4.2432304E-2,5.715905E-4,-1.5858807E-2,3.8949696E-3,2.4084027E-4,-4.2869262E-5,-2.2587151E-4,-1.5724196E-5,2.3171231E-5,-5.631467E-4],"categories":[],"categories_nodes":[],"categories_segments":[],"categories_sizes":[],"default_left":[0,0,0,0,0,0,0,0,0,0,0,0,0],"id":11,"left_children":[1,3,5,7,-1,9,11,-1,-1,-1,-1,-1,-1],"loss_changes":[1.8296377E-1,4.0200785E-2,9.843551E-2,1.5319228E-2,0E0,1.28054E-1,8.1948444E-2,0E0,0E0,0E0,0E0,0E0,0E0],"parents":[2147483647,0,0,1,1,2,2,3,3,5,5,6,6],"right_children":[2,4,6,8,-1,10,12,-1,-1,-1,-1,-1,-1],"split_conditions":[-2.3931433E-3,3.473E1,-1.9223282E-2,-1.5543905E-1,5.715905E-4,-1.66587E-3,6.468601E-1,2.4084027E-4,-4.2869262E-5,-2.2587151E-4,-1.5724196E-5,2.3171231E-5,-5.631467E-4],"split_indices":[0,4,5,8,0,11,15,0,0,0,0,0,0],"split_type":[0,0,0,0,0,0,0,0,0,0,0,0,0],"sum_hessian":[1.347E3,5.9E1,1.288E3,5E1,9E0,3.43E2,9.45E2,4.5E1,5E0,1.03E2,2.4E2,9.4E2,5E0],"tree_param":{"num_deleted":"0","num_feature":"25","num_nodes":"13","size_leaf_vector":"1"}},{"base_weights":[-7.5357175E-4,7.2142646E-2,-2.7335796E-3,5.538788E-2,1.051864E-1,2.0573616E-3,-2.0380992E-2,3.6445234E-4,1.8851963E-4,9.362459E-5,5.598644E-4,8.340666E-5,-1.574428E-5,2.7905163E-4,-1.273129E-4],"categories":[],"categories_nodes":[],"categories_segments":[],"categories_sizes":[],"default_left":[0,0,0,0,0,0,0,0,0,0,0,0,0,0,0],"id":12,"left_children":[1,3,5,7,9,11,13,-1,-1,-1,-1,-1,-1,-1,-1],"loss_changes":[1.9649293E-1,1.4105022E-2,1.1206767E-1,5.2979216E-3,4.3465793E-3,7.9446554E-2,1.1092094E-1,0E0,0E0,0E0,0E0,0E0,0E0,0E0,0E0],"parents":[2147483647,0,0,1,1,2,2,3,3,4,4,5,5,6,6],"right_children":[2,4,6,8,10,12,14,-1,-1,-1,-1,-1,-1,-1,-1],"split_conditions":[-2.7305202E-3,3.116E1,1.1023793E-1,1.1453008E-1,-8.592307E-2,-4.8230436E-2,1.0131387E0,3.6445234E-4,1.8851963E-4,9.362459E-5,5.598644E-4,8.340666E-5,-1.574428E-5,2.7905163E-4,-1.273129E-4],"split_indices":[0,4,1,1,5,8,16,0,0,0,0,0,0,0,0],"split_type":[0,0,0,0,0,0,0,0,0,0,0,0,0,0,0],"sum_hessian":[1.359E3,3.5E1,1.324E3,2.5E1,1E1,1.042E3,2.82E2,1.1E1,1.4E1,1E0,9E0,2.73E2,7.69E2,1.7E1,2.65E2],"tree_param":{"num_deleted":"0","num_feature":"25","num_nodes":"15","size_leaf_vector":"1"}},{"base_weights":[3.0309783E-4,5.8186553E-2,-1.4607755E-3,3.156288E-2,7.533507E-2,-1.5937936E-2,3.0843236E-3,2.1590438E-4,-2.472296E-5,5.4564903E-4,2.687063E-4,-2.0661704E-4,-1.5226407E-5,3.0467406E-4,6.549309E-6],"categories":[],"categories_nodes":[],"categories_segments":[],"categories_sizes":[],"default_left":[0,0,0,0,0,0,0,0,0,0,0,0,0,0,0],"id":13,"left_children":[1,3,5,7,9,11,13,-1,-1,-1,-1,-1,-1,-1,-1],"loss_changes":[1.346516E-1,1.5427902E-2,8.427332E-2,7.4208286E-3,1.0919571E-2,1.000083E-1,1.00003846E-1,0E0,0E0,0E0,0E0,0E0,0E0,0E0,0E0],"parents":[2147483647,0,0,1,1,2,2,3,3,4,4,5,5,6,6],"right_children":[2,4,6,8,10,12,14,-1,-1,-1,-1,-1,-1,-1,-1],"split_conditions":[-2.7305202E-3,-4.7406025E-2,-2.4375007E-2,-6.0297515E-2,-6.784199E0,3.842342E-4,-3.0533848E0,2.1590438E-4,-2.472296E-5,5.4564903E-4,2.687063E-4,-2.0661704E-4,-1.5226407E-5,3.0467406E-4,6.549309E-6],"split_indices":[0,5,5,5,6,2,6,0,0,0,0,0,0,0,0],"split_type":[0,0,0,0,0,0,0,0,0,0,0,0,0,0,0],"sum_hessian":[1.317E3,3.8E1,1.279E3,1.6E1,2.2E1,3.05E2,9.74E2,1.2E1,4E0,7E0,1.5E1,1.02E2,2.03E2,2.8E1,9.46E2],"tree_param":{"num_deleted":"0","num_feature":"25","num_nodes":"15","size_leaf_vector":"1"}},{"base_weights":[-1.1935352E-3,6.7642964E-2,-3.3254223E-3,5.4066624E-2,5.7601376E-4,-6.123126E-2,-1.7104425E-3,3.575106E-4,1.9584164E-4,9.45823E-5,-3.7613837E-4,-1.8676315E-5,2.0888589E-4],"categories":[],"categories_nodes":[],"categories_segments":[],"categories_sizes":[],"default_left":[0,0,0,0,0,0,0,0,0,0,0,0,0],"id":14,"left_children":[1,3,5,7,-1,9,11,-1,-1,-1,-1,-1,-1],"loss_changes":[1.9540465E-1,1.9592628E-2,1.20625414E-1,5.770661E-3,0E0,4.066065E-2,1.1080629E-1,0E0,0E0,0E0,0E0,0E0,0E0],"parents":[2147483647,0,0,1,1,2,2,3,3,5,5,6,6],"right_children":[2,4,6,8,-1,10,12,-1,-1,-1,-1,-1,-1],"split_conditions":[-2.7305202E-3,3.607E1,-2.475359E0,1.2595423E-1,5.7601376E-4,-2.818668E-2,3.16E1,3.575106E-4,1.9584164E-4,9.45823E-5,-3.7613837E-4,-1.8676315E-5,2.0888589E-4],"split_indices":[0,4,14,1,0,12,4,0,0,0,0,0,0],"split_type":[0,0,0,0,0,0,0,0,0,0,0,0,0],"sum_hessian":[1.329E3,3.9E1,1.29E3,3.2E1,7E0,3.4E1,1.256E3,1.3E1,1.9E1,5E0,2.9E1,1.201E3,5.5E1],"tree_param":{"num_deleted":"0","num_feature":"25","num_nodes":"13","size_leaf_vector":"1"}},{"base_weights":[-6.7277474E-4,6.404999E-2,-2.6489024E-3,5.092963E-2,5.838302E-4,2.2092764E-3,-1.9414779E-2,2.9762115E-4,5.264992E-5,3.2739168E-5,-6.693247E-5,2.1934882E-4,-1.1907406E-4],"categories":[],"categories_nodes":[],"categories_segments":[],"categories_sizes":[],"default_left":[0,0,0,0,0,0,0,0,0,0,0,0,0],"id":15,"left_children":[1,3,5,7,-1,9,11,-1,-1,-1,-1,-1,-1],"loss_changes":[1.6835874E-1,2.1021664E-2,1.0405661E-1,1.0823108E-2,0E0,6.712421E-2,8.090678E-2,0E0,0E0,0E0,0E0,0E0,0E0],"parents":[2147483647,0,0,1,1,2,2,3,3,5,5,6,6],"right_children":[2,4,6,8,-1,10,12,-1,-1,-1,-1,-1,-1],"split_conditions":[-2.7305202E-3,3.607E1,1.1023793E-1,3.8456416E-3,5.838302E-4,1.2784654E-3,1.0131387E0,2.9762115E-4,5.264992E-5,3.2739168E-5,-6.693247E-5,2.1934882E-4,-1.1907406E-4],"split_indices":[0,4,1,12,0,2,16,0,0,0,0,0,0],"split_type":[0,0,0,0,0,0,0,0,0,0,0,0,0],"sum_hessian":[1.314E3,3.8E1,1.276E3,3.2E1,6E0,9.9E2,2.86E2,2.6E1,6E0,7.75E2,2.15E2,1.8E1,2.68E2],"tree_param":{"num_deleted":"0","num_feature":"25","num_nodes":"13","size_leaf_vector":"1"}},{"base_weights":[-1.1768799E-3,6.0457446E-2,-2.7527942E-3,2.4117019E-2,8.468989E-2,-1.00597955E-1,-1.9347126E-3,2.0622704E-4,-6.723791E-6,2.8728487E-4,5.309795E-4,-1.02882346E-4,-7.1701274E-4,-8.955803E-5,1.7286708E-5],"categories":[],"categories_nodes":[],"categories_segments":[],"categories_sizes":[],"default_left":[0,0,0,0,0,0,0,0,0,0,0,0,0,0,0],"id":16,"left_children":[1,3,5,7,9,11,13,-1,-1,-1,-1,-1,-1,-1,-1],"loss_changes":[1.3245806E-1,2.7898535E-2,1.06185615E-1,6.595457E-3,5.609408E-3,3.471517E-2,1.1366931E-1,0E0,0E0,0E0,0E0,0E0,0E0,0E0,0E0],"parents":[2147483647,0,0,1,1,2,2,3,3,4,4,5,5,6,6],"right_children":[2,4,6,8,10,12,14,-1,-1,-1,-1,-1,-1,-1,-1],"split_conditions":[-2.7305202E-3,-1.9115245E-3,-1.3042714E-1,2.526073E-2,3.074E1,-8.2353473E-4,-2.2848522E-2,2.0622704E-4,-6.723791E-6,2.8728487E-4,5.309795E-4,-1.02882346E-4,-7.1701274E-4,-8.955803E-5,1.7286708E-5],"split_indices":[0,2,13,3,4,0,5,0,0,0,0,0,0,0,0],"split_type":[0,0,0,0,0,0,0,0,0,0,0,0,0,0,0],"sum_hessian":[1.361E3,3.3E1,1.328E3,1.4E1,1.9E1,1E1,1.318E3,8E0,6E0,1E1,9E0,4E0,6E0,3.32E2,9.86E2],"tree_param":{"num_deleted":"0","num_feature":"25","num_nodes":"15","size_leaf_vector":"1"}},{"base_weights":[-6.60598E-5,5.839044E-2,-1.7813346E-3,2.9073175E-2,7.8390576E-2,-1.7242324E-2,3.374161E-3,2.0368511E-4,-3.5282537E-5,3.051285E-4,5.3455186E-4,-1.9139415E-4,-2.8215865E-5,8.031285E-5,-1.4824537E-5],"categories":[],"categories_nodes":[],"categories_segments":[],"categories_sizes":[],"default_left":[0,0,0,0,0,0,0,0,0,0,0,0,0,0,0],"id":17,"left_children":[1,3,5,7,9,11,13,-1,-1,-1,-1,-1,-1,-1,-1],"loss_changes":[1.3366227E-1,2.0002201E-2,1.0328141E-1,7.448459E-3,4.372239E-3,7.883017E-2,7.8213185E-2,0E0,0E0,0E0,0E0,0E0,0E0,0E0,0E0],"parents":[2147483647,0,0,1,1,2,2,3,3,4,4,5,5,6,6],"right_children":[2,4,6,8,10,12,14,-1,-1,-1,-1,-1,-1,-1,-1],"split_conditions":[-2.7305202E-3,-2.1464943E-3,-2.2249162E-2,-5.8574133E-2,3.8456416E-3,3.842342E-4,5.886265E-4,2.0368511E-4,-3.5282537E-5,3.051285E-4,5.3455186E-4,-1.9139415E-4,-2.8215865E-5,8.031285E-5,-1.4824537E-5],"split_indices":[0,2,5,21,12,2,0,0,0,0,0,0,0,0,0],"split_type":[0,0,0,0,0,0,0,0,0,0,0,0,0,0,0],"sum_hessian":[1.331E3,3.7E1,1.294E3,1.6E1,2.1E1,3.23E2,9.71E2,1.2E1,4E0,1.5E1,6E0,1.14E2,2.09E2,3.23E2,6.48E2],"tree_param":{"num_deleted":"0","num_feature":"25","num_nodes":"15","size_leaf_vector":"1"}},{"base_weights":[7.0264493E-4,5.996949E-2,-1.2870147E-3,4.903568E-2,6.052886E-4,-1.22176945E-1,-5.4437167E-4,3.4612705E-4,1.8143225E-4,-1.2667925E-4,-6.6203735E-4,-9.758537E-5,1.3246511E-5],"categories":[],"categories_nodes":[],"categories_segments":[],"categories_sizes":[],"default_left":[0,0,0,0,0,0,0,0,0,0,0,0,0],"id":18,"left_children":[1,3,5,7,-1,9,11,-1,-1,-1,-1,-1,-1],"loss_changes":[1.59742E-1,2.3446843E-2,1.1763253E-1,7.526703E-3,0E0,4.560828E-3,7.904822E-2,0E0,0E0,0E0,0E0,0E0,0E0],"parents":[2147483647,0,0,1,1,2,2,3,3,5,5,6,6],"right_children":[2,4,6,8,-1,10,12,-1,-1,-1,-1,-1,-1],"split_conditions":[-2.712144E-3,3.412598E-2,-1.3042714E-1,2.058586E-2,6.052886E-4,-1.0779628E-3,-3.6248125E-2,3.4612705E-4,1.8143225E-4,-1.2667925E-4,-6.6203735E-4,-9.758537E-5,1.3246511E-5],"split_indices":[0,3,13,10,0,0,5,0,0,0,0,0,0],"split_type":[0,0,0,0,0,0,0,0,0,0,0,0,0],"sum_hessian":[1.353E3,4.3E1,1.31E3,3.8E1,5E0,7E0,1.303E3,1.3E1,2.5E1,1E0,6E0,1.87E2,1.116E3],"tree_param":{"num_deleted":"0","num_feature":"25","num_nodes":"13","size_leaf_vector":"1"}},{"base_weights":[9.555798E-4,6.024501E-2,-1.1214474E-3,2.2828631E-2,8.670973E-2,1.8574859E-3,-2.7156051E-2,2.1303658E-4,-6.028631E-6,5.014657E-4,2.1820821E-4,2.8032026E-5,-5.1301708E-5,1.4438714E-4,-1.8711705E-4],"categories":[],"categories_nodes":[],"categories_segments":[],"categories_sizes":[],"default_left":[0,0,0,0,0,0,0,0,0,0,0,0,0,0,0],"id":19,"left_children":[1,3,5,7,9,11,13,-1,-1,-1,-1,-1,-1,-1,-1],"loss_changes":[1.637283E-1,4.2580158E-2,9.970906E-2,9.556398E-3,1.0823578E-2,5.246869E-2,7.6987155E-2,0E0,0E0,0E0,0E0,0E0,0E0,0E0,0E0],"parents":[2147483647,0,0,1,1,2,2,3,3,4,4,5,5,6,6],"right_children":[2,4,6,8,10,12,14,-1,-1,-1,-1,-1,-1,-1,-1],"split_conditions":[-2.712144E-3,-2.1464943E-3,1.3617943E-1,2.526073E-2,-1.8434392E-1,1.2784654E-3,1.0879384E0,2.1303658E-4,-6.028631E-6,5.014657E-4,2.1820821E-4,2.8032026E-5,-5.1301708E-5,1.4438714E-4,-1.8711705E-4],"split_indices":[0,2,1,3,8,2,16,0,0,0,0,0,0,0,0],"split_type":[0,0,0,0,0,0,0,0,0,0,0,0,0,0,0],"sum_hessian":[1.328E3,4.4E1,1.284E3,1.9E1,2.5E1,1.153E3,1.31E2,1E1,9E0,1.8E1,7E0,8.81E2,2.72E2,2E1,1.11E2],"tree_param":{"num_deleted":"0","num_feature":"25","num_nodes":"15","size_leaf_vector":"1"}},{"base_weights":[7.148308E-5,5.4731738E-2,-2.0661259E-3,3.5642143E-2,5.53167E-4,1.3250791E-3,-3.1121524E-2,3.0664865E-5,2.4515824E-4,4.403423E-5,-1.7627546E-5,-8.917544E-5,-3.671012E-4],"categories":[],"categories_nodes":[],"categories_segments":[],"categories_sizes":[],"default_left":[0,0,0,0,0,0,0,0,0,0,0,0,0],"id":20,"left_children":[1,3,5,7,-1,9,11,-1,-1,-1,-1,-1,-1],"loss_changes":[1.5212485E-1,4.833564E-2,1.2350284E-1,1.4707904E-2,0E0,4.0777203E-2,7.230951E-2,0E0,0E0,0E0,0E0,0E0,0E0],"parents":[2147483647,0,0,1,1,2,2,3,3,5,5,6,6],"right_children":[2,4,6,8,-1,10,12,-1,-1,-1,-1,-1,-1],"split_conditions":[-2.262388E-3,3.473E1,1.3617943E-1,-7.112327E0,5.53167E-4,-3.1231673E-2,1.1269847E-1,3.0664865E-5,2.4515824E-4,4.403423E-5,-1.7627546E-5,-8.917544E-5,-3.671012E-4],"split_indices":[0,4,1,20,0,8,15,0,0,0,0,0,0],"split_type":[0,0,0,0,0,0,0,0,0,0,0,0,0],"sum_hessian":[1.3E3,4.8E1,1.252E3,3.7E1,1.1E1,1.122E3,1.3E2,1.2E1,2.5E1,4.41E2,6.81E2,1E2,3E1],"tree_param":{"num_deleted":"0","num_feature":"25","num_nodes":"13","size_leaf_vector":"1"}},{"base_weights":[7.319578E-4,-1.0100428E-3,3.814232E-2,1.8062453E-3,-2.327162E-2,8.1860594E-2,1.9538676E-2,3.1226537E-5,-4.1988726E-5,-2.7595164E-4,-5.6366778E-5,9.091001E-5,4.7109154E-4,-2.7389466E-4,2.2238806E-4],"categories":[],"categories_nodes":[],"categories_segments":[],"categories_sizes":[],"default_left":[0,0,0,0,0,0,0,0,0,0,0,0,0,0,0],"id":21,"left_children":[1,3,5,7,9,11,13,-1,-1,-1,-1,-1,-1,-1,-1],"loss_changes":[8.495357E-2,7.8160025E-2,4.5573063E-2,5.0182883E-2,5.298893E-2,1.1654094E-2,8.025704E-2,0E0,0E0,0E0,0E0,0E0,0E0,0E0,0E0],"parents":[2147483647,0,0,1,1,2,2,3,3,4,4,5,5,6,6],"right_children":[2,4,6,8,10,12,14,-1,-1,-1,-1,-1,-1,-1,-1],"split_conditions":[3.294E1,1.2850504E-1,-5.2013717E0,1.1384944E-3,-4.3223236E-2,3.473E1,-8.646289E-2,3.1226537E-5,-4.1988726E-5,-2.7595164E-4,-5.6366778E-5,9.091001E-5,4.7109154E-4,-2.7389466E-4,2.2238806E-4],"split_indices":[4,1,6,2,9,4,21,0,0,0,0,0,0,0,0],"split_type":[0,0,0,0,0,0,0,0,0,0,0,0,0,0,0],"sum_hessian":[1.302E3,1.245E3,5.7E1,1.106E3,1.39E2,1.6E1,4.1E1,7.71E2,3.35E2,3.7E1,1.02E2,3E0,1.3E1,1E1,3.1E1],"tree_param":{"num_deleted":"0","num_feature":"25","num_nodes":"15","size_leaf_vector":"1"}},{"base_weights":[8.839823E-4,5.1316146E-2,-4.9178157E-4,2.5168221E-2,7.316051E-2,1.2807762E-2,-4.718467E-3,1.9103964E-4,-2.5489984E-5,4.024304E-4,1.3717984E-4,2.3935008E-5,1.8899592E-4,2.1566912E-6,-1.0031793E-4],"categories":[],"categories_nodes":[],"categories_segments":[],"categories_sizes":[],"default_left":[0,0,0,0,0,0,0,0,0,0,0,0,0,0,0],"id":22,"left_children":[1,3,5,7,9,11,13,-1,-1,-1,-1,-1,-1,-1,-1],"loss_changes":[8.883515E-2,1.757896E-2,7.015803E-2,6.901703E-3,3.814593E-3,6.014848E-2,7.483319E-2,0E0,0E0,0E0,0E0,0E0,0E0,0E0,0E0],"parents":[2147483647,0,0,1,1,2,2,3,3,4,4,5,5,6,6],"right_children":[2,4,6,8,10,12,14,-1,-1,-1,-1,-1,-1,-1,-1],"split_conditions":[-2.7305202E-3,-2.243877E-3,1.1511163E0,-5.5013426E-2,-1.0076497E-2,1.3662991E-2,1.5464261E-2,1.9103964E-4,-2.5489984E-5,4.024304E-4,1.3717984E-4,2.3935008E-5,1.8899592E-4,2.1566912E-6,-1.0031793E-4],"split_indices":[0,2,16,21,7,3,3,0,0,0,0,0,0,0,0],"split_type":[0,0,0,0,0,0,0,0,0,0,0,0,0,0,0],"sum_hessian":[1.279E3,3.3E1,1.246E3,1.6E1,1.7E1,3E2,9.46E2,1.1E1,5E0,1.4E1,3E0,2.28E2,7.2E1,7.09E2,2.37E2],"tree_param":{"num_deleted":"0","num_feature":"25","num_nodes":"15","size_leaf_vector":"1"}},{"base_weights":[1.0782469E-3,7.1470246E-2,-1.0490703E-3,5.452508E-2,5.7585747E-4,1.470116E-3,-2.1443542E-2,3.2182212E-4,9.721987E-5,1.6207097E-6,1.6231989E-4,2.9160772E-4,-1.3965368E-4],"categories":[],"categories_nodes":[],"categories_segments":[],"categories_sizes":[],"default_left":[0,0,0,0,0,0,0,0,0,0,0,0,0],"id":23,"left_children":[1,3,5,7,-1,9,11,-1,-1,-1,-1,-1,-1],"loss_changes":[1.9908756E-1,2.2592992E-2,6.635983E-2,9.097166E-3,0E0,4.0831897E-2,7.506575E-2,0E0,0E0,0E0,0E0,0E0,0E0],"parents":[2147483647,0,0,1,1,2,2,3,3,5,5,6,6],"right_children":[2,4,6,8,-1,10,12,-1,-1,-1,-1,-1,-1],"split_conditions":[-2.7305202E-3,3.34E1,1.3232498E-1,-1.7028346E-3,5.7585747E-4,2.952E1,1.0032215E0,3.2182212E-4,9.721987E-5,1.6207097E-6,1.6231989E-4,2.9160772E-4,-1.3965368E-4],"split_indices":[0,4,1,22,0,4,16,0,0,0,0,0,0],"split_type":[0,0,0,0,0,0,0,0,0,0,0,0,0],"sum_hessian":[1.328E3,3.8E1,1.29E3,2.9E1,9E0,1.149E3,1.41E2,2.2E1,7E0,1.109E3,4E1,1E1,1.31E2],"tree_param":{"num_deleted":"0","num_feature":"25","num_nodes":"13","size_leaf_vector":"1"}},{"base_weights":[4.9486116E-4,-8.9348364E-4,9.217029E-2,2.2268312E-3,-2.681657E-2,1.0952533E-1,2.622644E-4,2.7632093E-6,1.823343E-4,-2.1839203E-4,6.505417E-5,5.7820755E-4,9.072225E-5],"categories":[],"categories_nodes":[],"categories_segments":[],"categories_sizes":[],"default_left":[0,0,0,0,0,0,0,0,0,0,0,0,0],"id":24,"left_children":[1,3,5,7,9,11,-1,-1,-1,-1,-1,-1,-1],"loss_changes":[1.7063366E-1,1.06913015E-1,8.0436915E-3,6.7617014E-2,9.589933E-2,5.152881E-3,0E0,0E0,0E0,0E0,0E0,0E0,0E0],"parents":[2147483647,0,0,1,1,2,2,3,3,4,4,5,5],"right_children":[2,4,6,8,10,12,-1,-1,-1,-1,-1,-1,-1],"split_conditions":[3.367287E-2,1.3617943E-1,-9.435066E-2,2.814E1,2.287585E-2,5.6227434E-1,2.622644E-4,2.7632093E-6,1.823343E-4,-2.1839203E-4,6.505417E-5,5.7820755E-4,9.072225E-5],"split_indices":[10,1,23,4,10,15,0,0,0,0,0,0,0],"split_type":[0,0,0,0,0,0,0,0,0,0,0,0,0],"sum_hessian":[1.339E3,1.32E3,1.9E1,1.179E3,1.41E2,1.2E1,7E0,1.125E3,5.4E1,9.9E1,4.2E1,1.1E1,1E0],"tree_param":{"num_deleted":"0","num_feature":"25","num_nodes":"13","size_leaf_vector":"1"}},{"base_weights":[-2.5423407E-5,5.2145876E-2,-1.5684392E-3,6.5849036E-2,2.178243E-2,1.7703067E-3,-2.5720097E-2,1.8533811E-4,3.9866625E-4,-2.6893824E-5,1.7227599E-4,3.2414384E-5,-5.156772E-5,1.2958373E-4,-1.8542228E-4],"categories":[],"categories_nodes":[],"categories_segments":[],"categories_sizes":[],"default_left":[0,0,0,0,0,0,0,0,0,0,0,0,0,0,0],"id":25,"left_children":[1,3,5,7,9,11,13,-1,-1,-1,-1,-1,-1,-1,-1],"loss_changes":[1.0368675E-1,1.3960429E-2,1.0092148E-1,7.03039E-3,4.658538E-3,6.269197E-2,9.0120256E-2,0E0,0E0,0E0,0E0,0E0,0E0,0E0,0E0],"parents":[2147483647,0,0,1,1,2,2,3,3,4,4,5,5,6,6],"right_children":[2,4,6,8,10,12,14,-1,-1,-1,-1,-1,-1,-1,-1],"split_conditions":[-2.7305202E-3,-2.0257893E-3,1.3087198E-1,-2.243877E-3,-6.2344093E0,1.1932988E-3,1.1081269E0,1.8533811E-4,3.9866625E-4,-2.6893824E-5,1.7227599E-4,3.2414384E-5,-5.156772E-5,1.2958373E-4,-1.8542228E-4],"split_indices":[0,22,1,2,20,2,16,0,0,0,0,0,0,0,0],"split_type":[0,0,0,0,0,0,0,0,0,0,0,0,0,0,0],"sum_hessian":[1.286E3,3.6E1,1.25E3,2.4E1,1.2E1,1.099E3,1.51E2,9E0,1.5E1,4E0,8E0,7.91E2,3.08E2,2.7E1,1.24E2],"tree_param":{"num_deleted":"0","num_feature":"25","num_nodes":"15","size_leaf_vector":"1"}},{"base_weights":[4.908156E-4,6.480227E-2,-1.7919181E-3,2.5551146E-2,8.357613E-2,-9.765827E-2,-1.0290464E-3,1.7047499E-4,-2.7631395E-7,3.125515E-4,5.7152525E-4,-1.0085728E-4,-7.298614E-4,-1.43409E-5,2.1293298E-4],"categories":[],"categories_nodes":[],"categories_segments":[],"categories_sizes":[],"default_left":[0,0,0,0,0,0,0,0,0,0,0,0,0,0,0],"id":26,"left_children":[1,3,5,7,9,11,13,-1,-1,-1,-1,-1,-1,-1,-1],"loss_changes":[1.9272548E-1,3.1024799E-2,9.263305E-2,3.5007717E-3,1.2274638E-2,3.4481704E-2,1.01084426E-1,0E0,0E0,0E0,0E0,0E0,0E0,0E0,0E0],"parents":[2147483647,0,0,1,1,2,2,3,3,4,4,5,5,6,6],"right_children":[2,4,6,8,10,12,14,-1,-1,-1,-1,-1,-1,-1,-1],"split_conditions":[-2.712144E-3,-1.9115245E-3,-1.3042714E-1,1.9101036E-1,3.294E1,-8.2353473E-4,3.16E1,1.7047499E-4,-2.7631395E-7,3.125515E-4,5.7152525E-4,-1.0085728E-4,-7.298614E-4,-1.43409E-5,2.1293298E-4],"split_indices":[0,2,13,1,4,0,4,0,0,0,0,0,0,0,0],"split_type":[0,0,0,0,0,0,0,0,0,0,0,0,0,0,0],"sum_hessian":[1.311E3,4.4E1,1.267E3,1.5E1,2.9E1,9E0,1.258E3,1.1E1,4E0,1.9E1,1E1,4E0,5E0,1.208E3,5E1],"tree_param":{"num_deleted":"0","num_feature":"25","num_nodes":"15","size_leaf_vector":"1"}},{"base_weights":[6.385798E-4,5.6726087E-2,-1.0481004E-3,2.2787008E-2,7.786953E-2,3.552923E-3,-1.799984E-2,1.8033921E-4,-2.6761434E-5,2.8557883E-4,5.4834085E-4,9.232409E-6,1.977273E-4,-1.0855441E-4,3.5651532E-4],"categories":[],"categories_nodes":[],"categories_segments":[],"categories_sizes":[],"default_left":[0,0,0,0,0,0,0,0,0,0,0,0,0,0,0],"id":27,"left_children":[1,3,5,7,9,11,13,-1,-1,-1,-1,-1,-1,-1,-1],"loss_changes":[1.23136245E-1,2.5493972E-2,9.865008E-2,6.1704908E-3,8.915082E-3,6.1038934E-2,9.0961635E-2,0E0,0E0,0E0,0E0,0E0,0E0,0E0,0E0],"parents":[2147483647,0,0,1,1,2,2,3,3,4,4,5,5,6,6],"right_children":[2,4,6,8,10,12,14,-1,-1,-1,-1,-1,-1,-1,-1],"split_conditions":[-2.7305202E-3,-2.1464943E-3,1.1023793E-1,-5.5013426E-2,3.074E1,2.814E1,3.367287E-2,1.8033921E-4,-2.6761434E-5,2.8557883E-4,5.4834085E-4,9.232409E-6,1.977273E-4,-1.0855441E-4,3.5651532E-4],"split_indices":[0,2,1,21,4,4,10,0,0,0,0,0,0,0,0],"split_type":[0,0,0,0,0,0,0,0,0,0,0,0,0,0,0],"sum_hessian":[1.3E3,3.7E1,1.263E3,1.5E1,2.2E1,9.94E2,2.69E2,1E1,5E0,1.5E1,7E0,9.5E2,4.4E1,2.59E2,1E1],"tree_param":{"num_deleted":"0","num_feature":"25","num_nodes":"15","size_leaf_vector":"1"}},{"base_weights":[9.4280276E-4,-2.862231E-4,1.0312347E-1,4.6033453E-2,-1.683115E-3,5.509083E-4,1.793585E-4,1.3515343E-4,3.335635E-4,-1.3785424E-4,1.4975421E-6],"categories":[],"categories_nodes":[],"categories_segments":[],"categories_sizes":[],"default_left":[0,0,0,0,0,0,0,0,0,0,0],"id":28,"left_children":[1,3,5,7,9,-1,-1,-1,-1,-1,-1],"loss_changes":[1.690638E-1,8.619794E-2,3.6306083E-3,1.35196E-2,6.636335E-2,0E0,0E0,0E0,0E0,0E0,0E0],"parents":[2147483647,0,0,1,1,2,2,3,3,4,4],"right_children":[2,4,6,8,10,-1,-1,-1,-1,-1,-1],"split_conditions":[5.363562E-2,-2.712144E-3,4.6599153E-2,-2.5681626E-2,-4.6686955E-2,5.509083E-4,1.793585E-4,1.3515343E-4,3.335635E-4,-1.3785424E-4,1.4975421E-6],"split_indices":[10,0,13,9,21,0,0,0,0,0,0],"split_type":[0,0,0,0,0,0,0,0,0,0,0],"sum_hessian":[1.345E3,1.33E3,1.5E1,3.8E1,1.292E3,1.3E1,2E0,2.1E1,1.7E1,9.1E1,1.201E3],"tree_param":{"num_deleted":"0","num_feature":"25","num_nodes":"11","size_leaf_vector":"1"}},{"base_weights":[2.5150945E-4,6.0462967E-2,-1.2446226E-3,4.6103936E-2,5.7507097E-4,1.3438811E-3,-2.668416E-2,2.8432248E-4,9.13993E-5,1.8260523E-6,2.13836E-4,-1.7406292E-4,3.8246135E-4],"categories":[],"categories_nodes":[],"categories_segments":[],"categories_sizes":[],"default_left":[0,0,0,0,0,0,0,0,0,0,0,0,0],"id":29,"left_children":[1,3,5,7,-1,9,11,-1,-1,-1,-1,-1,-1],"loss_changes":[1.1889643E-1,1.9757822E-2,8.4851086E-2,7.0404857E-3,0E0,4.7412466E-2,1.0240755E-1,0E0,0E0,0E0,0E0,0E0,0E0],"parents":[2147483647,0,0,1,1,2,2,3,3,5,5,6,6],"right_children":[2,4,6,8,-1,10,12,-1,-1,-1,-1,-1,-1],"split_conditions":[-2.7305202E-3,3.473E1,1.3617943E-1,2.4439279E-2,5.7507097E-4,3.16E1,3.367287E-2,2.8432248E-4,9.13993E-5,1.8260523E-6,2.13836E-4,-1.7406292E-4,3.8246135E-4],"split_indices":[0,4,1,3,0,4,10,0,0,0,0,0,0],"split_type":[0,0,0,0,0,0,0,0,0,0,0,0,0],"sum_hessian":[1.318E3,3.1E1,1.287E3,2.6E1,5E0,1.169E3,1.18E2,1.8E1,8E0,1.143E3,2.6E1,1.1E2,8E0],"tree_param":{"num_deleted":"0","num_feature":"25","num_nodes":"13","size_leaf_vector":"1"}},{"base_weights":[-9.334212E-4,5.4370753E-2,-2.3994185E-3,3.1235605E-2,7.320002E-2,2.9811612E-3,-2.1317728E-2,2.0860875E-4,2.5335934E-5,4.1829466E-4,1.9181681E-4,6.84344E-5,-1.962785E-5,7.640021E-5,-1.3867661E-4],"categories":[],"categories_nodes":[],"categories_segments":[],"categories_sizes":[],"default_left":[0,0,0,0,0,0,0,0,0,0,0,0,0,0,0],"id":30,"left_children":[1,3,5,7,9,11,13,-1,-1,-1,-1,-1,-1,-1,-1],"loss_changes":[1.06745094E-1,1.2524568E-2,1.3056023E-1,4.4515766E-3,3.3446252E-3,7.390619E-2,6.709163E-2,0E0,0E0,0E0,0E0,0E0,0E0,0E0,0E0],"parents":[2147483647,0,0,1,1,2,2,3,3,4,4,5,5,6,6],"right_children":[2,4,6,8,10,12,14,-1,-1,-1,-1,-1,-1,-1,-1],"split_conditions":[-2.7305202E-3,-2.6890274E-2,1.1023793E-1,4.513552E-3,-1.9345362E-1,-3.1231673E-2,1.1323991E0,2.0860875E-4,2.5335934E-5,4.1829466E-4,1.9181681E-4,6.84344E-5,-1.962785E-5,7.640021E-5,-1.3867661E-4],"split_indices":[0,9,1,12,8,8,16,0,0,0,0,0,0,0,0],"split_type":[0,0,0,0,0,0,0,0,0,0,0,0,0,0,0],"sum_hessian":[1.314E3,3.3E1,1.281E3,1.6E1,1.7E1,9.98E2,2.83E2,1.1E1,5E0,1.2E1,5E0,3.91E2,6.07E2,4.2E1,2.41E2],"tree_param":{"num_deleted":"0","num_feature":"25","num_nodes":"15","size_leaf_vector":"1"}},{"base_weights":[-1.1064945E-3,-1.8132296E-3,9.0809055E-2,2.3664446E-3,-1.6299408E-2,4.930525E-4,1.988453E-4,3.005232E-4,6.583284E-6,-2.4487203E-4,-5.0626648E-5],"categories":[],"categories_nodes":[],"categories_segments":[],"categories_sizes":[],"default_left":[0,0,0,0,0,0,0,0,0,0,0],"id":31,"left_children":[1,3,5,7,9,-1,-1,-1,-1,-1,-1],"loss_changes":[8.513227E-2,7.8689784E-2,5.58421E-5,6.1080694E-2,5.821091E-2,0E0,0E0,0E0,0E0,0E0,0E0],"parents":[2147483647,0,0,1,1,2,2,3,3,4,4],"right_children":[2,4,6,8,10,-1,-1,-1,-1,-1,-1],"split_conditions":[5.363562E-2,1.1023793E-1,-7.8557973E0,-9.139741E-4,-5.0281066E-2,4.930525E-4,1.988453E-4,3.005232E-4,6.583284E-6,-2.4487203E-4,-5.0626648E-5],"split_indices":[10,1,6,2,9,0,0,0,0,0,0],"split_type":[0,0,0,0,0,0,0,0,0,0,0],"sum_hessian":[1.307E3,1.298E3,9E0,1.008E3,2.9E2,7E0,2E0,1.7E1,9.91E2,4.5E1,2.45E2],"tree_param":{"num_deleted":"0","num_feature":"25","num_nodes":"11","size_leaf_vector":"1"}},{"base_weights":[4.128001E-4,6.002892E-2,-1.1184392E-3,4.578761E-2,5.030044E-4,1.0761131E-2,-4.884308E-3,2.558319E-4,1.0511715E-5,1.6264482E-4,2.0275686E-5,4.329547E-6,-1.086808E-4],"categories":[],"categories_nodes":[],"categories_segments":[],"categories_sizes":[],"default_left":[0,0,0,0,0,0,0,0,0,0,0,0,0],"id":32,"left_children":[1,3,5,7,-1,9,11,-1,-1,-1,-1,-1,-1],"loss_changes":[1.2394299E-1,1.5033975E-2,5.928422E-2,6.2300675E-3,0E0,4.6429537E-2,9.748648E-2,0E0,0E0,0E0,0E0,0E0,0E0],"parents":[2147483647,0,0,1,1,2,2,3,3,5,5,6,6],"right_children":[2,4,6,8,-1,10,12,-1,-1,-1,-1,-1,-1],"split_conditions":[-2.7305202E-3,3.473E1,1.1511163E0,2.6035288E-2,5.030044E-4,2.4542504E-4,1.5464261E-2,2.558319E-4,1.0511715E-5,1.6264482E-4,2.0275686E-5,4.329547E-6,-1.086808E-4],"split_indices":[0,4,16,19,0,0,3,0,0,0,0,0,0],"split_type":[0,0,0,0,0,0,0,0,0,0,0,0,0],"sum_hessian":[1.356E3,3.3E1,1.323E3,2.6E1,7E0,3.18E2,1.005E3,2.3E1,3E0,7.4E1,2.44E2,7.5E2,2.55E2],"tree_param":{"num_deleted":"0","num_feature":"25","num_nodes":"13","size_leaf_vector":"1"}},{"base_weights":[3.7267793E-4,-1.8614752E-3,4.3060124E-2,-1.6091432E-2,2.946086E-3,3.3467874E-2,9.796078E-2,-1.9209972E-4,-1.3301304E-5,5.955647E-5,-2.1939342E-5,-4.1916264E-5,2.3811396E-4,5.210494E-4,1.20164084E-4],"categories":[],"categories_nodes":[],"categories_segments":[],"categories_sizes":[],"default_left":[0,0,0,0,0,0,0,0,0,0,0,0,0,0,0],"id":33,"left_children":[1,3,5,7,9,11,13,-1,-1,-1,-1,-1,-1,-1,-1],"loss_changes":[1.2272634E-1,8.3714545E-2,3.042519E-2,9.255067E-2,6.0201056E-2,3.356041E-2,1.6464218E-3,0E0,0E0,0E0,0E0,0E0,0E0,0E0,0E0],"parents":[2147483647,0,0,1,1,2,2,3,3,4,4,5,5,6,6],"right_children":[2,4,6,8,10,12,14,-1,-1,-1,-1,-1,-1,-1,-1],"split_conditions":[3.16E1,-2.3684915E-2,5.363562E-2,3.842342E-4,1.1971949E0,-1.9071454E0,8.223007E-2,-1.9209972E-4,-1.3301304E-5,5.955647E-5,-2.1939342E-5,-4.1916264E-5,2.3811396E-4,5.210494E-4,1.20164084E-4],"split_indices":[4,5,10,2,6,14,13,0,0,0,0,0,0,0,0],"split_type":[0,0,0,0,0,0,0,0,0,0,0,0,0,0,0],"sum_hessian":[1.285E3,1.222E3,6.3E1,3.08E2,9.14E2,5.5E1,8E0,1.15E2,1.93E2,4.11E2,5.03E2,1.4E1,4.1E1,7E0,1E0],"tree_param":{"num_deleted":"0","num_feature":"25","num_nodes":"15","size_leaf_vector":"1"}},{"base_weights":[-1.6601243E-3,5.4790895E-2,-3.1375315E-3,4.940669E-4,4.379572E-2,2.4093322E-3,-1.8836208E-2,2.798861E-4,9.393154E-5,7.934356E-5,-8.421822E-6,-2.1174355E-4,-3.1284555E-5],"categories":[],"categories_nodes":[],"categories_segments":[],"categories_sizes":[],"default_left":[0,0,0,0,0,0,0,0,0,0,0,0,0],"id":34,"left_children":[1,3,5,-1,7,9,11,-1,-1,-1,-1,-1,-1],"loss_changes":[1.1117883E-1,1.2125969E-2,1.1307318E-1,0E0,7.7797733E-3,5.291208E-2,9.998688E-2,0E0,0E0,0E0,0E0,0E0,0E0],"parents":[2147483647,0,0,1,1,2,2,4,4,5,5,6,6],"right_children":[2,4,6,-1,8,10,12,-1,-1,-1,-1,-1,-1],"split_conditions":[-2.7305202E-3,-1.149759E-1,1.0248681E-1,4.940669E-4,2.4078783E-2,-4.8625574E-2,-2.2249162E-2,2.798861E-4,9.393154E-5,7.934356E-5,-8.421822E-6,-2.1174355E-4,-3.1284555E-5],"split_indices":[0,21,1,0,3,8,5,0,0,0,0,0,0],"split_type":[0,0,0,0,0,0,0,0,0,0,0,0,0],"sum_hessian":[1.33E3,3.3E1,1.297E3,5E0,2.8E1,9.59E2,3.38E2,1.8E1,1E1,2.23E2,7.36E2,1.17E2,2.21E2],"tree_param":{"num_deleted":"0","num_feature":"25","num_nodes":"13","size_leaf_vector":"1"}},{"base_weights":[1.2672192E-3,5.5709265E-2,-1.3304752E-3,2.8856954E-2,8.07046E-2,1.5028511E-3,-2.8465759E-2,2.1619974E-4,-4.74857E-5,4.7125868E-4,1.932601E-4,3.085635E-6,2.015789E-4,-2.6765754E-4,-6.3146916E-5],"categories":[],"categories_nodes":[],"categories_segments":[],"categories_sizes":[],"default_left":[0,0,0,0,0,0,0,0,0,0,0,0,0,0,0],"id":35,"left_children":[1,3,5,7,9,11,13,-1,-1,-1,-1,-1,-1,-1,-1],"loss_changes":[1.8321794E-1,3.7270874E-2,9.514719E-2,1.6954E-2,1.3437122E-2,3.8510893E-2,4.5760415E-2,0E0,0E0,0E0,0E0,0E0,0E0,0E0,0E0],"parents":[2147483647,0,0,1,1,2,2,3,3,4,4,5,5,6,6],"right_children":[2,4,6,8,10,12,14,-1,-1,-1,-1,-1,-1,-1,-1],"split_conditions":[-2.4691313E-3,-9.608845E-3,1.3617943E-1,-2.7305202E-3,-1.9345362E-1,3.320367E-2,-3.1795986E-2,2.1619974E-4,-4.74857E-5,4.7125868E-4,1.932601E-4,3.085635E-6,2.015789E-4,-2.6765754E-4,-6.3146916E-5],"split_indices":[0,9,1,0,8,17,5,0,0,0,0,0,0,0,0],"split_type":[0,0,0,0,0,0,0,0,0,0,0,0,0,0,0],"sum_hessian":[1.294E3,5.8E1,1.236E3,2.9E1,2.9E1,1.12E3,1.16E2,2.1E1,8E0,2.1E1,8E0,1.096E3,2.4E1,4.4E1,7.2E1],"tree_param":{"num_deleted":"0","num_feature":"25","num_nodes":"15","size_leaf_vector":"1"}},{"base_weights":[-1.7846556E-4,5.9961647E-2,-2.0353824E-3,5.46417E-4,4.3711692E-2,-1.1149239E-1,-1.2488099E-3,2.975418E-4,6.876895E-5,-3.035456E-5,-6.1962556E-4,-1.2374373E-5,2.533174E-4],"categories":[],"categories_nodes":[],"categories_segments":[],"categories_sizes":[],"default_left":[0,0,0,0,0,0,0,0,0,0,0,0,0],"id":36,"left_children":[1,3,5,-1,7,9,11,-1,-1,-1,-1,-1,-1],"loss_changes":[1.4541145E-1,2.6473477E-2,1.0859985E-1,0E0,1.3846625E-2,1.1030957E-2,7.997689E-2,0E0,0E0,0E0,0E0,0E0,0E0],"parents":[2147483647,0,0,1,1,2,2,4,4,5,5,6,6],"right_children":[2,4,6,-1,8,10,12,-1,-1,-1,-1,-1,-1],"split_conditions":[-2.7305202E-3,-1.149759E-1,-1.3042714E-1,5.46417E-4,2.4439279E-2,-1.8214682E-1,3.294E1,2.975418E-4,6.876895E-5,-3.035456E-5,-6.1962556E-4,-1.2374373E-5,2.533174E-4],"split_indices":[0,21,13,0,3,8,4,0,0,0,0,0,0],"split_type":[0,0,0,0,0,0,0,0,0,0,0,0,0],"sum_hessian":[1.3E3,3.8E1,1.262E3,8E0,3E1,8E0,1.254E3,1.9E1,1.1E1,1E0,7E0,1.226E3,2.8E1],"tree_param":{"num_deleted":"0","num_feature":"25","num_nodes":"13","size_leaf_vector":"1"}},{"base_weights":[5.7869457E-4,4.8268408E-2,-1.7105668E-3,3.7851747E-2,5.6279893E-4,1.8802942E-3,-1.7144142E-2,1.08546745E-4,2.7204806E-4,7.233465E-5,-1.5766027E-5,1.5337163E-4,-1.4321503E-4],"categories":[],"categories_nodes":[],"categories_segments":[],"categories_sizes":[],"default_left":[0,0,0,0,0,0,0,0,0,0,0,0,0],"id":37,"left_children":[1,3,5,7,-1,9,11,-1,-1,-1,-1,-1,-1],"loss_changes":[1.4539348E-1,3.6583737E-2,7.047083E-2,1.3249271E-2,0E0,6.541492E-2,1.3279855E-1,0E0,0E0,0E0,0E0,0E0,0E0],"parents":[2147483647,0,0,1,1,2,2,3,3,5,5,6,6],"right_children":[2,4,6,8,-1,10,12,-1,-1,-1,-1,-1,-1],"split_conditions":[-2.3931433E-3,6.462301E-2,1.6263794E-2,-3.6248125E-2,5.6279893E-4,5.116701E-4,1.1656152E0,1.08546745E-4,2.7204806E-4,7.233465E-5,-1.5766027E-5,1.5337163E-4,-1.4321503E-4],"split_indices":[0,3,3,5,0,0,16,0,0,0,0,0,0],"split_type":[0,0,0,0,0,0,0,0,0,0,0,0,0],"sum_hessian":[1.33E3,6E1,1.27E3,5.3E1,7E0,1.031E3,2.39E2,2.8E1,2.5E1,2.94E2,7.37E2,4.6E1,1.93E2],"tree_param":{"num_deleted":"0","num_feature":"25","num_nodes":"13","size_leaf_vector":"1"}},{"base_weights":[-4.2615196E-5,6.7643836E-2,-2.151025E-3,4.648441E-2,9.839995E-2,8.053464E-4,-3.0837238E-2,-6.7862265E-6,2.7833937E-4,1.207869E-4,5.3988106E-4,-3.0828576E-7,2.3423435E-4,-2.992709E-4,-6.897512E-5],"categories":[],"categories_nodes":[],"categories_segments":[],"categories_sizes":[],"default_left":[0,0,0,0,0,0,0,0,0,0,0,0,0,0,0],"id":38,"left_children":[1,3,5,7,9,11,13,-1,-1,-1,-1,-1,-1,-1,-1],"loss_changes":[1.842424E-1,2.0806432E-2,1.06203325E-1,1.1051919E-2,8.043706E-3,4.5344457E-2,5.702447E-2,0E0,0E0,0E0,0E0,0E0,0E0,0E0,0E0],"parents":[2147483647,0,0,1,1,2,2,3,3,4,4,5,5,6,6],"right_children":[2,4,6,8,10,12,14,-1,-1,-1,-1,-1,-1,-1,-1],"split_conditions":[-2.7305202E-3,3.074E1,1.3617943E-1,-6.784199E0,-9.310577E-2,3.16E1,-2.681453E-2,-6.7862265E-6,2.7833937E-4,1.207869E-4,5.3988106E-4,-3.0828576E-7,2.3423435E-4,-2.992709E-4,-6.897512E-5],"split_indices":[0,4,1,6,5,4,5,0,0,0,0,0,0,0,0],"split_type":[0,0,0,0,0,0,0,0,0,0,0,0,0,0,0],"sum_hessian":[1.289E3,3.8E1,1.251E3,2.4E1,1.4E1,1.135E3,1.16E2,4E0,2E1,2E0,1.2E1,1.115E3,2E1,4.2E1,7.4E1],"tree_param":{"num_deleted":"0","num_feature":"25","num_nodes":"15","size_leaf_vector":"1"}},{"base_weights":[-9.3759934E-4,6.643384E-2,-2.80977E-3,7.8749694E-2,1.5024106E-2,-2.8537134E-2,1.2713531E-4,2.1056396E-4,4.5655514E-4,7.4891645E-6,1.4089626E-4,-7.885986E-5,-3.8096018E-4,-4.5779496E-4,5.133608E-6],"categories":[],"categories_nodes":[],"categories_segments":[],"categories_sizes":[],"default_left":[0,0,0,0,0,0,0,0,0,0,0,0,0,0,0],"id":39,"left_children":[1,3,5,7,9,11,13,-1,-1,-1,-1,-1,-1,-1,-1],"loss_changes":[1.6327381E-1,2.0977288E-2,9.5132194E-2,9.032592E-3,1.3810017E-3,7.726902E-2,9.335627E-2,0E0,0E0,0E0,0E0,0E0,0E0,0E0,0E0],"parents":[2147483647,0,0,1,1,2,2,3,3,4,4,5,5,6,6],"right_children":[2,4,6,8,10,12,14,-1,-1,-1,-1,-1,-1,-1,-1],"split_conditions":[-2.7305202E-3,-2.4773646E-3,-4.788752E-2,-2.972877E-1,-6.784199E0,1.4915106E-1,-1.3042714E-1,2.1056396E-4,4.5655514E-4,7.4891645E-6,1.4089626E-4,-7.885986E-5,-3.8096018E-4,-4.5779496E-4,5.133608E-6],"split_indices":[0,22,9,8,6,1,13,0,0,0,0,0,0,0,0],"split_type":[0,0,0,0,0,0,0,0,0,0,0,0,0,0,0],"sum_hessian":[1.292E3,3.4E1,1.258E3,2.7E1,7E0,1.28E2,1.13E3,8E0,1.9E1,4E0,3E0,1.02E2,2.6E1,1E1,1.12E3],"tree_param":{"num_deleted":"0","num_feature":"25","num_nodes":"15","size_leaf_vector":"1"}},{"base_weights":[5.222605E-4,-5.651063E-4,1.0261977E-1,4.5065526E-2,-1.7748383E-3,5.7902874E-4,2.7877835E-4,1.1611972E-4,3.409821E-4,3.1705674E-6,-1.7436751E-4],"categories":[],"categories_nodes":[],"categories_segments":[],"categories_sizes":[],"default_left":[0,0,0,0,0,0,0,0,0,0,0],"id":40,"left_children":[1,3,5,7,9,-1,-1,-1,-1,-1,-1],"loss_changes":[1.4748915E-1,7.266908E-2,2.1886379E-3,1.5590303E-2,1.02225006E-1,0E0,0E0,0E0,0E0,0E0,0E0],"parents":[2147483647,0,0,1,1,2,2,3,3,4,4],"right_children":[2,4,6,8,10,-1,-1,-1,-1,-1,-1],"split_conditions":[5.363562E-2,-2.712144E-3,-7.2642136E0,-1.9115245E-3,1.4773731E-1,5.7902874E-4,2.7877835E-4,1.1611972E-4,3.409821E-4,3.1705674E-6,-1.7436751E-4],"split_indices":[10,0,6,2,1,0,0,0,0,0,0],"split_type":[0,0,0,0,0,0,0,0,0,0,0],"sum_hessian":[1.327E3,1.314E3,1.3E1,3.3E1,1.281E3,9E0,4E0,1.8E1,1.5E1,1.195E3,8.6E1],"tree_param":{"num_deleted":"0","num_feature":"25","num_nodes":"11","size_leaf_vector":"1"}},{"base_weights":[3.612457E-4,-1.4349042E-3,4.3665364E-2,2.016502E-4,-2.562203E-2,3.164628E-2,4.6096504E-4,-1.4893523E-4,9.18382E-6,8.248322E-5,-1.985282E-4,2.4937573E-4,-3.4554607E-5],"categories":[],"categories_nodes":[],"categories_segments":[],"categories_sizes":[],"default_left":[0,0,0,0,0,0,0,0,0,0,0,0,0],"id":41,"left_children":[1,3,5,7,9,11,-1,-1,-1,-1,-1,-1,-1],"loss_changes":[1.03510976E-1,5.0592948E-2,2.7988918E-2,5.8784768E-2,4.8685588E-2,3.1260204E-2,0E0,0E0,0E0,0E0,0E0,0E0,0E0],"parents":[2147483647,0,0,1,1,2,2,3,3,4,4,5,5],"right_children":[2,4,6,8,10,12,-1,-1,-1,-1,-1,-1,-1],"split_conditions":[3.294E1,5.2225024E-2,5.363562E-2,-4.7086067E0,1.1951772E0,2.4078783E-2,4.6096504E-4,-1.4893523E-4,9.18382E-6,8.248322E-5,-1.985282E-4,2.4937573E-4,-3.4554607E-5],"split_indices":[4,7,10,20,16,3,0,0,0,0,0,0,0],"split_type":[0,0,0,0,0,0,0,0,0,0,0,0,0],"sum_hessian":[1.329E3,1.277E3,5.2E1,1.197E3,8E1,4.3E1,9E0,6.1E1,1.136E3,2E1,6E1,2.9E1,1.4E1],"tree_param":{"num_deleted":"0","num_feature":"25","num_nodes":"13","size_leaf_vector":"1"}},{"base_weights":[6.01232E-4,4.1170206E-2,-1.4730616E-3,-1.9859959E-4,4.5799267E-2,-2.057516E-2,1.7119931E-3,2.5018206E-4,-5.801075E-5,-5.9385824E-5,-3.2584651E-4,4.5382058E-5,-2.0275142E-5],"categories":[],"categories_nodes":[],"categories_segments":[],"categories_sizes":[],"default_left":[0,0,0,0,0,0,0,0,0,0,0,0,0],"id":42,"left_children":[1,3,5,-1,7,9,11,-1,-1,-1,-1,-1,-1],"loss_changes":[1.1072047E-1,2.5782146E-2,7.620844E-2,0E0,1.5396953E-2,6.865587E-2,4.5640614E-2,0E0,0E0,0E0,0E0,0E0,0E0],"parents":[2147483647,0,0,1,1,2,2,4,4,5,5,6,6],"right_children":[2,4,6,-1,8,10,12,-1,-1,-1,-1,-1,-1],"split_conditions":[-2.1886833E-3,-1.0565553E1,-1.10950984E-1,-1.9859959E-4,-1.5543905E-1,3.854048E-2,-2.1957712E-2,2.5018206E-4,-5.801075E-5,-5.9385824E-5,-3.2584651E-4,4.5382058E-5,-2.0275142E-5],"split_indices":[0,6,8,0,8,18,8,0,0,0,0,0,0],"split_type":[0,0,0,0,0,0,0,0,0,0,0,0,0],"sum_hessian":[1.314E3,6.3E1,1.251E3,3E0,6E1,1.78E2,1.073E3,5.6E1,4E0,1.5E2,2.8E1,4.71E2,6.02E2],"tree_param":{"num_deleted":"0","num_feature":"25","num_nodes":"13","size_leaf_vector":"1"}},{"base_weights":[-6.895655E-4,-1.3240388E-3,5.2286085E-4,-1.3994976E-2,2.956292E-3,-1.5654473E-4,-1.7712124E-5,4.2782285E-5,-4.902622E-5],"categories":[],"categories_nodes":[],"categories_segments":[],"categories_sizes":[],"default_left":[0,0,0,0,0,0,0,0,0],"id":43,"left_children":[1,3,-1,5,7,-1,-1,-1,-1],"loss_changes":[8.915407E-2,7.195804E-2,0E0,6.0505927E-2,7.096082E-2,0E0,0E0,0E0,0E0],"parents":[2147483647,0,0,1,1,3,3,4,4],"right_children":[2,4,-1,6,8,-1,-1,-1,-1],"split_conditions":[6.462301E-2,-2.2848522E-2,5.2286085E-4,2.7442607E-3,3.777169E-2,-1.5654473E-4,-1.7712124E-5,4.2782285E-5,-4.902622E-5],"split_indices":[3,5,0,11,18,0,0,0,0],"split_type":[0,0,0,0,0,0,0,0,0],"sum_hessian":[1.332E3,1.325E3,7E0,3.34E2,9.91E2,1.25E2,2.09E2,6.89E2,3.02E2],"tree_param":{"num_deleted":"0","num_feature":"25","num_nodes":"9","size_leaf_vector":"1"}},{"base_weights":[2.581637E-4,-8.1775355E-4,8.5441224E-2,2.4287442E-3,-1.2483362E-2,4.929249E-4,3.683418E-2,3.6808302E-5,-6.239306E-5,-8.378103E-5,1.4615725E-4,2.1504836E-4,3.0381543E-5],"categories":[],"categories_nodes":[],"categories_segments":[],"categories_sizes":[],"default_left":[0,0,0,0,0,0,0,0,0,0,0,0,0],"id":44,"left_children":[1,3,5,7,9,-1,11,-1,-1,-1,-1,-1,-1],"loss_changes":[1.1756507E-1,4.8014615E-2,6.58267E-3,7.302146E-2,4.9658988E-2,0E0,6.8773096E-4,0E0,0E0,0E0,0E0,0E0,0E0],"parents":[2147483647,0,0,1,1,2,2,3,3,4,4,6,6],"right_children":[2,4,6,8,10,-1,12,-1,-1,-1,-1,-1,-1],"split_conditions":[3.367287E-2,1.2885412E-3,-2.8921286E-2,1.6154662E-2,1.7939521E-2,4.929249E-4,3.687292E-4,3.6808302E-5,-6.239306E-5,-8.378103E-5,1.4615725E-4,2.1504836E-4,3.0381543E-5],"split_indices":[10,2,7,3,10,0,2,0,0,0,0,0,0],"split_type":[0,0,0,0,0,0,0,0,0,0,0,0,0],"sum_hessian":[1.281E3,1.266E3,1.5E1,9.91E2,2.75E2,1.1E1,4E0,7.45E2,2.46E2,2.5E2,2.5E1,3E0,1E0],"tree_param":{"num_deleted":"0","num_feature":"25","num_nodes":"13","size_leaf_vector":"1"}},{"base_weights":[-2.7314475E-4,4.2401496E-2,-2.1734138E-3,1.7498162E-2,7.158557E-2,3.2435078E-3,-1.72876E-2,1.6783104E-4,-7.381238E-5,4.7678783E-4,2.7400572E-4,3.700009E-5,-4.610292E-5,-7.135898E-5,-7.6386257E-4],"categories":[],"categories_nodes":[],"categories_segments":[],"categories_sizes":[],"default_left":[0,0,0,0,0,0,0,0,0,0,0,0,0,0,0],"id":45,"left_children":[1,3,5,7,9,11,13,-1,-1,-1,-1,-1,-1,-1,-1],"loss_changes":[1.0462142E-1,3.8720332E-2,1.01168446E-1,1.6560204E-2,4.749611E-3,4.719954E-2,1.3107565E-1,0E0,0E0,0E0,0E0,0E0,0E0,0E0,0E0],"parents":[2147483647,0,0,1,1,2,2,3,3,4,4,5,5,6,6],"right_children":[2,4,6,8,10,12,14,-1,-1,-1,-1,-1,-1,-1,-1],"split_conditions":[-2.3931433E-3,-9.608845E-3,1.0248681E-1,-2.7305202E-3,-1.1098457E-1,1.2023166E-3,6.468601E-1,1.6783104E-4,-7.381238E-5,4.7678783E-4,2.7400572E-4,3.700009E-5,-4.610292E-5,-7.135898E-5,-7.6386257E-4],"split_indices":[0,9,1,0,23,2,15,0,0,0,0,0,0,0,0],"split_type":[0,0,0,0,0,0,0,0,0,0,0,0,0,0,0],"sum_hessian":[1.288E3,5.4E1,1.234E3,3E1,2.4E1,9.09E2,3.25E2,2E1,1E1,8E0,1.6E1,6.82E2,2.27E2,3.19E2,6E0],"tree_param":{"num_deleted":"0","num_feature":"25","num_nodes":"15","size_leaf_vector":"1"}},{"base_weights":[-6.2980247E-4,-1.5242719E-3,7.806587E-2,1.1845925E-3,-2.5688916E-2,9.088995E-2,1.712175E-4,3.960471E-7,2.1909042E-4,-5.1587913E-4,-1.0609346E-4,4.98528E-4,1.709164E-4],"categories":[],"categories_nodes":[],"categories_segments":[],"categories_sizes":[],"default_left":[0,0,0,0,0,0,0,0,0,0,0,0,0],"id":46,"left_children":[1,3,5,7,9,11,-1,-1,-1,-1,-1,-1,-1],"loss_changes":[9.395003E-2,8.637051E-2,5.318418E-3,5.5929568E-2,4.389772E-2,2.0849332E-3,0E0,0E0,0E0,0E0,0E0,0E0,0E0],"parents":[2147483647,0,0,1,1,2,2,3,3,4,4,5,5],"right_children":[2,4,6,8,10,12,-1,-1,-1,-1,-1,-1,-1],"split_conditions":[3.367287E-2,1.3883756E-1,-5.836103E0,3.16E1,-1.3042714E-1,-1.9345362E-1,1.712175E-4,3.960471E-7,2.1909042E-4,-5.1587913E-4,-1.0609346E-4,4.98528E-4,1.709164E-4],"split_indices":[10,1,6,4,13,8,0,0,0,0,0,0,0],"split_type":[0,0,0,0,0,0,0,0,0,0,0,0,0],"sum_hessian":[1.332E3,1.318E3,1.4E1,1.186E3,1.32E2,1E1,4E0,1.157E3,2.9E1,6E0,1.26E2,8E0,2E0],"tree_param":{"num_deleted":"0","num_feature":"25","num_nodes":"13","size_leaf_vector":"1"}},{"base_weights":[1.6223516E-3,5.237169E-2,1.931445E-5,6.5127514E-2,1.6117824E-2,-1.1343176E-1,8.102055E-4,3.5273877E-4,-3.5491885E-5,-1.8125847E-5,1.5370452E-4,-1.3763126E-4,-6.7030016E-4,-6.329561E-5,2.6219188E-5],"categories":[],"categories_nodes":[],"categories_segments":[],"categories_sizes":[],"default_left":[0,0,0,0,0,0,0,0,0,0,0,0,0,0,0],"id":47,"left_children":[1,3,5,7,9,11,13,-1,-1,-1,-1,-1,-1,-1,-1],"loss_changes":[1.08930744E-1,1.7910652E-2,1.16647854E-1,1.2228042E-2,3.5749797E-3,1.22484565E-2,7.714423E-2,0E0,0E0,0E0,0E0,0E0,0E0,0E0,0E0],"parents":[2147483647,0,0,1,1,2,2,3,3,4,4,5,5,6,6],"right_children":[2,4,6,8,10,12,14,-1,-1,-1,-1,-1,-1,-1,-1],"split_conditions":[-2.7305202E-3,-1.7028346E-3,-1.3042714E-1,3.573883E-2,-6.784199E0,-8.2353473E-4,-2.2249162E-2,3.5273877E-4,-3.5491885E-5,-1.8125847E-5,1.5370452E-4,-1.3763126E-4,-6.7030016E-4,-6.329561E-5,2.6219188E-5],"split_indices":[0,22,13,19,6,0,5,0,0,0,0,0,0,0,0],"split_type":[0,0,0,0,0,0,0,0,0,0,0,0,0,0,0],"sum_hessian":[1.338E3,4E1,1.298E3,2.9E1,1.1E1,8E0,1.29E3,2.7E1,2E0,5E0,6E0,2E0,6E0,3.19E2,9.71E2],"tree_param":{"num_deleted":"0","num_feature":"25","num_nodes":"15","size_leaf_vector":"1"}},{"base_weights":[8.739417E-4,5.3525506E-5,9.641027E-2,2.6517455E-3,-2.0498045E-2,1.395572E-4,1.0046963E-1,6.6688262E-6,2.2728358E-4,-2.1591557E-4,1.0762923E-5,1.4524903E-4,5.259489E-4],"categories":[],"categories_nodes":[],"categories_segments":[],"categories_sizes":[],"default_left":[0,0,0,0,0,0,0,0,0,0,0,0,0],"id":48,"left_children":[1,3,5,7,9,-1,11,-1,-1,-1,-1,-1,-1],"loss_changes":[1.01261206E-1,6.850995E-2,2.548769E-4,6.4196974E-2,7.406823E-2,0E0,3.0788034E-4,0E0,0E0,0E0,0E0,0E0,0E0],"parents":[2147483647,0,0,1,1,2,2,3,3,4,4,6,6],"right_children":[2,4,6,8,10,-1,12,-1,-1,-1,-1,-1,-1],"split_conditions":[5.363562E-2,1.3087198E-1,2.0867805E-1,3.041E1,1.9722227E-2,1.395572E-4,-3.3002815E0,6.6688262E-6,2.2728358E-4,-2.1591557E-4,1.0762923E-5,1.4524903E-4,5.259489E-4],"split_indices":[10,1,1,4,10,0,14,0,0,0,0,0,0],"split_type":[0,0,0,0,0,0,0,0,0,0,0,0,0],"sum_hessian":[1.291E3,1.281E3,1E1,1.138E3,1.43E2,1E0,9E0,1.105E3,3.3E1,7.1E1,7.2E1,1E0,8E0],"tree_param":{"num_deleted":"0","num_feature":"25","num_nodes":"13","size_leaf_vector":"1"}},{"base_weights":[-6.809617E-4,-3.1797239E-3,2.3324737E-2,1.481352E-3,-1.9472696E-2,-6.2159367E-2,3.219628E-2,3.3886379E-4,1.9538554E-6,-8.58515E-5,-8.277723E-4,2.5706648E-4,-6.269135E-4,-2.0198131E-5,2.0502716E-4],"categories":[],"categories_nodes":[],"categories_segments":[],"categories_sizes":[],"default_left":[0,0,0,0,0,0,0,0,0,0,0,0,0,0,0],"id":49,"left_children":[1,3,5,7,9,11,13,-1,-1,-1,-1,-1,-1,-1,-1],"loss_changes":[7.889384E-2,9.047669E-2,9.603993E-2,6.698712E-2,8.6350076E-2,9.258695E-2,3.621701E-2,0E0,0E0,0E0,0E0,0E0,0E0,0E0,0E0],"parents":[2147483647,0,0,1,1,2,2,3,3,4,4,5,5,6,6],"right_children":[2,4,6,8,10,12,14,-1,-1,-1,-1,-1,-1,-1,-1],"split_conditions":[2.814E1,1.0479783E-1,-1.13764994E-1,-8.781795E-4,4.71044E-1,-5.874957E-4,-5.7955407E-2,3.3886379E-4,1.9538554E-6,-8.58515E-5,-8.277723E-4,2.5706648E-4,-6.269135E-4,-2.0198131E-5,2.0502716E-4],"split_indices":[4,1,13,2,15,2,9,0,0,0,0,0,0,0,0],"split_type":[0,0,0,0,0,0,0,0,0,0,0,0,0,0,0],"sum_hessian":[1.313E3,1.19E3,1.23E2,9.26E2,2.64E2,1.1E1,1.12E2,1.4E1,9.12E2,2.61E2,3E0,4E0,7E0,2.2E1,9E1],"tree_param":{"num_deleted":"0","num_feature":"25","num_nodes":"15","size_leaf_vector":"1"}},{"base_weights":[-9.322057E-4,-2.2866316E-2,1.3793579E-3,-1.5586318E-2,-6.568039E-2,5.7768575E-3,-1.0226748E-2,-2.1569812E-4,8.291717E-6,-5.140229E-4,-1.2856846E-4,1.6743057E-4,1.949098E-5,-3.842357E-5,-4.1524964E-4],"categories":[],"categories_nodes":[],"categories_segments":[],"categories_sizes":[],"default_left":[0,0,0,0,0,0,0,0,0,0,0,0,0,0,0],"id":50,"left_children":[1,3,5,7,9,11,13,-1,-1,-1,-1,-1,-1,-1,-1],"loss_changes":[6.7009E-2,3.8248777E-2,6.110035E-2,5.1853057E-2,2.4057977E-2,4.5058694E-2,6.027879E-2,0E0,0E0,0E0,0E0,0E0,0E0,0E0,0E0],"parents":[2147483647,0,0,1,1,2,2,3,3,4,4,5,5,6,6],"right_children":[2,4,6,8,10,12,14,-1,-1,-1,-1,-1,-1,-1,-1],"split_conditions":[-4.788752E-2,2.3525853E0,3.8285155E-2,-6.262975E-4,4.0501494E0,-9.6085586E-2,4.6869516E-2,-2.1569812E-4,8.291717E-6,-5.140229E-4,-1.2856846E-4,1.6743057E-4,1.949098E-5,-3.842357E-5,-4.1524964E-4],"split_indices":[9,20,18,2,6,11,5,0,0,0,0,0,0,0,0],"split_type":[0,0,0,0,0,0,0,0,0,0,0,0,0,0,0],"sum_hessian":[1.32E3,1.25E2,1.195E3,1.08E2,1.7E1,8.67E2,3.28E2,4.1E1,6.7E1,8E0,9E0,5.4E1,8.13E2,3.18E2,1E1],"tree_param":{"num_deleted":"0","num_feature":"25","num_nodes":"15","size_leaf_vector":"1"}},{"base_weights":[6.784774E-4,5.7663057E-2,-1.1616693E-3,4.353503E-2,5.232009E-4,-2.667512E-2,8.018647E-4,2.7726713E-4,8.538595E-5,-9.041796E-5,-4.455104E-4,-3.768989E-4,7.1806658E-6],"categories":[],"categories_nodes":[],"categories_segments":[],"categories_sizes":[],"default_left":[0,0,0,0,0,0,0,0,0,0,0,0,0],"id":51,"left_children":[1,3,5,7,-1,9,11,-1,-1,-1,-1,-1,-1],"loss_changes":[1.4078908E-1,2.3313254E-2,6.519697E-2,9.769857E-3,0E0,4.8272714E-2,5.8505587E-2,0E0,0E0,0E0,0E0,0E0,0E0],"parents":[2147483647,0,0,1,1,2,2,3,3,5,5,6,6],"right_children":[2,4,6,8,-1,10,12,-1,-1,-1,-1,-1,-1],"split_conditions":[-2.7305202E-3,3.473E1,-5.359734E-2,2.4439279E-2,5.232009E-4,1.6381022E-1,-1.3042714E-1,2.7726713E-4,8.538595E-5,-9.041796E-5,-4.455104E-4,-3.768989E-4,7.1806658E-6],"split_indices":[0,4,9,3,0,1,13,0,0,0,0,0,0],"split_type":[0,0,0,0,0,0,0,0,0,0,0,0,0],"sum_hessian":[1.341E3,4.1E1,1.3E3,3.3E1,8E0,9.2E1,1.208E3,2.2E1,1.1E1,8.2E1,1E1,9E0,1.199E3],"tree_param":{"num_deleted":"0","num_feature":"25","num_nodes":"13","size_leaf_vector":"1"}},{"base_weights":[-7.7569176E-4,4.8651494E-2,-2.220775E-3,3.5271544E-2,4.6377582E-4,2.1184422E-3,-1.7014757E-2,2.844687E-4,1.3144694E-5,-6.1238566E-6,1.4408077E-4,-2.4639632E-4,-4.83399E-5],"categories":[],"categories_nodes":[],"categories_segments":[],"categories_sizes":[],"default_left":[0,0,0,0,0,0,0,0,0,0,0,0,0],"id":52,"left_children":[1,3,5,7,-1,9,11,-1,-1,-1,-1,-1,-1],"loss_changes":[9.303379E-2,1.8557534E-2,8.124183E-2,2.1018624E-2,0E0,8.740305E-2,6.75526E-2,0E0,0E0,0E0,0E0,0E0,0E0],"parents":[2147483647,0,0,1,1,2,2,3,3,5,5,6,6],"right_children":[2,4,6,8,-1,10,12,-1,-1,-1,-1,-1,-1],"split_conditions":[-9.823873E-2,5.363562E-2,1.05237134E-1,2.3761783E-2,4.6377582E-4,2.296E1,-4.8741356E-2,2.844687E-4,1.3144694E-5,-6.1238566E-6,1.4408077E-4,-2.4639632E-4,-4.83399E-5],"split_indices":[23,10,1,10,0,4,5,0,0,0,0,0,0],"split_type":[0,0,0,0,0,0,0,0,0,0,0,0,0],"sum_hessian":[1.3E3,3.6E1,1.264E3,2.9E1,7E0,9.78E2,2.86E2,1.7E1,1.2E1,8.7E2,1.08E2,5.2E1,2.34E2],"tree_param":{"num_deleted":"0","num_feature":"25","num_nodes":"13","size_leaf_vector":"1"}},{"base_weights":[5.8397604E-4,-3.3179167E-4,9.2608936E-2,2.3219383E-3,-2.0362683E-2,4.8267763E-4,1.1405815E-4,4.2942866E-6,1.5512435E-4,-6.7656336E-5,-4.1166315E-4],"categories":[],"categories_nodes":[],"categories_segments":[],"categories_sizes":[],"default_left":[0,0,0,0,0,0,0,0,0,0,0],"id":53,"left_children":[1,3,5,7,9,-1,-1,-1,-1,-1,-1],"loss_changes":[1.1118746E-1,6.952291E-2,1.3516322E-3,4.847459E-2,6.366225E-2,0E0,0E0,0E0,0E0,0E0,0E0],"parents":[2147483647,0,0,1,1,2,2,3,3,4,4],"right_children":[2,4,6,8,10,-1,-1,-1,-1,-1,-1],"split_conditions":[5.363562E-2,1.3019678E-1,8.223007E-2,2.814E1,5.6419834E-2,4.8267763E-4,1.1405815E-4,4.2942866E-6,1.5512435E-4,-6.7656336E-5,-4.1166315E-4],"split_indices":[10,1,13,4,18,0,0,0,0,0,0],"split_type":[0,0,0,0,0,0,0,0,0,0,0],"sum_hessian":[1.318E3,1.306E3,1.2E1,1.154E3,1.52E2,1.1E1,1E0,1.099E3,5.5E1,1.38E2,1.4E1],"tree_param":{"num_deleted":"0","num_feature":"25","num_nodes":"11","size_leaf_vector":"1"}},{"base_weights":[-3.6280265E-4,-1.2594875E-3,9.942362E-2,4.1042823E-2,-2.065207E-3,1.3846463E-4,5.171954E-4,6.209768E-5,2.8187156E-4,-1.2070613E-4,-2.6722987E-6],"categories":[],"categories_nodes":[],"categories_segments":[],"categories_sizes":[],"default_left":[0,0,0,0,0,0,0,0,0,0,0],"id":54,"left_children":[1,3,5,7,9,-1,-1,-1,-1,-1,-1],"loss_changes":[1.2056123E-1,4.5586627E-2,5.827546E-4,1.0267012E-2,4.4285815E-2,0E0,0E0,0E0,0E0,0E0,0E0],"parents":[2147483647,0,0,1,1,2,2,3,3,4,4],"right_children":[2,4,6,8,10,-1,-1,-1,-1,-1,-1],"split_conditions":[5.363562E-2,-3.1691465E-1,2.0867805E-1,-6.4822326E0,-5.487933E-2,1.3846463E-4,5.171954E-4,6.209768E-5,2.8187156E-4,-1.2070613E-4,-2.6722987E-6],"split_indices":[10,8,1,6,9,0,0,0,0,0,0],"split_type":[0,0,0,0,0,0,0,0,0,0,0],"sum_hessian":[1.345E3,1.334E3,1.1E1,2.4E1,1.31E3,1E0,1E1,9E0,1.5E1,8.4E1,1.226E3],"tree_param":{"num_deleted":"0","num_feature":"25","num_nodes":"11","size_leaf_vector":"1"}},{"base_weights":[4.5650674E-4,5.834603E-2,-1.2133053E-3,7.994123E-3,6.982834E-2,-1.5280683E-2,3.380191E-3,-4.754423E-5,1.0199545E-4,2.7022252E-4,5.325366E-4,-2.1177779E-4,3.1592397E-6,2.5137176E-4,1.0930175E-5],"categories":[],"categories_nodes":[],"categories_segments":[],"categories_sizes":[],"default_left":[0,0,0,0,0,0,0,0,0,0,0,0,0,0,0],"id":55,"left_children":[1,3,5,7,9,11,13,-1,-1,-1,-1,-1,-1,-1,-1],"loss_changes":[1.2757143E-1,2.0833552E-2,8.295712E-2,1.9304979E-3,1.1614174E-2,1.3614476E-1,5.410165E-2,0E0,0E0,0E0,0E0,0E0,0E0,0E0,0E0],"parents":[2147483647,0,0,1,1,2,2,3,3,4,4,5,5,6,6],"right_children":[2,4,6,8,10,12,14,-1,-1,-1,-1,-1,-1,-1,-1],"split_conditions":[-2.7305202E-3,-5.487933E-2,-2.2848522E-2,-1.3409927E-2,3.473E1,4.43153E-4,-2.9171023E0,-4.754423E-5,1.0199545E-4,2.7022252E-4,5.325366E-4,-2.1177779E-4,3.1592397E-6,2.5137176E-4,1.0930175E-5],"split_indices":[0,9,5,24,4,2,6,0,0,0,0,0,0,0,0],"split_type":[0,0,0,0,0,0,0,0,0,0,0,0,0,0,0],"sum_hessian":[1.318E3,3.6E1,1.282E3,7E0,2.9E1,3.15E2,9.67E2,3E0,4E0,2.2E1,7E0,1.16E2,1.99E2,2.3E1,9.44E2],"tree_param":{"num_deleted":"0","num_feature":"25","num_nodes":"15","size_leaf_vector":"1"}},{"base_weights":[-3.2185006E-4,4.0532608E-2,-2.1310048E-3,3.160991E-2,9.123287E-2,5.650374E-4,-2.884489E-2,2.5572243E-5,2.1411994E-4,4.9715507E-4,8.481695E-5,2.5573836E-5,-5.371523E-5,-1.8284011E-4,1.5556E-4],"categories":[],"categories_nodes":[],"categories_segments":[],"categories_sizes":[],"default_left":[0,0,0,0,0,0,0,0,0,0,0,0,0,0,0],"id":56,"left_children":[1,3,5,7,9,11,13,-1,-1,-1,-1,-1,-1,-1,-1],"loss_changes":[9.935024E-2,2.2901975E-2,9.2708305E-2,1.46311745E-2,3.1782314E-3,6.023611E-2,5.5746138E-2,0E0,0E0,0E0,0E0,0E0,0E0,0E0,0E0],"parents":[2147483647,0,0,1,1,2,2,3,3,4,4,5,5,6,6],"right_children":[2,4,6,8,10,12,14,-1,-1,-1,-1,-1,-1,-1,-1],"split_conditions":[-2.3931433E-3,3.607E1,1.3617943E-1,-7.112327E0,5.1836216E-1,1.1932988E-3,3.9861314E-2,2.5572243E-5,2.1411994E-4,4.9715507E-4,8.481695E-5,2.5573836E-5,-5.371523E-5,-1.8284011E-4,1.5556E-4],"split_indices":[0,4,1,20,15,2,17,0,0,0,0,0,0,0,0],"split_type":[0,0,0,0,0,0,0,0,0,0,0,0,0,0,0],"sum_hessian":[1.342E3,5.6E1,1.286E3,4.9E1,7E0,1.169E3,1.17E2,1.5E1,3.4E1,6E0,1E0,8.34E2,3.35E2,1.04E2,1.3E1],"tree_param":{"num_deleted":"0","num_feature":"25","num_nodes":"15","size_leaf_vector":"1"}},{"base_weights":[1.3466802E-3,5.073689E-2,-9.363026E-4,4.040324E-2,4.8671116E-4,1.5425003E-3,-2.399761E-2,2.6806493E-4,1.12874404E-4,2.7015062E-6,1.8918452E-4,-1.6714486E-4,9.42873E-5],"categories":[],"categories_nodes":[],"categories_segments":[],"categories_sizes":[],"default_left":[0,0,0,0,0,0,0,0,0,0,0,0,0],"id":57,"left_children":[1,3,5,7,-1,9,11,-1,-1,-1,-1,-1,-1],"loss_changes":[1.5057811E-1,2.4475515E-2,7.3036E-2,1.056172E-2,0E0,4.195307E-2,5.0726645E-2,0E0,0E0,0E0,0E0,0E0,0E0],"parents":[2147483647,0,0,1,1,2,2,3,3,5,5,6,6],"right_children":[2,4,6,8,-1,10,12,-1,-1,-1,-1,-1,-1],"split_conditions":[-2.4691313E-3,3.607E1,1.3617943E-1,1.2400385E-2,4.8671116E-4,3.041E1,1.9521923E-1,2.6806493E-4,1.12874404E-4,2.7015062E-6,1.8918452E-4,-1.6714486E-4,9.42873E-5],"split_indices":[0,4,1,15,0,4,1,0,0,0,0,0,0],"split_type":[0,0,0,0,0,0,0,0,0,0,0,0,0],"sum_hessian":[1.334E3,5.8E1,1.276E3,4.9E1,9E0,1.153E3,1.23E2,2.7E1,2.2E1,1.123E3,3E1,1.01E2,2.2E1],"tree_param":{"num_deleted":"0","num_feature":"25","num_nodes":"13","size_leaf_vector":"1"}},{"base_weights":[-9.931659E-4,6.2106084E-2,-2.955045E-3,7.2191514E-2,1.9346092E-2,1.2144704E-3,-1.6603507E-2,1.5265477E-4,3.939257E-4,-4.067818E-5,1.7223056E-4,2.8409258E-5,-6.385826E-5,1.0780898E-4,-1.14389324E-4],"categories":[],"categories_nodes":[],"categories_segments":[],"categories_sizes":[],"default_left":[0,0,0,0,0,0,0,0,0,0,0,0,0,0,0],"id":58,"left_children":[1,3,5,7,9,11,13,-1,-1,-1,-1,-1,-1,-1,-1],"loss_changes":[1.642094E-1,1.5853494E-2,7.3203176E-2,6.3744187E-3,4.013885E-3,6.1664242E-2,7.2537825E-2,0E0,0E0,0E0,0E0,0E0,0E0,0E0,0E0],"parents":[2147483647,0,0,1,1,2,2,3,3,4,4,5,5,6,6],"right_children":[2,4,6,8,10,12,14,-1,-1,-1,-1,-1,-1,-1,-1],"split_conditions":[-2.7305202E-3,-2.4773646E-3,1.1023793E-1,-2.243877E-3,-6.2344093E0,1.2736438E-3,1.149612E0,1.5265477E-4,3.939257E-4,-4.067818E-5,1.7223056E-4,2.8409258E-5,-6.385826E-5,1.0780898E-4,-1.14389324E-4],"split_indices":[0,22,1,2,20,2,16,0,0,0,0,0,0,0,0],"split_type":[0,0,0,0,0,0,0,0,0,0,0,0,0,0,0],"sum_hessian":[1.324E3,3.9E1,1.285E3,3.1E1,8E0,9.85E2,3E2,5E0,2.6E1,3E0,5E0,7.47E2,2.38E2,4.2E1,2.58E2],"tree_param":{"num_deleted":"0","num_feature":"25","num_nodes":"15","size_leaf_vector":"1"}},{"base_weights":[-5.6375714E-4,-1.5159968E-3,4.306859E-4,1.0750049E-3,-1.9374663E-2,2.7399494E-5,-5.206238E-5,-2.0191367E-4,2.220102E-6],"categories":[],"categories_nodes":[],"categories_segments":[],"categories_sizes":[],"default_left":[0,0,0,0,0,0,0,0,0],"id":59,"left_children":[1,3,-1,5,7,-1,-1,-1,-1],"loss_changes":[1.1396837E-1,6.3181885E-2,0E0,6.040981E-2,7.2031364E-2,0E0,0E0,0E0,0E0],"parents":[2147483647,0,0,1,1,3,3,4,4],"right_children":[2,4,-1,6,8,-1,-1,-1,-1],"split_conditions":[5.363562E-2,1.3087198E-1,4.306859E-4,1.2077704E-3,1.9894699E-2,2.7399494E-5,-5.206238E-5,-2.0191367E-4,2.220102E-6],"split_indices":[10,1,0,2,10,0,0,0,0],"split_type":[0,0,0,0,0,0,0,0,0],"sum_hessian":[1.378E3,1.364E3,1.4E1,1.192E3,1.72E2,8.62E2,3.3E2,8.3E1,8.9E1],"tree_param":{"num_deleted":"0","num_feature":"25","num_nodes":"9","size_leaf_vector":"1"}},{"base_weights":[-2.4124552E-4,5.3565007E-2,-1.828638E-3,6.0173657E-2,-7.650813E-4,-5.648818E-2,-2.1291026E-4,3.3215812E-4,1.6170528E-4,3.1551248E-5,-7.266707E-5,-4.5677443E-4,-1.0247678E-4,-6.824751E-6,2.3553266E-4],"categories":[],"categories_nodes":[],"categories_segments":[],"categories_sizes":[],"default_left":[0,0,0,0,0,0,0,0,0,0,0,0,0,0,0],"id":60,"left_children":[1,3,5,7,9,11,13,-1,-1,-1,-1,-1,-1,-1,-1],"loss_changes":[1.1027896E-1,1.333084E-2,1.1073491E-1,3.59378E-3,5.786616E-4,4.329604E-2,6.650066E-2,0E0,0E0,0E0,0E0,0E0,0E0,0E0,0E0],"parents":[2147483647,0,0,1,1,2,2,3,3,4,4,5,5,6,6],"right_children":[2,4,6,8,10,12,14,-1,-1,-1,-1,-1,-1,-1,-1],"split_conditions":[-2.7305202E-3,2.960711E-2,-2.475359E0,-1.9345362E-1,-3.188375E-3,-1.8067518E-2,3.361E1,3.3215812E-4,1.6170528E-4,3.1551248E-5,-7.266707E-5,-4.5677443E-4,-1.0247678E-4,-6.824751E-6,2.3553266E-4],"split_indices":[0,19,14,8,0,17,4,0,0,0,0,0,0,0,0],"split_type":[0,0,0,0,0,0,0,0,0,0,0,0,0,0,0],"sum_hessian":[1.289E3,3.6E1,1.253E3,3.2E1,4E0,3.5E1,1.218E3,2.5E1,7E0,3E0,1E0,1.7E1,1.8E1,1.19E3,2.8E1],"tree_param":{"num_deleted":"0","num_feature":"25","num_nodes":"15","size_leaf_vector":"1"}},{"base_weights":[1.5164157E-3,5.378354E-2,-1.5503276E-4,2.717508E-2,8.036367E-2,5.9693115E-4,-7.9850286E-2,2.0244598E-4,1.72607E-5,4.6241027E-4,2.5324043E-4,-6.073032E-5,2.2971022E-5,1.7209424E-5,-8.18669E-4],"categories":[],"categories_nodes":[],"categories_segments":[],"categories_sizes":[],"default_left":[0,0,0,0,0,0,0,0,0,0,0,0,0,0,0],"id":61,"left_children":[1,3,5,7,9,11,13,-1,-1,-1,-1,-1,-1,-1,-1],"loss_changes":[1.1558801E-1,2.6813611E-2,7.693523E-2,6.8067294E-3,2.5143623E-3,6.483286E-2,8.4387E-2,0E0,0E0,0E0,0E0,0E0,0E0,0E0,0E0],"parents":[2147483647,0,0,1,1,2,2,3,3,4,4,5,5,6,6],"right_children":[2,4,6,8,10,12,14,-1,-1,-1,-1,-1,-1,-1,-1],"split_conditions":[-2.712144E-3,-9.608845E-3,6.468601E-1,2.4439279E-2,2.1404535E-2,-2.2249162E-2,1.2053291E-2,2.0244598E-4,1.72607E-5,4.6241027E-4,2.5324043E-4,-6.073032E-5,2.2971022E-5,1.7209424E-5,-8.18669E-4],"split_indices":[0,9,15,3,19,5,19,0,0,0,0,0,0,0,0],"split_type":[0,0,0,0,0,0,0,0,0,0,0,0,0,0,0],"sum_hessian":[1.322E3,4E1,1.282E3,2.1E1,1.9E1,1.271E3,1.1E1,1.3E1,8E0,1.2E1,7E0,3.03E2,9.68E2,6E0,5E0],"tree_param":{"num_deleted":"0","num_feature":"25","num_nodes":"15","size_leaf_vector":"1"}},{"base_weights":[7.202027E-4,5.2813705E-2,-1.0265231E-3,2.5603624E-2,7.880457E-2,-4.8922796E-2,3.4951966E-4,4.321393E-5,1.8342856E-4,4.4917135E-4,1.8144245E-4,-4.463108E-4,-2.9380217E-5,-5.7770445E-5,2.0727395E-5],"categories":[],"categories_nodes":[],"categories_segments":[],"categories_sizes":[],"default_left":[0,0,0,0,0,0,0,0,0,0,0,0,0,0,0],"id":62,"left_children":[1,3,5,7,9,11,13,-1,-1,-1,-1,-1,-1,-1,-1],"loss_changes":[1.17799245E-1,2.7685285E-2,8.259896E-2,3.8168738E-3,6.5805465E-3,6.0238376E-2,5.511656E-2,0E0,0E0,0E0,0E0,0E0,0E0,0E0,0E0],"parents":[2147483647,0,0,1,1,2,2,3,3,4,4,5,5,6,6],"right_children":[2,4,6,8,10,12,14,-1,-1,-1,-1,-1,-1,-1,-1],"split_conditions":[-2.712144E-3,-1.9115245E-3,-2.475359E0,-6.784199E0,-1.7710695E-1,1.3302869E0,-2.2249162E-2,4.321393E-5,1.8342856E-4,4.4917135E-4,1.8144245E-4,-4.463108E-4,-2.9380217E-5,-5.7770445E-5,2.0727395E-5],"split_indices":[0,2,14,6,8,16,5,0,0,0,0,0,0,0,0],"split_type":[0,0,0,0,0,0,0,0,0,0,0,0,0,0,0],"sum_hessian":[1.293E3,4.1E1,1.252E3,2.1E1,2E1,3.4E1,1.218E3,9E0,1.2E1,1.5E1,5E0,1.7E1,1.7E1,2.94E2,9.24E2],"tree_param":{"num_deleted":"0","num_feature":"25","num_nodes":"15","size_leaf_vector":"1"}},{"base_weights":[-5.1230594E-4,4.168596E-2,-2.6049302E-3,2.1294508E-2,7.533693E-2,-1.0448807E-1,-1.6990275E-3,2.5996502E-4,-6.668005E-6,4.724553E-4,2.0503328E-4,-1.08349705E-4,-6.6426024E-4,-1.3833061E-4,4.391401E-6],"categories":[],"categories_nodes":[],"categories_segments":[],"categories_sizes":[],"default_left":[0,0,0,0,0,0,0,0,0,0,0,0,0,0,0],"id":63,"left_children":[1,3,5,7,9,11,13,-1,-1,-1,-1,-1,-1,-1,-1],"loss_changes":[1.158766E-1,4.093965E-2,1.1519274E-1,2.7849887E-2,1.1243865E-2,2.2948645E-2,8.299861E-2,0E0,0E0,0E0,0E0,0E0,0E0,0E0,0E0],"parents":[2147483647,0,0,1,1,2,2,3,3,4,4,5,5,6,6],"right_children":[2,4,6,8,10,12,14,-1,-1,-1,-1,-1,-1,-1,-1],"split_conditions":[-2.262388E-3,9.930756E-3,-1.3042714E-1,-5.5712783E-3,-2.1069054E-1,-8.2353473E-4,-4.788752E-2,2.5996502E-4,-6.668005E-6,4.724553E-4,2.0503328E-4,-1.08349705E-4,-6.6426024E-4,-1.3833061E-4,4.391401E-6],"split_indices":[0,9,13,19,8,0,9,0,0,0,0,0,0,0,0],"split_type":[0,0,0,0,0,0,0,0,0,0,0,0,0,0,0],"sum_hessian":[1.31E3,6.1E1,1.249E3,3.9E1,2.2E1,1E1,1.239E3,1.6E1,2.3E1,1.3E1,9E0,3E0,7E0,1.11E2,1.128E3],"tree_param":{"num_deleted":"0","num_feature":"25","num_nodes":"15","size_leaf_vector":"1"}},{"base_weights":[-3.515634E-4,-1.4445824E-3,7.763665E-2,1.1002714E-3,-2.191869E-2,9.074778E-2,2.5398167E-2,-2.9943934E-7,2.0692889E-4,-1.9915518E-5,-1.9175437E-4,4.7177033E-4,1.1001723E-4,1.4473384E-4,2.8044582E-5],"categories":[],"categories_nodes":[],"categories_segments":[],"categories_sizes":[],"default_left":[0,0,0,0,0,0,0,0,0,0,0,0,0,0,0],"id":64,"left_children":[1,3,5,7,9,11,13,-1,-1,-1,-1,-1,-1,-1,-1],"loss_changes":[1.1101278E-1,6.692515E-2,1.0023467E-2,5.341717E-2,4.1687846E-2,1.3851672E-3,1.8849038E-4,0E0,0E0,0E0,0E0,0E0,0E0,0E0,0E0],"parents":[2147483647,0,0,1,1,2,2,3,3,4,4,5,5,6,6],"right_children":[2,4,6,8,10,12,14,-1,-1,-1,-1,-1,-1,-1,-1],"split_conditions":[3.367287E-2,1.3617943E-1,-5.2013717E0,3.041E1,-2.2141812E0,8.223007E-2,5.2858214E-4,-2.9943934E-7,2.0692889E-4,-1.9915518E-5,-1.9175437E-4,4.7177033E-4,1.1001723E-4,1.4473384E-4,2.8044582E-5],"split_indices":[10,1,6,4,6,13,2,0,0,0,0,0,0,0,0],"split_type":[0,0,0,0,0,0,0,0,0,0,0,0,0,0,0],"sum_hessian":[1.3E3,1.283E3,1.7E1,1.142E3,1.41E2,1.3E1,4E0,1.111E3,3.1E1,6.8E1,7.3E1,1.2E1,1E0,3E0,1E0],"tree_param":{"num_deleted":"0","num_feature":"25","num_nodes":"15","size_leaf_vector":"1"}},{"base_weights":[9.815586E-4,-9.306363E-5,9.4838105E-2,2.2832032E-3,-1.9827217E-2,1.3453465E-4,4.8889837E-4,-2.5502787E-4,1.4396031E-5,-2.2037815E-4,-2.800081E-5],"categories":[],"categories_nodes":[],"categories_segments":[],"categories_sizes":[],"default_left":[0,0,0,0,0,0,0,0,0,0,0],"id":65,"left_children":[1,3,5,7,9,-1,-1,-1,-1,-1,-1],"loss_changes":[1.3364875E-1,6.1522797E-2,3.5609305E-4,3.7314232E-2,4.8388217E-2,0E0,0E0,0E0,0E0,0E0,0E0],"parents":[2147483647,0,0,1,1,2,2,3,3,4,4],"right_children":[2,4,6,8,10,-1,-1,-1,-1,-1,-1],"split_conditions":[5.363562E-2,1.3617943E-1,-1.675558E-2,-3.2862738E-2,-3.753861E-3,1.3453465E-4,4.8889837E-4,-2.5502787E-4,1.4396031E-5,-2.2037815E-4,-2.800081E-5],"split_indices":[10,1,9,17,24,0,0,0,0,0,0],"split_type":[0,0,0,0,0,0,0,0,0,0,0],"sum_hessian":[1.324E3,1.31E3,1.4E1,1.17E3,1.4E2,1E0,1.3E1,1.2E1,1.158E3,5.1E1,8.9E1],"tree_param":{"num_deleted":"0","num_feature":"25","num_nodes":"11","size_leaf_vector":"1"}},{"base_weights":[3.721158E-4,5.6837406E-2,-1.1507326E-3,6.4629056E-2,1.643809E-2,-9.156251E-2,-3.7768894E-4,3.3990186E-4,-7.2500115E-5,1.5887915E-4,-7.299962E-5,-1.3081117E-4,-6.260629E-4,-8.257362E-6,2.6544777E-4],"categories":[],"categories_nodes":[],"categories_segments":[],"categories_sizes":[],"default_left":[0,0,0,0,0,0,0,0,0,0,0,0,0,0,0],"id":66,"left_children":[1,3,5,7,9,11,13,-1,-1,-1,-1,-1,-1,-1,-1],"loss_changes":[1.1460153E-1,9.9548325E-3,9.0685576E-2,8.658461E-3,3.7952545E-3,2.0923935E-2,8.778555E-2,0E0,0E0,0E0,0E0,0E0,0E0,0E0,0E0],"parents":[2147483647,0,0,1,1,2,2,3,3,4,4,5,5,6,6],"right_children":[2,4,6,8,10,12,14,-1,-1,-1,-1,-1,-1,-1,-1],"split_conditions":[-2.7305202E-3,-1.7028346E-3,-1.3042714E-1,3.573883E-2,2.4439279E-2,-8.2353473E-4,3.361E1,3.3990186E-4,-7.2500115E-5,1.5887915E-4,-7.299962E-5,-1.3081117E-4,-6.260629E-4,-8.257362E-6,2.6544777E-4],"split_indices":[0,22,13,19,3,0,4,0,0,0,0,0,0,0,0],"split_type":[0,0,0,0,0,0,0,0,0,0,0,0,0,0,0],"sum_hessian":[1.331E3,3.4E1,1.297E3,2.8E1,6E0,1E1,1.287E3,2.7E1,1E0,4E0,2E0,4E0,6E0,1.258E3,2.9E1],"tree_param":{"num_deleted":"0","num_feature":"25","num_nodes":"15","size_leaf_vector":"1"}},{"base_weights":[1.105847E-4,5.552796E-2,-1.3340313E-3,4.0722504E-2,4.8357708E-4,1.0442392E-3,-2.3443036E-2,7.0277274E-5,2.320404E-4,5.2991898E-5,-2.1230646E-5,-1.6522709E-4,1.1064084E-4],"categories":[],"categories_nodes":[],"categories_segments":[],"categories_sizes":[],"default_left":[0,0,0,0,0,0,0,0,0,0,0,0,0],"id":67,"left_children":[1,3,5,7,-1,9,11,-1,-1,-1,-1,-1,-1],"loss_changes":[1.0398785E-1,1.6180076E-2,6.659227E-2,3.2865815E-3,0E0,5.785614E-2,5.4531477E-2,0E0,0E0,0E0,0E0,0E0,0E0],"parents":[2147483647,0,0,1,1,2,2,3,3,5,5,6,6],"right_children":[2,4,6,8,-1,10,12,-1,-1,-1,-1,-1,-1],"split_conditions":[-2.7305202E-3,3.473E1,1.3617943E-1,-8.249572E0,4.8357708E-4,-3.646762E-2,1.9521923E-1,7.0277274E-5,2.320404E-4,5.2991898E-5,-2.1230646E-5,-1.6522709E-4,1.1064084E-4],"split_indices":[0,4,1,20,0,8,1,0,0,0,0,0,0],"split_type":[0,0,0,0,0,0,0,0,0,0,0,0,0],"sum_hessian":[1.297E3,3.2E1,1.265E3,2.5E1,7E0,1.143E3,1.22E2,5E0,2E1,4.07E2,7.36E2,1.01E2,2.1E1],"tree_param":{"num_deleted":"0","num_feature":"25","num_nodes":"13","size_leaf_vector":"1"}},{"base_weights":[6.0925883E-4,5.1705744E-2,-8.5677154E-4,6.104354E-2,2.4085183E-2,-9.945756E-2,-8.6385386E-5,-7.249456E-5,3.2256843E-4,1.6285434E-4,5.499276E-6,-1.5333763E-4,-6.2286836E-4,-8.440107E-6,1.7823004E-4],"categories":[],"categories_nodes":[],"categories_segments":[],"categories_sizes":[],"default_left":[0,0,0,0,0,0,0,0,0,0,0,0,0,0,0],"id":68,"left_children":[1,3,5,7,9,11,13,-1,-1,-1,-1,-1,-1,-1,-1],"loss_changes":[9.9373624E-2,8.072615E-3,9.798069E-2,7.998332E-3,2.1087923E-3,1.3449214E-2,7.33555E-2,0E0,0E0,0E0,0E0,0E0,0E0,0E0,0E0],"parents":[2147483647,0,0,1,1,2,2,3,3,4,4,5,5,6,6],"right_children":[2,4,6,8,10,12,14,-1,-1,-1,-1,-1,-1,-1,-1],"split_conditions":[-2.7305202E-3,-2.0257893E-3,-1.3042714E-1,-1.0565553E1,2.837E1,-8.2353473E-4,3.116E1,-7.249456E-5,3.2256843E-4,1.6285434E-4,5.499276E-6,-1.5333763E-4,-6.2286836E-4,-8.440107E-6,1.7823004E-4],"split_indices":[0,22,13,6,4,0,4,0,0,0,0,0,0,0,0],"split_type":[0,0,0,0,0,0,0,0,0,0,0,0,0,0,0],"sum_hessian":[1.325E3,3.6E1,1.289E3,2.6E1,1E1,9E0,1.28E3,1E0,2.5E1,7E0,3E0,3E0,6E0,1.226E3,5.4E1],"tree_param":{"num_deleted":"0","num_feature":"25","num_nodes":"15","size_leaf_vector":"1"}},{"base_weights":[-1.1419638E-3,-1.8659526E-3,8.49849E-2,-1.9272443E-2,1.0938854E-3,4.6608833E-4,1.5996408E-4,-1.675817E-5,-2.0802449E-4,1.4348881E-4,-3.4650254E-6],"categories":[],"categories_nodes":[],"categories_segments":[],"categories_sizes":[],"default_left":[0,0,0,0,0,0,0,0,0,0,0],"id":69,"left_children":[1,3,5,7,9,-1,-1,-1,-1,-1,-1],"loss_changes":[8.2279965E-2,6.735823E-2,1.8116459E-3,6.740284E-2,5.515663E-2,0E0,0E0,0E0,0E0,0E0,0E0],"parents":[2147483647,0,0,1,1,2,2,3,3,4,4],"right_children":[2,4,6,8,10,-1,-1,-1,-1,-1,-1],"split_conditions":[5.363562E-2,-3.8512457E-2,-2.8921286E-2,1.07465565E-1,-7.580972E-4,4.6608833E-4,1.5996408E-4,-1.675817E-5,-2.0802449E-4,1.4348881E-4,-3.4650254E-6],"split_indices":[10,9,7,1,2,0,0,0,0,0,0],"split_type":[0,0,0,0,0,0,0,0,0,0,0],"sum_hessian":[1.316E3,1.306E3,1E1,1.89E2,1.117E3,8E0,2E0,1.11E2,7.8E1,6.7E1,1.05E3],"tree_param":{"num_deleted":"0","num_feature":"25","num_nodes":"11","size_leaf_vector":"1"}},{"base_weights":[9.961922E-5,5.2901283E-2,-1.6309705E-3,2.4765257E-2,7.179908E-2,-2.15921E-2,1.4216799E-3,1.6115015E-4,-5.3964127E-6,3.817374E-4,7.287385E-5,-2.7887532E-4,-5.679198E-5,1.1555459E-5,-3.6076814E-4],"categories":[],"categories_nodes":[],"categories_segments":[],"categories_sizes":[],"default_left":[0,0,0,0,0,0,0,0,0,0,0,0,0,0,0],"id":70,"left_children":[1,3,5,7,9,11,13,-1,-1,-1,-1,-1,-1,-1,-1],"loss_changes":[1.180553E-1,2.0021945E-2,7.625956E-2,3.5057263E-3,5.1227584E-3,5.74331E-2,7.1205035E-2,0E0,0E0,0E0,0E0,0E0,0E0,0E0,0E0],"parents":[2147483647,0,0,1,1,2,2,3,3,4,4,5,5,6,6],"right_children":[2,4,6,8,10,12,14,-1,-1,-1,-1,-1,-1,-1,-1],"split_conditions":[-2.7305202E-3,-2.1464943E-3,-3.800198E-2,2.6035288E-2,1.19942855E-2,-6.569454E-4,6.468601E-1,1.6115015E-4,-5.3964127E-6,3.817374E-4,7.287385E-5,-2.7887532E-4,-5.679198E-5,1.1555459E-5,-3.6076814E-4],"split_indices":[0,2,9,19,7,2,15,0,0,0,0,0,0,0,0],"split_type":[0,0,0,0,0,0,0,0,0,0,0,0,0,0,0],"sum_hessian":[1.29E3,4E1,1.25E3,1.7E1,2.3E1,1.65E2,1.085E3,1.3E1,4E0,2.1E1,2E0,3.7E1,1.28E2,1.073E3,1.2E1],"tree_param":{"num_deleted":"0","num_feature":"25","num_nodes":"15","size_leaf_vector":"1"}},{"base_weights":[-8.8887435E-4,5.2617148E-2,-2.3072176E-3,6.348912E-2,1.6125424E-3,-6.425976E-2,-1.4238555E-3,1.4333658E-4,3.9242607E-4,5.554038E-5,-7.375221E-5,-1.2731223E-4,-6.080389E-4,-1.5834343E-5,1.6513932E-4],"categories":[],"categories_nodes":[],"categories_segments":[],"categories_sizes":[],"default_left":[0,0,0,0,0,0,0,0,0,0,0,0,0,0,0],"id":71,"left_children":[1,3,5,7,9,11,13,-1,-1,-1,-1,-1,-1,-1,-1],"loss_changes":[9.991662E-2,1.8751323E-2,7.0067905E-2,1.2364738E-2,1.2511902E-3,3.6946848E-2,7.604421E-2,0E0,0E0,0E0,0E0,0E0,0E0,0E0,0E0],"parents":[2147483647,0,0,1,1,2,2,3,3,4,4,5,5,6,6],"right_children":[2,4,6,8,10,12,14,-1,-1,-1,-1,-1,-1,-1,-1],"split_conditions":[-2.7305202E-3,-1.2187477E-2,-1.0825777E-1,-2.243877E-3,-2.6931655E-1,5.6589447E-6,2.952E1,1.4333658E-4,3.9242607E-4,5.554038E-5,-7.375221E-5,-1.2731223E-4,-6.080389E-4,-1.5834343E-5,1.6513932E-4],"split_indices":[0,7,13,2,8,0,4,0,0,0,0,0,0,0,0],"split_type":[0,0,0,0,0,0,0,0,0,0,0,0,0,0,0],"sum_hessian":[1.314E3,3.3E1,1.281E3,2.7E1,6E0,1.7E1,1.264E3,9E0,1.8E1,4E0,2E0,1.1E1,6E0,1.204E3,6E1],"tree_param":{"num_deleted":"0","num_feature":"25","num_nodes":"15","size_leaf_vector":"1"}},{"base_weights":[2.3491637E-4,-1.3242323E-3,4.9537122E-2,2.85979E-3,-1.5721431E-2,8.651477E-2,2.6298588E-2,3.8282797E-5,-7.5009906E-5,-1.3338572E-4,1.3743187E-5,1.023873E-4,4.7555118E-4,-2.6842134E-4,2.164228E-4],"categories":[],"categories_nodes":[],"categories_segments":[],"categories_sizes":[],"default_left":[0,0,0,0,0,0,0,0,0,0,0,0,0,0,0],"id":72,"left_children":[1,3,5,7,9,11,13,-1,-1,-1,-1,-1,-1,-1,-1],"loss_changes":[1.0030338E-1,7.624629E-2,3.209705E-2,8.414306E-2,5.7727337E-2,6.5569803E-3,3.7633844E-2,0E0,0E0,0E0,0E0,0E0,0E0,0E0,0E0],"parents":[2147483647,0,0,1,1,2,2,3,3,4,4,5,5,6,6],"right_children":[2,4,6,8,10,12,14,-1,-1,-1,-1,-1,-1,-1,-1],"split_conditions":[3.361E1,1.07465565E-1,-1.9345362E-1,1.2581404E-3,4.43153E-4,-2.0501728E-3,-9.401166E-2,3.8282797E-5,-7.5009906E-5,-1.3338572E-4,1.3743187E-5,1.023873E-4,4.7555118E-4,-2.6842134E-4,2.164228E-4],"split_indices":[4,1,8,2,2,2,7,0,0,0,0,0,0,0,0],"split_type":[0,0,0,0,0,0,0,0,0,0,0,0,0,0,0],"sum_hessian":[1.303E3,1.264E3,3.9E1,9.8E2,2.84E2,1.4E1,2.5E1,7.73E2,2.07E2,1.78E2,1.06E2,2E0,1.2E1,4E0,2.1E1],"tree_param":{"num_deleted":"0","num_feature":"25","num_nodes":"15","size_leaf_vector":"1"}},{"base_weights":[7.298324E-5,4.44318E-2,-1.1479573E-3,5.3747497E-2,1.4836225E-2,1.2198447E-3,-2.261327E-2,3.4757477E-4,1.7076211E-4,-1.7712466E-5,1.6963364E-4,7.4114894E-8,1.8703005E-4,3.0230754E-4,-1.6181674E-4],"categories":[],"categories_nodes":[],"categories_segments":[],"categories_sizes":[],"default_left":[0,0,0,0,0,0,0,0,0,0,0,0,0,0,0],"id":73,"left_children":[1,3,5,7,9,11,13,-1,-1,-1,-1,-1,-1,-1,-1],"loss_changes":[7.278718E-2,9.127922E-3,6.650748E-2,5.965993E-3,3.6279825E-3,5.1404055E-2,1.0720723E-1,0E0,0E0,0E0,0E0,0E0,0E0,0E0,0E0],"parents":[2147483647,0,0,1,1,2,2,3,3,4,4,5,5,6,6],"right_children":[2,4,6,8,10,12,14,-1,-1,-1,-1,-1,-1,-1,-1],"split_conditions":[-2.7305202E-3,-1.7028346E-3,1.3617943E-1,1.2400385E-2,-6.784199E0,3.041E1,1.0131387E0,3.4757477E-4,1.7076211E-4,-1.7712466E-5,1.6963364E-4,7.4114894E-8,1.8703005E-4,3.0230754E-4,-1.6181674E-4],"split_indices":[0,22,1,15,6,4,16,0,0,0,0,0,0,0,0],"split_type":[0,0,0,0,0,0,0,0,0,0,0,0,0,0,0],"sum_hessian":[1.342E3,3.5E1,1.307E3,2.6E1,9E0,1.178E3,1.29E2,1.3E1,1.3E1,5E0,4E0,1.141E3,3.7E1,1.3E1,1.16E2],"tree_param":{"num_deleted":"0","num_feature":"25","num_nodes":"15","size_leaf_vector":"1"}},{"base_weights":[-4.929435E-4,4.5568738E-2,-2.6201906E-3,-2.7167141E-2,5.1570825E-2,1.9324536E-3,-1.5965302E-2,-1.9739129E-4,5.515565E-5,7.0865324E-5,3.1089108E-4,7.938221E-5,-1.1040384E-5,-3.8508693E-4,-6.323382E-5],"categories":[],"categories_nodes":[],"categories_segments":[],"categories_sizes":[],"default_left":[0,0,0,0,0,0,0,0,0,0,0,0,0,0,0],"id":74,"left_children":[1,3,5,7,9,11,13,-1,-1,-1,-1,-1,-1,-1,-1],"loss_changes":[1.265195E-1,2.6285358E-2,7.50032E-2,2.7857989E-3,2.0130873E-2,5.319961E-2,6.2661715E-2,0E0,0E0,0E0,0E0,0E0,0E0,0E0,0E0],"parents":[2147483647,0,0,1,1,2,2,3,3,4,4,5,5,6,6],"right_children":[2,4,6,8,10,12,14,-1,-1,-1,-1,-1,-1,-1,-1],"split_conditions":[-2.4691313E-3,-1.0565553E1,1.0301297E-1,-2.6282533E-3,-5.487933E-2,-4.8230436E-2,-7.2642595E-2,-1.9739129E-4,5.515565E-5,7.0865324E-5,3.1089108E-4,7.938221E-5,-1.1040384E-5,-3.8508693E-4,-6.323382E-5],"split_indices":[0,6,1,0,9,8,9,0,0,0,0,0,0,0,0],"split_type":[0,0,0,0,0,0,0,0,0,0,0,0,0,0,0],"sum_hessian":[1.289E3,5.6E1,1.233E3,4E0,5.2E1,9.2E2,3.13E2,3E0,1E0,1.2E1,4E1,2.1E2,7.1E2,1.5E1,2.98E2],"tree_param":{"num_deleted":"0","num_feature":"25","num_nodes":"15","size_leaf_vector":"1"}},{"base_weights":[-1.3968569E-3,-2.2603038E-3,9.13962E-2,-7.723035E-2,-1.6132531E-3,4.7479235E-4,1.3083172E-4,5.2849886E-5,-6.44627E-4,-6.633054E-8,-1.2325901E-4],"categories":[],"categories_nodes":[],"categories_segments":[],"categories_sizes":[],"default_left":[0,0,0,0,0,0,0,0,0,0,0],"id":75,"left_children":[1,3,5,7,9,-1,-1,-1,-1,-1,-1],"loss_changes":[1.04284905E-1,6.2355544E-2,2.9613078E-4,5.1275246E-2,4.710298E-2,0E0,0E0,0E0,0E0,0E0,0E0],"parents":[2147483647,0,0,1,1,2,2,3,3,4,4],"right_children":[2,4,6,8,10,-1,-1,-1,-1,-1,-1],"split_conditions":[5.363562E-2,-1.3042714E-1,-4.696874E-2,-6.269011E-2,5.2225024E-2,4.7479235E-4,1.3083172E-4,5.2849886E-5,-6.44627E-4,-6.633054E-8,-1.2325901E-4],"split_indices":[10,13,11,11,7,0,0,0,0,0,0],"split_type":[0,0,0,0,0,0,0,0,0,0,0],"sum_hessian":[1.298E3,1.287E3,1.1E1,1E1,1.277E3,1E1,1E0,4E0,6E0,1.195E3,8.2E1],"tree_param":{"num_deleted":"0","num_feature":"25","num_nodes":"11","size_leaf_vector":"1"}},{"base_weights":[-9.248927E-4,4.2737074E-2,-3.0782043E-3,1.6221121E-2,5.7578217E-2,-3.9136698E-4,-2.9465094E-2,2.0636876E-4,-2.3093311E-5,3.3876917E-4,1.0150755E-4,1.6807042E-5,-6.357361E-5,-2.1394658E-4,-1.2113805E-5],"categories":[],"categories_nodes":[],"categories_segments":[],"categories_sizes":[],"default_left":[0,0,0,0,0,0,0,0,0,0,0,0,0,0,0],"id":76,"left_children":[1,3,5,7,9,11,13,-1,-1,-1,-1,-1,-1,-1,-1],"loss_changes":[1.2602141E-1,2.3858227E-2,9.05243E-2,1.2718188E-2,1.3787046E-2,5.367754E-2,4.2399175E-2,0E0,0E0,0E0,0E0,0E0,0E0,0E0,0E0],"parents":[2147483647,0,0,1,1,2,2,3,3,4,4,5,5,6,6],"right_children":[2,4,6,8,10,12,14,-1,-1,-1,-1,-1,-1,-1,-1],"split_conditions":[-2.3931433E-3,-1.9115245E-3,1.3617943E-1,2.4439279E-2,1.4463785E0,1.3369444E-3,2.1311818E-2,2.0636876E-4,-2.3093311E-5,3.3876917E-4,1.0150755E-4,1.6807042E-5,-6.357361E-5,-2.1394658E-4,-1.2113805E-5],"split_indices":[0,2,1,3,16,2,10,0,0,0,0,0,0,0,0],"split_type":[0,0,0,0,0,0,0,0,0,0,0,0,0,0,0],"sum_hessian":[1.338E3,6.2E1,1.276E3,2.3E1,3.9E1,1.159E3,1.17E2,1E1,1.3E1,3E1,9E0,8.89E2,2.7E2,7.8E1,3.9E1],"tree_param":{"num_deleted":"0","num_feature":"25","num_nodes":"15","size_leaf_vector":"1"}},{"base_weights":[2.6428685E-4,-6.340689E-4,8.5525036E-2,9.961486E-4,-2.2564234E-2,9.196237E-2,1.5635417E-4,-3.6792513E-5,1.879585E-5,8.073199E-5,-1.823382E-4,4.7746924E-4,1.3309595E-4],"categories":[],"categories_nodes":[],"categories_segments":[],"categories_sizes":[],"default_left":[0,0,0,0,0,0,0,0,0,0,0,0,0],"id":77,"left_children":[1,3,5,7,9,11,-1,-1,-1,-1,-1,-1,-1],"loss_changes":[1.0284403E-1,4.753547E-2,2.014421E-3,2.8598653E-2,5.00873E-2,2.19509E-4,0E0,0E0,0E0,0E0,0E0,0E0,0E0],"parents":[2147483647,0,0,1,1,2,2,3,3,4,4,5,5],"right_children":[2,4,6,8,10,12,-1,-1,-1,-1,-1,-1,-1],"split_conditions":[5.363562E-2,5.1420722E-2,4.6599153E-2,-2.3684915E-2,1.2013454E0,4.3792173E-1,1.5635417E-4,-3.6792513E-5,1.879585E-5,8.073199E-5,-1.823382E-4,4.7746924E-4,1.3309595E-4],"split_indices":[10,7,13,5,16,15,0,0,0,0,0,0,0],"split_type":[0,0,0,0,0,0,0,0,0,0,0,0,0],"sum_hessian":[1.341E3,1.328E3,1.3E1,1.237E3,9.1E1,1.1E1,2E0,3.07E2,9.3E2,2.4E1,6.7E1,1E1,1E0],"tree_param":{"num_deleted":"0","num_feature":"25","num_nodes":"13","size_leaf_vector":"1"}},{"base_weights":[-6.890888E-4,-1.7244673E-3,8.902063E-2,4.7246634E-4,-3.0552417E-2,9.46053E-2,1.7575387E-4,-4.445255E-6,2.0653746E-4,2.6255417E-5,-2.2755109E-4,4.903749E-4,1.3276319E-4],"categories":[],"categories_nodes":[],"categories_segments":[],"categories_sizes":[],"default_left":[0,0,0,0,0,0,0,0,0,0,0,0,0],"id":78,"left_children":[1,3,5,7,9,11,-1,-1,-1,-1,-1,-1,-1],"loss_changes":[1.2210957E-1,8.228412E-2,1.1879131E-3,6.718623E-2,4.9491346E-2,4.5652688E-4,0E0,0E0,0E0,0E0,0E0,0E0,0E0],"parents":[2147483647,0,0,1,1,2,2,3,3,4,4,5,5],"right_children":[2,4,6,8,10,12,-1,-1,-1,-1,-1,-1,-1],"split_conditions":[5.363562E-2,1.5077963E-1,-1.8837044E-1,3.116E1,-9.259909E-2,-7.2642136E0,1.7575387E-4,-4.445255E-6,2.0653746E-4,2.6255417E-5,-2.2755109E-4,4.903749E-4,1.3276319E-4],"split_indices":[10,1,8,4,23,6,0,0,0,0,0,0,0],"split_type":[0,0,0,0,0,0,0,0,0,0,0,0,0],"sum_hessian":[1.312E3,1.298E3,1.4E1,1.207E3,9.1E1,1.2E1,2E0,1.169E3,3.8E1,2.7E1,6.4E1,1.1E1,1E0],"tree_param":{"num_deleted":"0","num_feature":"25","num_nodes":"13","size_leaf_vector":"1"}},{"base_weights":[-7.0470636E-4,-1.5528974E-3,8.2406975E-2,4.4903748E-2,-2.5575296E-3,2.6448924E-4,5.008032E-4,2.917303E-4,1.297479E-4,-3.4995725E-7,-1.296101E-4],"categories":[],"categories_nodes":[],"categories_segments":[],"categories_sizes":[],"default_left":[0,0,0,0,0,0,0,0,0,0,0],"id":79,"left_children":[1,3,5,7,9,-1,-1,-1,-1,-1,-1],"loss_changes":[9.071351E-2,5.9528105E-2,1.5106201E-3,5.3632855E-3,7.2465226E-2,0E0,0E0,0E0,0E0,0E0,0E0],"parents":[2147483647,0,0,1,1,2,2,3,3,4,4],"right_children":[2,4,6,8,10,-1,-1,-1,-1,-1,-1],"split_conditions":[5.363562E-2,-2.7305202E-3,-2.610496E-3,2.2168191E-2,1.3883756E-1,2.6448924E-4,5.008032E-4,2.917303E-4,1.297479E-4,-3.4995725E-7,-1.296101E-4],"split_indices":[10,0,24,10,1,0,0,0,0,0,0],"split_type":[0,0,0,0,0,0,0,0,0,0,0],"sum_hessian":[1.284E3,1.272E3,1.2E1,2.6E1,1.246E3,6E0,6E0,1.4E1,1.2E1,1.127E3,1.19E2],"tree_param":{"num_deleted":"0","num_feature":"25","num_nodes":"11","size_leaf_vector":"1"}},{"base_weights":[-5.526308E-4,-4.356824E-2,6.1124185E-4,6.5235845E-3,-6.888597E-2,-9.6458377E-4,4.1003186E-2,1.0999966E-4,-1.6897915E-4,-4.12355E-4,2.681927E-4,2.756911E-5,-4.180457E-5,2.5226249E-4,-1.833132E-4],"categories":[],"categories_nodes":[],"categories_segments":[],"categories_sizes":[],"default_left":[0,0,0,0,0,0,0,0,0,0,0,0,0,0,0],"id":80,"left_children":[1,3,5,7,9,11,13,-1,-1,-1,-1,-1,-1,-1,-1],"loss_changes":[6.841499E-2,4.6104982E-2,8.475858E-2,8.853275E-3,4.4341825E-2,6.146147E-2,3.8520113E-2,0E0,0E0,0E0,0E0,0E0,0E0,0E0,0E0],"parents":[2147483647,0,0,1,1,2,2,3,3,4,4,5,5,6,6],"right_children":[2,4,6,8,10,12,14,-1,-1,-1,-1,-1,-1,-1,-1],"split_conditions":[-2.475359E0,-2.4123557E-2,3.234E1,4.71044E-1,6.167E1,1.1971949E0,8.153728E-2,1.0999966E-4,-1.6897915E-4,-4.12355E-4,2.681927E-4,2.756911E-5,-4.180457E-5,2.5226249E-4,-1.833132E-4],"split_indices":[14,12,4,15,4,6,9,0,0,0,0,0,0,0,0],"split_type":[0,0,0,0,0,0,0,0,0,0,0,0,0,0,0],"sum_hessian":[1.365E3,3.5E1,1.33E3,1.2E1,2.3E1,1.281E3,4.9E1,9E0,3E0,2.1E1,2E0,6.83E2,5.98E2,4.4E1,5E0],"tree_param":{"num_deleted":"0","num_feature":"25","num_nodes":"15","size_leaf_vector":"1"}},{"base_weights":[-8.3611914E-5,4.3474723E-2,-1.3686531E-3,1.1154778E-2,6.186324E-2,2.9657986E-3,-1.698327E-2,-5.0690607E-5,1.5527825E-4,3.7451173E-4,1.5913592E-4,4.1944597E-5,-6.145137E-5,-1.849991E-4,-2.1961334E-5],"categories":[],"categories_nodes":[],"categories_segments":[],"categories_sizes":[],"default_left":[0,0,0,0,0,0,0,0,0,0,0,0,0,0,0],"id":81,"left_children":[1,3,5,7,9,11,13,-1,-1,-1,-1,-1,-1,-1,-1],"loss_changes":[7.422539E-2,2.1893933E-2,8.722325E-2,6.6695507E-3,7.0111603E-3,8.356147E-2,7.039377E-2,0E0,0E0,0E0,0E0,0E0,0E0,0E0,0E0],"parents":[2147483647,0,0,1,1,2,2,3,3,4,4,5,5,6,6],"right_children":[2,4,6,8,10,12,14,-1,-1,-1,-1,-1,-1,-1,-1],"split_conditions":[-2.712144E-3,-2.1464943E-3,1.1081938E-1,-6.784199E0,-1.8434392E-1,1.2077704E-3,-2.2249162E-2,-5.0690607E-5,1.5527825E-4,3.7451173E-4,1.5913592E-4,4.1944597E-5,-6.145137E-5,-1.849991E-4,-2.1961334E-5],"split_indices":[0,2,1,6,8,2,5,0,0,0,0,0,0,0,0],"split_type":[0,0,0,0,0,0,0,0,0,0,0,0,0,0,0],"sum_hessian":[1.324E3,3.7E1,1.287E3,1.4E1,2.3E1,1.008E3,2.79E2,7E0,7E0,1.5E1,8E0,7.44E2,2.64E2,1.07E2,1.72E2],"tree_param":{"num_deleted":"0","num_feature":"25","num_nodes":"15","size_leaf_vector":"1"}},{"base_weights":[8.6217886E-4,5.080465E-2,-8.8745024E-4,2.4198357E-2,6.330118E-2,-2.4470672E-2,1.2973064E-3,1.5536747E-4,-2.0923528E-5,3.8464266E-4,1.4187334E-4,-6.140392E-5,-2.9653113E-4,2.5621466E-5,-4.0692044E-5],"categories":[],"categories_nodes":[],"categories_segments":[],"categories_sizes":[],"default_left":[0,0,0,0,0,0,0,0,0,0,0,0,0,0,0],"id":82,"left_children":[1,3,5,7,9,11,13,-1,-1,-1,-1,-1,-1,-1,-1],"loss_changes":[1.1617417E-1,1.3430111E-2,6.6239566E-2,3.2505896E-3,1.2088686E-2,4.5554183E-2,4.2533223E-2,0E0,0E0,0E0,0E0,0E0,0E0,0E0,0E0],"parents":[2147483647,0,0,1,1,2,2,3,3,4,4,5,5,6,6],"right_children":[2,4,6,8,10,12,14,-1,-1,-1,-1,-1,-1,-1,-1],"split_conditions":[-2.712144E-3,-2.1464943E-3,-5.0281066E-2,-5.5013426E-2,-1.8434392E-1,2.6771662E-1,1.1932988E-3,1.5536747E-4,-2.0923528E-5,3.8464266E-4,1.4187334E-4,-6.140392E-5,-2.9653113E-4,2.5621466E-5,-4.0692044E-5],"split_indices":[0,2,9,21,8,6,2,0,0,0,0,0,0,0,0],"split_type":[0,0,0,0,0,0,0,0,0,0,0,0,0,0,0],"sum_hessian":[1.328E3,4.4E1,1.284E3,1.5E1,2.9E1,1.08E2,1.176E3,1.2E1,3E0,2E1,9E0,8.1E1,2.7E1,8.37E2,3.39E2],"tree_param":{"num_deleted":"0","num_feature":"25","num_nodes":"15","size_leaf_vector":"1"}},{"base_weights":[4.5810445E-4,3.5947766E-2,-1.5357438E-3,1.2779489E-2,6.0784437E-2,-4.5435134E-2,-2.6904725E-5,1.3197545E-4,-2.7946364E-5,4.2930283E-4,1.8240286E-4,-5.0341732E-5,-3.235914E-4,2.8020322E-5,-3.254455E-5],"categories":[],"categories_nodes":[],"categories_segments":[],"categories_sizes":[],"default_left":[0,0,0,0,0,0,0,0,0,0,0,0,0,0,0],"id":83,"left_children":[1,3,5,7,9,11,13,-1,-1,-1,-1,-1,-1,-1,-1],"loss_changes":[9.445038E-2,4.0078238E-2,8.3722495E-2,9.649002E-3,1.7585218E-2,2.7982071E-2,4.4666044E-2,0E0,0E0,0E0,0E0,0E0,0E0,0E0,0E0],"parents":[2147483647,0,0,1,1,2,2,3,3,4,4,5,5,6,6],"right_children":[2,4,6,8,10,12,14,-1,-1,-1,-1,-1,-1,-1,-1],"split_conditions":[-2.262388E-3,-8.947893E-3,-1.0281102E-3,2.4439279E-2,-1.0263362E-1,1.2013454E0,1.3671274E0,1.3197545E-4,-2.7946364E-5,4.2930283E-4,1.8240286E-4,-5.0341732E-5,-3.235914E-4,2.8020322E-5,-3.254455E-5],"split_indices":[0,9,2,3,23,16,16,0,0,0,0,0,0,0,0],"split_type":[0,0,0,0,0,0,0,0,0,0,0,0,0,0,0],"sum_hessian":[1.333E3,7E1,1.263E3,3.7E1,3.3E1,4.1E1,1.222E3,2.1E1,1.6E1,1.5E1,1.8E1,1.5E1,2.6E1,6.54E2,5.68E2],"tree_param":{"num_deleted":"0","num_feature":"25","num_nodes":"15","size_leaf_vector":"1"}},{"base_weights":[1.585464E-3,5.3584106E-2,-5.22473E-5,6.132866E-2,8.312819E-3,-9.4598584E-2,5.4618856E-4,3.793741E-4,2.1166434E-4,-7.235611E-5,7.261552E-5,-1.8501438E-5,-5.3533714E-4,-4.3444365E-6,2.5883224E-4],"categories":[],"categories_nodes":[],"categories_segments":[],"categories_sizes":[],"default_left":[0,0,0,0,0,0,0,0,0,0,0,0,0,0,0],"id":84,"left_children":[1,3,5,7,9,11,13,-1,-1,-1,-1,-1,-1,-1,-1],"loss_changes":[1.1156078E-1,1.3514422E-2,7.196474E-2,6.180346E-3,1.200262E-3,8.6624995E-3,9.1643885E-2,0E0,0E0,0E0,0E0,0E0,0E0,0E0,0E0],"parents":[2147483647,0,0,1,1,2,2,3,3,4,4,5,5,6,6],"right_children":[2,4,6,8,10,12,14,-1,-1,-1,-1,-1,-1,-1,-1],"split_conditions":[-2.7305202E-3,-1.7028346E-3,-1.3042714E-1,1.2400385E-2,-1.7267081E-1,-9.2605647E-4,3.361E1,3.793741E-4,2.1166434E-4,-7.235611E-5,7.261552E-5,-1.8501438E-5,-5.3533714E-4,-4.3444365E-6,2.5883224E-4],"split_indices":[0,22,13,15,15,0,4,0,0,0,0,0,0,0,0],"split_type":[0,0,0,0,0,0,0,0,0,0,0,0,0,0,0],"sum_hessian":[1.309E3,3.9E1,1.27E3,3.3E1,6E0,7E0,1.263E3,1.7E1,1.6E1,1E0,5E0,1E0,6E0,1.23E3,3.3E1],"tree_param":{"num_deleted":"0","num_feature":"25","num_nodes":"15","size_leaf_vector":"1"}},{"base_weights":[-9.371325E-4,-1.8061738E-3,6.562522E-2,7.797006E-4,-2.4146244E-2,4.1054166E-4,3.0362446E-2,-2.6632126E-6,1.7144337E-4,-2.2581949E-4,-1.6965421E-5,2.4759067E-5,1.6888087E-4],"categories":[],"categories_nodes":[],"categories_segments":[],"categories_sizes":[],"default_left":[0,0,0,0,0,0,0,0,0,0,0,0,0],"id":85,"left_children":[1,3,5,7,9,-1,11,-1,-1,-1,-1,-1,-1],"loss_changes":[7.630097E-2,7.517579E-2,7.3828995E-3,5.1329274E-2,5.8718503E-2,0E0,4.393463E-4,0E0,0E0,0E0,0E0,0E0,0E0],"parents":[2147483647,0,0,1,1,2,2,3,3,4,4,6,6],"right_children":[2,4,6,8,10,-1,12,-1,-1,-1,-1,-1,-1],"split_conditions":[3.367287E-2,1.3883756E-1,-5.2013717E0,2.952E1,1.9722227E-2,4.1054166E-4,4.028E1,-2.6632126E-6,1.7144337E-4,-2.2581949E-4,-1.6965421E-5,2.4759067E-5,1.6888087E-4],"split_indices":[10,1,6,4,10,0,4,0,0,0,0,0,0],"split_type":[0,0,0,0,0,0,0,0,0,0,0,0,0],"sum_hessian":[1.316E3,1.3E3,1.6E1,1.166E3,1.34E2,1E1,6E0,1.123E3,4.3E1,6.6E1,6.8E1,1E0,5E0],"tree_param":{"num_deleted":"0","num_feature":"25","num_nodes":"13","size_leaf_vector":"1"}},{"base_weights":[-1.0089512E-3,5.316372E-2,-2.53296E-3,2.2507709E-2,6.9512434E-2,-2.6845334E-2,-2.4501618E-4,1.5552562E-4,-9.68644E-5,2.5086E-4,4.7021284E-4,-2.4815687E-4,-1.1511643E-5,-4.3791768E-4,1.7797402E-6],"categories":[],"categories_nodes":[],"categories_segments":[],"categories_sizes":[],"default_left":[0,0,0,0,0,0,0,0,0,0,0,0,0,0,0],"id":86,"left_children":[1,3,5,7,9,11,13,-1,-1,-1,-1,-1,-1,-1,-1],"loss_changes":[1.08618E-1,1.6478136E-2,7.113823E-2,5.6410907E-3,6.1929747E-3,6.138771E-2,6.143048E-2,0E0,0E0,0E0,0E0,0E0,0E0,0E0,0E0],"parents":[2147483647,0,0,1,1,2,2,3,3,4,4,5,5,6,6],"right_children":[2,4,6,8,10,12,14,-1,-1,-1,-1,-1,-1,-1,-1],"split_conditions":[-2.7305202E-3,-2.1464943E-3,-5.359734E-2,-5.5013426E-2,3.074E1,3.0953274E-4,-1.3042714E-1,1.5552562E-4,-9.68644E-5,2.5086E-4,4.7021284E-4,-2.4815687E-4,-1.1511643E-5,-4.3791768E-4,1.7797402E-6],"split_indices":[0,2,9,21,4,2,13,0,0,0,0,0,0,0,0],"split_type":[0,0,0,0,0,0,0,0,0,0,0,0,0,0,0],"sum_hessian":[1.313E3,3.5E1,1.278E3,1.3E1,2.2E1,1.09E2,1.169E3,1.1E1,2E0,1.4E1,8E0,5.6E1,5.3E1,7E0,1.162E3],"tree_param":{"num_deleted":"0","num_feature":"25","num_nodes":"15","size_leaf_vector":"1"}},{"base_weights":[5.462267E-4,-3.4975115E-4,7.94156E-2,2.521454E-4,-1.1337035E-1,4.7663663E-4,2.3815711E-4,1.9025347E-4,-4.512017E-6,-5.2163355E-6,-7.905506E-4],"categories":[],"categories_nodes":[],"categories_segments":[],"categories_sizes":[],"default_left":[0,0,0,0,0,0,0,0,0,0,0],"id":87,"left_children":[1,3,5,7,9,-1,-1,-1,-1,-1,-1],"loss_changes":[9.4365835E-2,8.9891866E-2,3.0427724E-3,5.7409916E-2,3.4999765E-2,0E0,0E0,0E0,0E0,0E0,0E0],"parents":[2147483647,0,0,1,1,2,2,3,3,4,4],"right_children":[2,4,6,8,10,-1,-1,-1,-1,-1,-1],"split_conditions":[3.367287E-2,6.468601E-1,-7.2642136E0,-2.712144E-3,8.050843E-2,4.7663663E-4,2.3815711E-4,1.9025347E-4,-4.512017E-6,-5.2163355E-6,-7.905506E-4],"split_indices":[10,15,6,0,1,0,0,0,0,0,0],"split_type":[0,0,0,0,0,0,0,0,0,0,0],"sum_hessian":[1.334E3,1.32E3,1.4E1,1.314E3,6E0,8E0,6E0,3.8E1,1.276E3,2E0,4E0],"tree_param":{"num_deleted":"0","num_feature":"25","num_nodes":"11","size_leaf_vector":"1"}},{"base_weights":[-8.9788875E-5,4.2313036E-2,-1.6215667E-3,3.040097E-2,4.8297475E-4,-9.308667E-2,-8.4097986E-4,2.0697677E-4,-3.354122E-5,-1.2233984E-4,-6.440907E-4,-1.2665895E-5,1.609089E-4],"categories":[],"categories_nodes":[],"categories_segments":[],"categories_sizes":[],"default_left":[0,0,0,0,0,0,0,0,0,0,0,0,0],"id":88,"left_children":[1,3,5,7,-1,9,11,-1,-1,-1,-1,-1,-1],"loss_changes":[8.755856E-2,2.7448423E-2,9.2808515E-2,1.6590212E-2,0E0,2.380938E-2,7.220423E-2,0E0,0E0,0E0,0E0,0E0,0E0],"parents":[2147483647,0,0,1,1,2,2,3,3,5,5,6,6],"right_children":[2,4,6,8,-1,10,12,-1,-1,-1,-1,-1,-1],"split_conditions":[-2.4691313E-3,6.1118696E-2,-1.3042714E-1,2.526073E-2,4.8297475E-4,-8.2353473E-4,3.041E1,2.0697677E-4,-3.354122E-5,-1.2233984E-4,-6.440907E-4,-1.2665895E-5,1.609089E-4],"split_indices":[0,5,13,3,0,0,4,0,0,0,0,0,0],"split_type":[0,0,0,0,0,0,0,0,0,0,0,0,0],"sum_hessian":[1.346E3,4.6E1,1.3E3,3.9E1,7E0,1E1,1.29E3,3E1,9E0,4E0,6E0,1.228E3,6.2E1],"tree_param":{"num_deleted":"0","num_feature":"25","num_nodes":"13","size_leaf_vector":"1"}},{"base_weights":[-1.4234646E-4,4.0278923E-2,-1.8042433E-3,1.7362181E-2,6.1703853E-2,3.1049694E-3,-1.7057706E-2,-1.0329691E-4,1.5852648E-4,3.3618062E-4,-2.452422E-5,6.843554E-5,-1.1574529E-6,-1.5583327E-4,-2.013169E-6],"categories":[],"categories_nodes":[],"categories_segments":[],"categories_sizes":[],"default_left":[0,0,0,0,0,0,0,0,0,0,0,0,0,0,0],"id":89,"left_children":[1,3,5,7,9,11,13,-1,-1,-1,-1,-1,-1,-1,-1],"loss_changes":[9.015565E-2,2.4951138E-2,9.657648E-2,1.537476E-2,1.0265671E-2,